#ifndef MODEL_H
#define MODEL_H
#include "Matrice.h"
#define NB_IMG   1
int FIXED_POINT_FACTOR = 65536;
int FIXED_POINT_FRACTIONNAL_BITS = 16;
int weight1[16][25]={
						{-10242,12875,5994,12555,8798,
						-993,-2008,-3200,17323,11864,
						14680,7655,9385,1333,3131,
						35,-1141,-13905,-21378,-23362,
						11376,83,-12098,-13770,-2112
						},
						{-9033,-9814,-15996,11789,4577,
						-30317,-17388,-8376,5782,24299,
						-12754,-15813,-3491,17574,13931,
						-17917,3180,-3267,15787,14915,
						-4299,-4475,1142,15905,11190
						},
						{12677,1115,-11663,-15870,-17699,
						-5990,-14632,-12401,-14293,-23806,
						-4691,4365,2781,7652,-8250,
						19739,20664,21317,16949,7490,
						-4222,5067,4913,17405,22496
						},
						{-22614,-29153,-16550,3715,15374,
						-19305,-1454,5152,11018,10122,
						6568,9742,24680,13813,10696,
						16002,15342,19612,10932,-12639,
						-6359,6440,2649,-12202,-24947
						},
						{-2069,-9237,3387,11279,20576,
						15937,252,2324,15197,13482,
						10619,11364,20097,1076,19285,
						5034,1505,-8245,-26178,-20557,
						-12839,-2712,-24527,-21986,-27831
						},
						{7936,-5739,11442,-13060,12008,
						767,2052,7038,-1889,15315,
						8435,-3894,3009,12315,7865,
						1368,9116,7536,785,-898,
						-626,6725,234,11789,-10166
						},
						{6447,16087,19729,-2708,-13795,
						10445,15211,5242,-7516,-5045,
						-3071,13932,14479,-10872,-17446,
						4550,14415,14402,-15994,-25255,
						-413,-6761,12789,-2763,-13048
						},
						{12526,18806,20051,-8841,-20601,
						1250,14203,-7213,-21828,-6586,
						12020,21785,-5231,-10367,-23219,
						4802,296,-7662,-22599,-17118,
						17225,20529,-10562,1283,-6055
						},
						{-5646,-20086,-19946,-26786,-19881,
						9081,-9523,-23599,-7694,-9521,
						11026,15193,7661,2170,707,
						11874,12906,9943,17172,9030,
						9714,6021,6212,6788,16
						},
						{8122,6145,5096,-6869,-524,
						10732,10699,-10458,9400,-13563,
						7471,15243,4826,-4619,12249,
						-11865,14382,5305,12393,4759,
						3265,11361,12566,1033,-5876
						},
						{1589,5239,-4070,-18229,-18961,
						15002,5413,9636,7369,-11092,
						9080,1904,-4136,-4003,17191,
						15281,15387,-9111,-13940,-3799,
						11836,-2187,6013,7255,12388
						},
						{10401,13708,-450,-21727,-27669,
						16355,16762,-7866,7224,-16574,
						19664,9703,19843,16684,12091,
						-7580,12399,-3169,-6425,-5999,
						-5993,-9462,-7290,6894,-2769
						},
						{13464,-4806,-5105,-18058,-12797,
						-3727,25126,5629,-6935,-28346,
						1203,13243,38141,6656,-23792,
						-20526,1066,23598,22003,-9218,
						-18247,-20411,8987,17305,4888
						},
						{-25691,7146,7830,-5546,4578,
						2348,21964,22004,11423,1413,
						14829,16668,5650,-19291,-22181,
						14666,-8537,-21882,-24128,7519,
						5284,-9107,-13708,6269,11777
						},
						{4635,8692,16777,10909,10841,
						9748,19324,16913,17543,7744,
						-13615,-9662,-9991,16553,21086,
						-4693,1720,-1265,-186,-5440,
						-8691,-22446,-31810,-21759,-8360
						},
						{11514,11420,6257,543,1957,
						-6781,6260,8260,-10642,-10373,
						-12105,792,5715,-17086,-14698,
						-11363,9864,9804,13620,5313,
						-9774,15451,12833,11458,17969
						},};

int weight2[32][16][25]={
						 {{3790,4444,-1866,-6810,-6379,
						 6073,-5594,-8030,-3054,4966,
						 -695,-9177,-2349,4588,2220,
						 -8970,-3477,520,789,-471,
						 262,2416,1980,4645,3068
						 },
						 {6760,-7961,-7206,-3274,9049,
						 -2190,2308,1402,10544,11421,
						 -2915,8234,7036,7148,-832,
						 2733,9453,-62,-622,-7777,
						 8949,1777,-2820,-13347,-21201
						 },
						 {-1039,-7253,-5109,-3067,-3819,
						 -2601,1860,3900,490,-3150,
						 -5506,-182,-5566,-7861,-8862,
						 -193,349,-10464,-9252,3228,
						 6130,-4518,-3460,598,1351
						 },
						 {6325,-4393,-9437,-14247,6660,
						 7464,-13014,-6244,6384,12635,
						 -4234,-5160,8953,4992,8323,
						 -4066,5227,3221,356,-4258,
						 8844,7820,-346,396,-2309
						 },
						 {2313,3288,2519,-8624,-5210,
						 -87,-7079,-13786,-9235,6811,
						 1078,-8647,-1387,-117,3800,
						 -12233,-6587,-1334,483,1339,
						 1612,1811,3223,5383,7329
						 },
						 {-1194,-3125,-5882,-9843,4610,
						 72,-3566,-6089,8123,6489,
						 -2302,-1343,9746,4654,691,
						 -2774,3856,1428,5606,2621,
						 4847,5228,990,1533,-2873
						 },
						 {9282,2606,2181,-8347,-12502,
						 8808,-949,-5154,-10940,2893,
						 4205,-5031,-6929,2254,4843,
						 -6172,-8683,1205,4564,2965,
						 -8463,630,2985,-214,5553
						 },
						 {8100,6790,3853,-8405,-13168,
						 7948,5402,-9976,-9250,-8286,
						 6280,-6410,-11110,-7315,5415,
						 -7429,-7356,-1518,1939,-449,
						 -6351,-2285,925,-913,-2885
						 },
						 {1573,4172,-3057,-3731,-123,
						 783,127,-508,5211,1087,
						 -2040,1318,-1007,-5557,-5455,
						 -5877,-2898,-11661,-9286,-744,
						 6437,-2706,-6250,-5354,-394
						 },
						 {-2070,-4830,-7970,-4189,3823,
						 -1042,432,1121,253,390,
						 -4168,-816,1352,286,2095,
						 -6342,1206,4583,2211,-256,
						 -1572,2397,5162,2917,220
						 },
						 {4056,640,-6679,-911,-6544,
						 112,1014,-2314,371,-1016,
						 327,434,3140,5062,3075,
						 -1824,-426,-19,-644,3567,
						 -2528,1124,2303,1285,448
						 },
						 {2379,4422,-4461,-6399,-13197,
						 4049,4327,-4596,-10270,-9756,
						 5290,-1857,-6029,-9307,-72,
						 -4206,-13050,-2854,4228,3777,
						 -5874,1690,6733,1536,2608
						 },
						 {6248,-8129,-12379,-14447,-16716,
						 -1292,-4908,-12665,-24937,-17469,
						 -10860,-9261,-12123,-19776,454,
						 -16407,-19200,-14513,-2768,8777,
						 -11075,-9631,-4017,3292,9768
						 },
						 {-1076,-4292,-2563,8031,-5103,
						 6503,2644,275,-4887,8636,
						 8144,-1400,2886,12756,8161,
						 -5315,-1484,2463,4671,2114,
						 1248,8232,6118,3349,6728
						 },
						 {-2199,-1363,557,-9990,-4705,
						 2633,-1798,-14671,-11491,-1024,
						 2230,-5655,-2358,-3453,-699,
						 -6120,-2037,1391,2307,2100,
						 -1065,2724,6505,1905,-119
						 },
						 {965,-3765,-2325,4211,2395,
						 -4549,-1996,5451,-660,-3971,
						 -3609,-1683,-2523,1018,753,
						 40,4176,3252,4795,-832,
						 -849,-195,1129,-384,-2585
						 }},
						 {{-5913,-636,-1179,4493,3223,
						 2696,5035,5506,1397,2739,
						 -511,-3350,895,93,-1955,
						 -2361,648,1536,1055,-4242,
						 -5029,433,-1443,-9142,-7587
						 },
						 {6645,1596,2535,-14398,-8135,
						 1745,734,-10347,-15620,-1486,
						 -2751,-3212,-17012,-15904,1293,
						 11016,5381,-3339,-13103,-7260,
						 19814,7451,4778,-5759,-3340
						 },
						 {-80,3819,1634,904,-2636,
						 -7795,-380,-574,4704,5989,
						 -8699,-7646,759,-2,-6936,
						 -2398,-2796,756,-10010,-14381,
						 -4920,-1615,788,4110,-3226
						 },
						 {-7011,1401,-758,1901,-1157,
						 -857,-1904,-5023,-1312,-527,
						 -9033,-7217,-6771,-2046,83,
						 -3592,3510,2353,-8578,-9427,
						 -10,6595,-7718,-5808,-6657
						 },
						 {-7981,1566,-129,866,557,
						 4192,2253,4958,2707,-708,
						 1128,-3227,-117,749,-1894,
						 -1683,3256,6741,3569,-4093,
						 -1641,2601,829,-3998,-10279
						 },
						 {4162,7008,5193,3027,-390,
						 1689,2591,2977,3111,3237,
						 -4138,535,1894,-601,-2732,
						 -5079,-502,-2696,-2078,-4967,
						 -2258,377,-1197,-9170,-6545
						 },
						 {-3570,4952,-1619,5106,-2030,
						 -4939,5477,3777,1495,-3446,
						 -6586,2507,-257,2622,-1129,
						 -8574,3693,958,-3899,-1144,
						 -13516,4302,1809,-7440,-6395
						 },
						 {-13637,-3233,-4499,-6556,-5164,
						 -8394,-7664,1217,-922,-2005,
						 -11992,-5320,5944,-305,724,
						 -12941,-1399,7078,-324,4926,
						 -5661,12953,7999,1372,1794
						 },
						 {-7665,1399,1882,-1344,-1140,
						 -2080,-2110,954,3803,3964,
						 -10458,-10127,5874,2758,-2505,
						 -6028,-1438,3787,-5485,-11529,
						 -6634,538,4701,1183,-1863
						 },
						 {-1622,6055,2824,-1622,-2238,
						 -1736,3582,3615,538,1353,
						 -4778,674,3224,1062,-3936,
						 -5974,2363,1143,-5779,-9419,
						 -8162,357,-1078,-5165,-7824
						 },
						 {-900,3890,5533,4299,-101,
						 -8492,-1482,4219,3981,-2151,
						 -4887,-4721,1538,455,-1325,
						 -9506,-6816,5118,-5826,-7873,
						 -11751,-2206,7263,-2002,-5180
						 },
						 {-5164,3130,4710,4040,3508,
						 -3323,5260,3534,1474,605,
						 -8799,-634,2646,-1448,753,
						 -10072,-5687,98,-3475,-6304,
						 -14142,-1143,5175,-4224,-7922
						 },
						 {12071,10186,585,10138,7309,
						 -227,15000,9511,-108,-1400,
						 -7953,10436,5501,-2451,-2050,
						 938,12495,-6093,-10460,-10429,
						 440,8455,-6485,-318,-4048
						 },
						 {1974,-12,2352,5691,3417,
						 -398,-1957,565,-1000,-226,
						 -369,-1187,-2626,-1774,2782,
						 -5596,-16,7584,1422,-4699,
						 -6184,6909,7397,-9363,-9508
						 },
						 {1649,-1530,2462,3655,525,
						 487,2986,-998,4370,2919,
						 -974,3675,1830,-103,-1481,
						 -4676,4223,-1229,-1743,-1516,
						 1008,-185,-4399,-11350,-8923
						 },
						 {1095,6020,210,2738,1131,
						 -2080,3537,7045,5396,2327,
						 -4770,5467,1183,-1755,-3972,
						 -1992,2757,-4496,-4860,-10847,
						 -3970,3243,2307,-1042,-1410
						 }},
						 {{-1308,433,2940,3080,232,
						 -1618,1216,-3904,-3913,198,
						 -657,-390,-4398,-2390,5389,
						 4803,3985,1098,2375,4822,
						 -195,-99,-2765,-4888,-2844
						 },
						 {-2537,-743,-2141,-4966,-5406,
						 -8273,-4790,-8235,974,5090,
						 -11626,-6945,-7375,-5469,-1117,
						 -8152,-13658,-5234,-6490,-5598,
						 -19519,-14371,2835,-3437,500
						 },
						 {-508,-2938,-8263,-9350,-6426,
						 8146,6443,749,3556,6534,
						 5104,7806,13269,8256,1544,
						 -8166,-7884,-1936,-3231,-2172,
						 -4747,-6799,-3327,-2179,-1071
						 },
						 {121,1086,-1077,-1421,-6638,
						 2506,1468,-1313,-4366,-680,
						 224,2567,471,7090,3046,
						 -622,1528,-1309,3086,-339,
						 -2113,-9511,-3359,556,4693
						 },
						 {-6318,-4827,-60,3770,-3727,
						 -1826,-2941,-1422,-1154,-5353,
						 5862,4791,-150,1646,1252,
						 4556,2420,5859,5815,-1918,
						 -4198,-1390,-4374,-1026,-3360
						 },
						 {-3715,2274,2951,300,-3526,
						 -1273,1516,-3038,-279,1159,
						 3435,3697,-1142,-905,5548,
						 2481,-579,1434,-240,2560,
						 -1529,-5355,-3680,-2075,-540
						 },
						 {-5706,-4752,-676,-2561,-1525,
						 -2118,-4761,-1047,-3688,-5885,
						 -2843,699,-2311,936,-656,
						 -1268,5542,2399,1818,4307,
						 2696,-4995,-5679,-1749,4127
						 },
						 {3280,461,-4840,-2215,-2182,
						 -764,2605,812,669,-2097,
						 -5314,-5169,-3370,-1810,-8765,
						 -4158,1046,-7859,-4423,-3293,
						 5234,2420,-8177,-1273,2937
						 },
						 {-4072,-3272,-5031,-5952,-3452,
						 4646,-2766,251,-1283,-4258,
						 1224,3367,3153,1376,2209,
						 -3448,-6902,-3524,-3410,-3684,
						 3517,-712,-5815,-4153,-410
						 },
						 {1,-2331,-6531,-1619,1598,
						 2721,-874,1930,-2167,2320,
						 4468,494,2861,2077,-889,
						 -344,-1158,-600,-12,4394,
						 -1662,-6128,-5703,-1479,-2428
						 },
						 {-3428,176,-2418,-3190,-2203,
						 4545,580,2062,-1577,-2527,
						 4276,-515,4178,3051,-2753,
						 -1934,606,2195,-3546,1996,
						 -2184,-4535,-9996,-2588,-752
						 },
						 {-2963,-3139,-3969,1101,4451,
						 932,3206,-2196,-3264,-3289,
						 6509,5802,1920,2823,-1827,
						 -3810,2700,3780,2036,-577,
						 -1604,-7917,-8685,-4583,-4175
						 },
						 {-13471,-23190,-21597,-13343,9375,
						 -2266,-3950,-10590,-16700,-10995,
						 10019,7978,9496,-4259,-6502,
						 1322,2295,7893,6844,-2915,
						 8224,-10021,-8768,-702,5976
						 },
						 {-1731,1886,579,6641,270,
						 2105,-781,4545,1432,-827,
						 1183,-2059,-1277,-3075,2932,
						 -345,5203,2476,8042,3088,
						 -1094,-3856,-6698,-5248,2642
						 },
						 {-2485,-1246,1131,6686,4448,
						 -4353,-3344,-10244,-8347,-5370,
						 5511,8418,1,199,-1311,
						 3782,10731,7699,4742,-858,
						 -6875,-3906,-960,-5859,-6129
						 },
						 {-292,-6631,-3680,-5021,2025,
						 1935,-480,2951,4847,2643,
						 6610,3653,4231,2730,1174,
						 -4263,-4422,-638,1323,2364,
						 -1384,-3299,900,8080,3399
						 }},
						 {{-7355,-4581,785,-3074,-3888,
						 -5147,-2589,660,1868,-4824,
						 823,-1860,-3251,-4292,-2822,
						 2971,2721,-3108,2944,1771,
						 -2799,-2676,-4187,4341,5616
						 },
						 {5611,7831,2457,10545,-465,
						 11178,9345,-3212,-807,-10005,
						 10367,5059,-13237,-7416,-8500,
						 2996,-3501,-9850,-10217,-906,
						 -4520,593,2692,-5187,982
						 },
						 {-6978,-4821,104,3678,4572,
						 -8081,-5109,-193,1659,423,
						 -8568,-2146,9614,2592,3204,
						 -6309,-7228,-144,1308,3174,
						 -5178,-7984,1681,-2812,-11822
						 },
						 {-5539,4732,-732,-909,2140,
						 -9246,442,-3162,1408,-2161,
						 1474,-4724,-5467,5496,1524,
						 4971,-2828,-5762,1265,2091,
						 -9130,-7545,-4587,-1295,5423
						 },
						 {-12684,-3922,688,1223,-1346,
						 -4931,-2039,-3474,-2746,-3343,
						 -469,-3663,-5126,3379,-1879,
						 4603,368,992,1695,4237,
						 -1346,-5121,-7822,3209,3496
						 },
						 {-3123,3767,-1749,-3095,-2842,
						 2471,5348,-1326,1268,-1088,
						 1451,313,-700,-859,-939,
						 -649,3886,2220,2832,-110,
						 -2877,1800,-684,2641,-1791
						 },
						 {4032,1683,1253,-5996,40,
						 -2267,1301,2852,-3416,2172,
						 -8424,1919,2975,-81,-7,
						 -8558,2287,1706,2607,-3243,
						 -8951,-1741,4050,7724,-3273
						 },
						 {952,564,7357,-2907,2477,
						 -535,3685,4524,626,3803,
						 -3819,-3817,-3311,2921,-537,
						 -5366,-10468,-10744,3690,-3322,
						 -4216,-4625,-6704,5581,-1587
						 },
						 {-3910,1543,3828,3239,-3323,
						 -8522,-5608,3927,2596,1468,
						 -3561,-455,7253,1892,-969,
						 -2050,-5367,-1148,2976,1020,
						 197,-6282,-3778,1985,-3564
						 },
						 {2859,4426,307,-4052,-6386,
						 -1254,917,2909,-3725,-184,
						 -67,4140,6808,-771,1767,
						 -534,-2016,5402,1728,-780,
						 -2892,-2811,1141,5091,-4685
						 },
						 {3144,-174,5003,-2305,-4491,
						 -688,4608,6939,1820,-822,
						 -2683,798,6365,999,4438,
						 -596,-77,1968,5474,2169,
						 -5695,-1615,-1898,-1777,-840
						 },
						 {-4862,-1594,-1378,-505,-1371,
						 -1786,-1964,2045,-1586,464,
						 -6148,3324,6951,1787,4952,
						 -2613,3381,5514,6038,3850,
						 -2935,-5519,-4367,-1643,-6729
						 },
						 {-37,-354,-7629,-1706,4660,
						 -3689,4795,-3230,-1758,12453,
						 -9287,4073,12094,2524,11503,
						 -8761,-2832,8937,3990,4150,
						 -16746,-7502,4475,300,-9492
						 },
						 {-4071,-7793,1736,3025,2996,
						 -5131,-1014,5512,1726,-498,
						 -9949,-2881,-313,4948,6526,
						 -1355,1177,293,8916,306,
						 -2012,-3253,-5177,-3354,4711
						 },
						 {-5478,-6131,-6035,-8332,-3420,
						 -230,-4294,-11934,-8122,-6660,
						 327,-1872,-4287,-2757,-4772,
						 3936,5137,3737,5569,784,
						 2809,-3601,-3356,-3350,977
						 },
						 {-2462,4192,-145,-2153,-2248,
						 -2938,5503,1080,-123,2485,
						 -1406,8088,5569,3269,6342,
						 -8563,868,3144,2558,-714,
						 -1632,4596,3136,2975,-9090
						 }},
						 {{1451,-108,-8550,-5384,1604,
						 -1903,-7199,-76,6679,4872,
						 -7248,1720,5299,1781,-477,
						 3278,-491,3696,-2208,-7544,
						 438,-1637,4085,-420,-4360
						 },
						 {-15259,-15333,5624,6462,-344,
						 -6670,684,12124,-789,-5700,
						 -1386,1555,3963,-10261,-3698,
						 -1728,-7864,-7313,-15238,-10864,
						 -4554,-10678,-7378,-10017,-3812
						 },
						 {-4160,2830,-1010,4058,49,
						 3580,4576,-3521,-1991,-1925,
						 2563,2166,-6978,-2352,459,
						 -4237,-3244,3777,1383,-1305,
						 -7052,7660,11320,4304,-3017
						 },
						 {-1769,-9330,-7997,3028,-1328,
						 -6951,-3076,7155,12744,3172,
						 1947,8019,4888,-1467,-5654,
						 -2426,1267,-4496,-5835,-9395,
						 -5474,-10961,-6717,-5420,-9175
						 },
						 {3392,-1485,-14809,-6850,-1602,
						 -11559,-16032,-1782,5740,4003,
						 -6492,1157,3440,-493,2272,
						 -1759,3548,3524,2545,-1940,
						 -4045,-95,2251,1348,-7348
						 },
						 {-1266,-7405,-62,-2761,386,
						 -2202,1287,5712,3394,-1372,
						 4923,5438,652,-1698,-5766,
						 7123,2675,2435,-3256,-6380,
						 -3439,121,2561,-4958,-7275
						 },
						 {2349,4830,-4951,2395,-1315,
						 -3394,-4672,-9386,4020,2955,
						 -6207,-4909,3340,10420,-623,
						 453,4685,7178,3672,-1680,
						 -2473,3455,1852,2291,-3894
						 },
						 {-3526,929,-3668,-1552,4372,
						 2260,-7882,-9863,2511,444,
						 -8381,-6477,758,8371,4274,
						 -11995,-4022,841,3820,-3268,
						 -15087,-5064,-4444,4868,-1090
						 },
						 {-4192,1697,-3806,-352,3683,
						 1222,5549,3634,-638,358,
						 5699,3699,-6219,-3580,-2929,
						 -69,-6644,-2590,4593,2698,
						 -6037,-2914,4750,6859,344
						 },
						 {-3532,-5431,-839,-1712,1103,
						 -4668,-313,-368,-1854,-2678,
						 5253,1883,-2539,4388,-281,
						 3723,1611,1256,4340,-7535,
						 578,1820,5076,1242,-5767
						 },
						 {-2420,-3808,-6207,-3065,4212,
						 -3606,-1206,-7612,4027,-650,
						 3910,-936,1904,3497,868,
						 -116,1915,5998,-982,-984,
						 -1856,3245,1656,2156,-935
						 },
						 {2764,3473,-6334,-3999,899,
						 -3964,-4224,-6652,-4523,7044,
						 -475,-6018,-9266,3704,-926,
						 5416,6615,7578,6965,3327,
						 677,3134,1615,3743,-2025
						 },
						 {22,-2833,-8446,-311,-3155,
						 -4058,-8146,-11390,-8949,3336,
						 7446,-9735,-8711,6991,-2257,
						 11812,8004,7286,13519,14231,
						 -1909,10401,19833,12884,7820
						 },
						 {2029,2988,-3568,-5707,3890,
						 -4548,-8994,1325,7523,7796,
						 -5580,-1357,4856,8718,-500,
						 328,-832,113,-675,-1579,
						 1819,-3888,-9693,-328,-3652
						 },
						 {4807,2286,-5323,-3518,-6466,
						 -2445,-12967,-6737,-2464,1478,
						 -3910,-6558,-2882,-993,-3993,
						 5223,2980,654,-3099,-7621,
						 5176,5315,1419,-875,-1334
						 },
						 {-3830,954,1870,5268,2954,
						 -496,156,-2469,-70,-6007,
						 3597,2151,-2245,1785,388,
						 2976,3301,4093,-2631,-3708,
						 2407,8584,3223,465,-7164
						 }},
						 {{-634,-1078,-4219,-1284,773,
						 1922,280,951,5165,5120,
						 3715,4906,7141,5493,873,
						 842,1922,-450,-2022,-3858,
						 -3510,-1302,-741,1901,127
						 },
						 {-2802,-9360,-4397,-6022,-2091,
						 -4010,-7007,1389,1047,-8143,
						 -4321,-10848,-10688,-12947,-10434,
						 -5008,-6210,2107,1675,-144,
						 2611,4249,10494,5802,-2466
						 },
						 {3446,-813,538,5237,5787,
						 11628,14450,9443,4110,-3295,
						 -2021,-6772,-7347,-4949,2003,
						 1851,-6073,7502,2788,-750,
						 6824,-1535,-4620,-4827,-3699
						 },
						 {277,-1293,-3788,1002,8445,
						 7276,2852,8293,4361,2192,
						 232,1975,7193,-4112,-7615,
						 -7530,-4229,-4174,-2581,2951,
						 1048,-3102,7576,7735,4789
						 },
						 {-6817,-2524,-6139,2452,2042,
						 4868,286,790,8326,3670,
						 5078,6166,3710,-786,-2534,
						 -8660,-3224,-4003,-1380,-1168,
						 -3280,-5855,-5409,5302,3805
						 },
						 {-4378,-192,1462,-645,4618,
						 -1072,4075,4978,317,-709,
						 -492,1982,858,-297,-3324,
						 -7371,-1741,-3597,1036,485,
						 -1598,736,285,97,2659
						 },
						 {-2029,-4247,-958,-5688,-3314,
						 -1297,-5044,-5107,-269,-1210,
						 3357,721,356,3041,3930,
						 -7965,-6363,-3672,2590,-1710,
						 -7205,-6228,-2414,871,1335
						 },
						 {-999,-1187,1679,-1590,-11518,
						 -5446,-8476,-8075,-7968,60,
						 -4681,-8310,-5250,-431,-1257,
						 -393,-3667,-1138,-2802,1740,
						 3931,-826,-3707,-2220,632
						 },
						 {2385,-1861,-3376,3282,1645,
						 4109,7478,5562,756,-1121,
						 246,1,-3100,-7334,-6575,
						 2269,-4288,-4355,-1491,-3316,
						 10217,1018,3114,-239,120
						 },
						 {-2082,3511,193,3418,2643,
						 6864,3826,4312,5073,2238,
						 72,-584,1022,6,2468,
						 -6343,-5433,326,-387,3046,
						 -4780,-2064,-3110,1595,1823
						 },
						 {5264,-140,3464,-1475,-2798,
						 5954,883,5827,-605,1673,
						 -3395,1385,-621,-603,2158,
						 -9783,-8564,-8310,-2648,1430,
						 4043,-4973,-1665,1590,1876
						 },
						 {-6190,-4150,1390,-2620,-3302,
						 9179,1248,1429,2308,779,
						 4468,8559,2634,1970,804,
						 -10986,-6491,-2697,-5906,-4610,
						 -7122,-10751,-9942,-4062,-625
						 },
						 {-6416,-12799,-15173,-17631,-15749,
						 14483,3722,-2923,-4843,1844,
						 15274,12010,-2380,1339,2122,
						 -4601,-14520,-8073,-1329,-407,
						 1653,-5836,-14395,-2832,-1735
						 },
						 {4044,5979,5514,5988,3233,
						 648,-638,3135,5410,7420,
						 4910,6062,3687,5697,1810,
						 -12893,-3853,-3311,1970,5252,
						 -4001,1285,530,6924,4706
						 },
						 {-7002,-8891,-5096,-8960,325,
						 4954,4383,3883,1325,-1354,
						 14823,5541,7529,1074,-378,
						 -1526,2310,-587,-1522,-5753,
						 -13396,-7293,-1869,-1031,-1342
						 },
						 {5699,1933,767,-100,-5080,
						 12364,5496,2445,-948,-5757,
						 -5830,2585,1011,3348,4027,
						 -1149,4351,4974,6171,-3695,
						 451,-6584,-2653,-293,-5612
						 }},
						 {{1677,-1097,-530,1128,-355,
						 -4357,-1881,-271,4078,-287,
						 5649,5982,4220,-1027,-5706,
						 -4676,-5690,138,4408,-5148,
						 762,-2061,-1286,-1688,2086
						 },
						 {-12586,-13111,-8537,-2078,2937,
						 3499,3718,651,1479,-993,
						 10754,3853,-10530,-3293,-3201,
						 5268,-9806,-17729,2596,-363,
						 -3734,-3793,-16367,-5974,4835
						 },
						 {-4546,3825,9061,9159,6888,
						 4410,7450,5965,4141,1583,
						 -283,-3547,-11549,-830,14343,
						 -4141,-1131,-1539,-8967,12902,
						 -4023,7798,2470,-6844,-259
						 },
						 {-650,-13526,-4991,1378,4808,
						 1827,8340,11767,3991,4714,
						 8501,7586,1862,-4395,-3038,
						 -2597,332,-933,-6785,-11952,
						 -8754,-4444,-1565,-998,-4739
						 },
						 {3909,0,-4963,-2792,-6483,
						 -8124,-721,2940,-425,1345,
						 1057,6976,3952,-1357,-4050,
						 -1341,-3441,-3044,2477,-1064,
						 -315,-1446,-4350,805,-1885
						 },
						 {-4169,-6681,-3813,-573,-3501,
						 -2825,1174,-2032,-671,2646,
						 5844,6238,-3190,1169,-625,
						 3273,-4634,-1432,158,416,
						 -2794,-1065,-1049,-1077,817
						 },
						 {-443,-4956,-11779,-3445,-2200,
						 -3518,-8940,-8057,1356,2571,
						 -1478,2035,-682,2072,3160,
						 -937,2969,-25,-7284,-978,
						 4108,5210,-1747,-6403,-6289
						 },
						 {-8103,-3745,-4379,-977,3295,
						 -6504,-9193,-12371,-1357,2747,
						 1175,-2845,2289,-4850,-2541,
						 2164,5425,131,-8146,-7556,
						 -5002,-7531,-1626,3202,-8709
						 },
						 {-5728,-3755,2479,1231,-506,
						 4894,8065,2200,4570,346,
						 4116,-4451,-4747,-5335,4766,
						 -1343,1184,2610,-7354,-826,
						 -3284,321,6698,434,-7416
						 },
						 {-5871,-5055,641,-1059,-4419,
						 -2212,-198,-4727,-1246,-2580,
						 -2869,-4600,-254,395,2426,
						 398,4106,-2,-1606,3955,
						 1001,1017,-2746,-2004,-2631
						 },
						 {-7958,-2709,-6979,-2110,-3807,
						 919,596,-1876,8064,-314,
						 3782,2039,-382,615,3866,
						 6444,1709,284,-2806,1454,
						 1021,-1596,1141,-810,1256
						 },
						 {-6436,-701,-6155,-6538,-6921,
						 -7261,-4263,-3045,-929,251,
						 -4263,-6426,2838,5528,1714,
						 5171,-15,2534,1493,6590,
						 2891,284,-2558,-3913,-301
						 },
						 {-16124,-15298,-22628,-18307,-9629,
						 -8146,-19164,-10191,3286,6096,
						 -3454,-9714,6966,19344,32254,
						 15402,22896,21545,11502,39279,
						 18851,24318,23349,-2590,3590
						 },
						 {6642,6269,-5797,-2100,638,
						 618,-267,4557,10682,1188,
						 2102,11353,11241,-1816,-8954,
						 -6124,-4062,-4933,-742,5090,
						 -3859,1712,115,-948,-155
						 },
						 {3089,-63,-6410,-2592,-4595,
						 -11296,-1058,-2057,-4527,-1349,
						 -2972,-362,7143,6193,-4024,
						 -1976,-3792,-5982,5759,6503,
						 4402,2904,-7649,-8130,3136
						 },
						 {-557,6137,4209,4106,-1249,
						 2336,4120,-1306,-2300,-4090,
						 -4089,-7168,-4050,2390,11968,
						 472,4549,-2513,-5921,8705,
						 1996,850,3986,-5182,137
						 }},
						 {{-466,-2925,-1763,-4773,668,
						 -4044,-2676,5251,3731,-2074,
						 4085,3678,4062,-680,-685,
						 5792,1667,-2216,424,-2497,
						 218,-4467,2956,1470,4941
						 },
						 {-2180,-7976,-3239,-10163,-6714,
						 -4557,-2829,-8905,-8892,-8563,
						 3098,-6043,-10253,-6982,-688,
						 -982,-13628,-1520,4445,-1831,
						 -9798,506,-748,-3327,-6134
						 },
						 {-5316,1239,5413,1290,1331,
						 5976,6125,3074,3211,-2726,
						 11991,3601,-3348,2396,2894,
						 -4429,-152,6951,1051,2661,
						 9938,4442,1310,-8330,-81
						 },
						 {2969,-1511,-6894,-1528,-1439,
						 -3589,1095,4364,1071,142,
						 10310,8102,444,-10126,-461,
						 763,2699,2186,4171,-835,
						 -1267,-5871,5515,9065,-2916
						 },
						 {1747,977,-6641,-276,2622,
						 -483,-2822,4151,-1490,-4610,
						 1631,7631,1319,-5013,-5055,
						 6545,5075,-6106,-2618,-849,
						 -1948,-7571,4432,7494,4563
						 },
						 {-3751,-491,-2170,1174,-2551,
						 -4072,2212,-864,-2753,344,
						 2992,-2329,-1486,-1095,-1993,
						 -3162,-7108,49,-1675,-1464,
						 -8170,-251,860,847,2016
						 },
						 {258,-4826,1610,-4350,-5370,
						 -3901,-6653,-146,686,-2461,
						 -4157,-1642,1679,-874,1093,
						 1190,-1638,-1611,-2503,934,
						 -1022,-6242,-2232,2663,-976
						 },
						 {-639,-5744,1473,-1794,-4733,
						 -984,-4581,-5617,-2317,-808,
						 -8502,-7345,-4237,613,2760,
						 2771,-1190,-5072,-786,-3216,
						 6093,-3973,-3356,-1391,-5760
						 },
						 {-6808,-5370,117,3294,2208,
						 -690,3278,-895,252,-2258,
						 5647,2184,-6311,-403,-2997,
						 -3515,1570,-385,-2728,-4592,
						 4638,631,-613,-4058,-8181
						 },
						 {-5515,1390,-89,3809,-4350,
						 3898,1052,2509,1481,-2251,
						 -964,-3837,-4919,2438,-1087,
						 -4419,555,-1166,-576,-554,
						 -6671,-2238,621,2449,3775
						 },
						 {840,3529,-2426,-439,-824,
						 -950,-1090,1929,4689,2186,
						 -140,486,731,-2234,-1699,
						 -1304,-1336,-900,-1460,1077,
						 -1171,-658,-7585,-3096,2348
						 },
						 {-2182,275,4117,329,-3686,
						 -3921,-6344,-2409,3000,1539,
						 131,1396,-1471,2333,-1075,
						 3266,3697,3076,-1646,1930,
						 -5168,-7882,-8956,-4628,3130
						 },
						 {1213,1046,9905,-3091,-7304,
						 3279,-3628,-520,4837,9412,
						 -2495,-1768,867,9520,11323,
						 8121,12844,-73,2310,2442,
						 12963,10600,-615,-10157,-1693
						 },
						 {7196,5224,2890,-3834,-2996,
						 7127,3405,3789,9588,5828,
						 3199,6347,8408,5558,-6002,
						 3098,4281,1910,-633,4573,
						 -6629,-1992,1837,3306,6653
						 },
						 {4125,985,-5641,-8586,-2835,
						 -3874,41,4022,3904,-3496,
						 472,3630,-900,-989,-1966,
						 8942,756,-4922,-2844,-2912,
						 -2193,-2684,1473,3183,3834
						 },
						 {1172,1742,5540,5453,-5384,
						 6835,2275,3373,-3304,-1600,
						 1455,-56,2426,3225,6029,
						 -321,5467,1156,-381,1698,
						 2952,1152,-2196,-2839,950
						 }},
						 {{-5239,1713,3794,1848,-4380,
						 -4854,-3357,-5789,-4817,-4024,
						 4930,4238,2215,1539,-1847,
						 1904,2003,3858,6475,5662,
						 -3701,-4191,-3377,-1456,1251
						 },
						 {16867,1194,-15267,-14520,-7571,
						 12332,-107,-11050,-2441,-1893,
						 -3164,-165,-9924,1042,-2430,
						 -11122,-13317,-16544,-10444,-3735,
						 -4324,-660,-10285,-1355,3865
						 },
						 {-9990,-9299,-5103,2388,-4635,
						 9878,10191,7100,9965,10286,
						 -2324,4077,6004,3931,7197,
						 -6200,-10608,-11350,-14733,-10986,
						 5674,10496,10326,5274,-4617
						 },
						 {2441,5504,-1562,-5172,-7498,
						 36,-2013,2228,2452,5926,
						 4184,3477,9000,10940,11938,
						 -6377,-3802,-6863,-2782,1879,
						 -11319,-5813,-843,-270,6556
						 },
						 {-9316,949,151,-743,-5527,
						 -10523,-11012,-4825,-4660,-6478,
						 8047,8183,3879,2799,4860,
						 6173,3300,2485,3828,8228,
						 -5932,-7269,-9058,-5349,-226
						 },
						 {-1515,-4240,-948,-3341,-3856,
						 -2243,-590,3630,-3768,-1972,
						 -2337,913,7608,1614,2266,
						 -2724,-3794,-3758,-134,6065,
						 -12968,-8708,-6060,-4719,-104
						 },
						 {1296,3328,1389,1606,-3848,
						 689,-1680,-6994,-916,-6801,
						 1009,-2698,717,-978,5429,
						 73,-3155,4332,1819,7063,
						 -7114,-14352,-7284,-7217,-3188
						 },
						 {7239,6758,3581,4950,3660,
						 3140,2815,-4842,2168,-5089,
						 -5973,-10953,-7287,-7838,-6519,
						 -207,-1558,1208,-2486,-1727,
						 2773,-6565,-6646,281,3992
						 },
						 {-3452,-8521,-6005,-5487,-4450,
						 -1490,1012,3842,9174,9035,
						 2035,5296,5356,4915,5018,
						 -6051,-4065,-3699,-11455,-7144,
						 7071,5071,4712,5079,1522
						 },
						 {-1627,-1419,-3032,-781,-2471,
						 2917,2788,5437,4595,2127,
						 65,5779,2040,2662,4354,
						 -4946,-5962,1174,-739,-505,
						 -2905,-1137,-5185,-3370,-2290
						 },
						 {-6158,2332,3352,-2976,-2511,
						 -819,6384,2414,3355,4588,
						 -568,-793,4522,7557,-618,
						 -5342,-3762,-5710,-1874,-4242,
						 1888,-4706,-3166,-6863,-6905
						 },
						 {-11161,-391,2816,-3506,-2093,
						 -2052,-2513,-4365,-2049,-4077,
						 10873,11072,5287,6917,8479,
						 -3949,-1064,3370,423,2257,
						 2,-2999,-7390,-8442,-5940
						 },
						 {-12134,-13413,-21094,-11205,-10909,
						 3997,-6818,-9998,-5646,1772,
						 9702,13873,-1701,1743,7835,
						 3070,-891,-10455,-18411,-4092,
						 -240,-4244,-4706,-24597,-13158
						 },
						 {87,5954,6826,3184,-6559,
						 1095,4443,2698,-1268,-7175,
						 5225,3422,6341,6737,1041,
						 -2032,-660,4671,2264,3580,
						 -3385,-11085,-8427,-434,557
						 },
						 {-5770,-8296,-3545,-3268,-5514,
						 -3643,-7208,-9558,-5725,-7814,
						 11952,11396,6817,10189,10031,
						 5875,8074,7358,10751,12161,
						 -7994,-8940,-10811,-9714,-3221
						 },
						 {1816,723,-943,2468,633,
						 5952,9660,8789,8083,6682,
						 -1832,388,-2256,3052,7298,
						 -2907,539,4681,2660,-1655,
						 -2388,1011,186,-1938,-2407
						 }},
						 {{5072,3768,6058,3899,2367,
						 433,2111,-4733,-9359,-3772,
						 -2908,-4188,-7603,5830,7838,
						 -2456,-5202,402,5947,9365,
						 1854,1728,11,1091,-2003
						 },
						 {8916,166,-11577,-12017,-15306,
						 4634,-18486,2189,3563,-459,
						 -10329,-10116,10769,7589,118,
						 -14591,-2833,4983,-2611,-10714,
						 -17279,-6250,-5582,-14908,-7232
						 },
						 {-6041,-4523,-4837,-4200,-199,
						 -10544,-6961,1533,17723,24253,
						 132,-1745,6721,11413,11256,
						 1195,-1883,-5699,-3720,-2217,
						 -27,2514,9423,7697,11218
						 },
						 {6671,8022,5127,-6011,-14906,
						 6831,-5183,-11894,-6652,186,
						 -147,-11392,1765,12881,16964,
						 -3995,-9709,3625,5940,3062,
						 -10376,-6597,-3405,-8501,-2660
						 },
						 {-858,6225,4754,6446,2119,
						 3826,2783,-2402,-9878,-9104,
						 -1798,-6161,-3634,4858,12699,
						 -1448,2087,2133,10597,6973,
						 -2177,-2980,1220,-2624,-4990
						 },
						 {660,-3398,-6648,-5001,-9655,
						 444,-3538,-13055,-4756,1006,
						 -3579,-4664,-1752,7459,6823,
						 2266,-3928,-494,829,2799,
						 -717,-6336,-6013,-1911,376
						 },
						 {3394,4584,-2543,-7979,-4339,
						 4227,87,-9874,-23434,-14188,
						 6202,-2162,-13176,-2191,-404,
						 6064,-2974,-9421,-2126,1005,
						 725,-1411,-7180,-9137,-8367
						 },
						 {2545,5920,3151,-12706,-7406,
						 7430,6167,972,-17664,-12634,
						 2644,4226,-2764,-5431,-12738,
						 1669,2811,-1031,-7763,-6289,
						 1884,1048,-12963,-12121,-11148
						 },
						 {-1414,1571,-2194,-9622,-7716,
						 -5676,-1575,-759,3837,10172,
						 2093,-1051,1653,9518,12112,
						 2873,1784,-4355,-1859,517,
						 -953,4527,-422,2602,-20
						 },
						 {-788,-1607,-3095,-8818,-7302,
						 -535,-1172,-2921,2604,3123,
						 4476,-4520,-4223,3697,1103,
						 -541,-5169,-4245,-508,3953,
						 -1126,-2338,-622,1663,1920
						 },
						 {-1240,-694,-865,-5363,-11394,
						 3427,110,-981,-2432,1450,
						 2059,-2580,-2596,4511,7550,
						 3711,3094,-10863,-1948,5683,
						 1703,3506,-6152,-3855,-4435
						 },
						 {-2131,3745,5962,3793,100,
						 4240,1236,495,-10313,-5255,
						 1185,-2445,-10344,-230,5497,
						 3740,-551,-4904,7966,5777,
						 848,-1092,1266,2854,332
						 },
						 {-18405,-15064,-11221,-16080,-4240,
						 -16462,-25247,-22556,-9400,-7055,
						 -4589,-18698,-12631,-5222,-5344,
						 6157,584,9544,3983,7397,
						 7495,4125,14167,3641,-3501
						 },
						 {1223,3623,7379,2937,-2021,
						 5351,9713,7653,-1952,-15934,
						 13,-2037,-9944,-2831,3703,
						 -6888,-7083,-8915,9839,9475,
						 -2290,-8866,-6648,-2687,-4348
						 },
						 {409,-1948,2880,10297,5487,
						 353,-7575,-15093,-9341,-3473,
						 -5350,-15262,-7337,9917,10180,
						 -4735,-4360,9908,11750,9170,
						 -2222,-2777,-826,-744,-2804
						 },
						 {-2510,-10094,-10807,-5823,3798,
						 -6561,-6983,5341,10343,10708,
						 1201,-6909,472,1316,-1349,
						 1125,-9848,-3076,-645,3604,
						 3320,-1011,5048,1942,6850
						 }},
						 {{-3628,-8021,341,1956,-2296,
						 -1085,-1807,-4947,-4277,-6948,
						 -4762,2727,1171,2193,4694,
						 -1938,4710,1892,4788,3926,
						 5048,-333,-1937,-3609,-3048
						 },
						 {8313,14522,-3029,-135,-6946,
						 8169,10586,-2963,-9858,-4052,
						 1003,5953,-12845,-19143,-5083,
						 9976,2101,-6726,-13817,-8856,
						 2122,-8754,-2486,-6866,-49
						 },
						 {-5910,1021,2490,443,-2493,
						 -13651,-2968,5415,5972,8714,
						 -10657,-8279,6497,3156,9592,
						 1453,-4264,-1197,-278,1691,
						 -9000,-11332,-7678,-4362,-4871
						 },
						 {-14437,-1271,-844,-1357,3053,
						 -6457,-5735,-3720,-24,-1103,
						 -4846,-3071,-8260,601,4758,
						 10126,9213,-4943,-2823,2341,
						 5983,3217,-362,-3626,955
						 },
						 {-11421,-9050,-21,-606,-2436,
						 -6973,-6967,-7877,-2658,-8697,
						 -8315,-2526,-1602,6924,2584,
						 2396,121,1207,5208,3642,
						 825,1057,-777,-266,-676
						 },
						 {-799,-2625,-2683,-3201,-2250,
						 -2873,1925,3842,-3073,-2238,
						 -2019,3325,3868,6225,-2264,
						 3329,-428,4751,395,2787,
						 1191,846,-3088,-3913,-4161
						 },
						 {-2063,11919,6614,-5353,224,
						 -9056,2122,4739,-4288,294,
						 -15609,-2166,6741,5742,-1753,
						 -9683,-1759,-1677,3688,7266,
						 3779,1639,-4167,5231,-454
						 },
						 {-5192,9879,8790,-182,7375,
						 -8353,3957,2377,1620,-2521,
						 -14749,-4768,-8916,-1701,-1727,
						 -12671,-4520,-8338,-7453,1356,
						 492,4406,-4359,501,2346
						 },
						 {-9566,-536,1993,4578,-4974,
						 -11651,-7478,5081,5731,-952,
						 -5433,-8664,-4751,6519,8150,
						 3246,-678,-9920,518,-1346,
						 -4530,-6480,-11742,-5292,-211
						 },
						 {-5050,4666,2711,-6455,-6121,
						 -6887,-544,6584,4795,-2870,
						 -4605,4597,4297,7352,2117,
						 871,-687,3425,5287,2273,
						 -4266,-1346,-2885,-3051,-1538
						 },
						 {-9600,2394,8568,3355,-1660,
						 -8505,-1841,3269,6830,357,
						 -13192,949,3525,6115,1684,
						 -7904,1277,-1356,-1239,-251,
						 -1973,-3337,-5069,-7107,491
						 },
						 {-7655,-440,4301,-6047,-2574,
						 -8363,5065,7721,-2319,77,
						 -12971,-3436,5977,9070,5518,
						 -10147,-1803,-539,5546,857,
						 -3611,3529,-1243,684,-2494
						 },
						 {6974,16541,2296,-7099,6030,
						 -6038,21022,25934,4413,8439,
						 -21611,313,19971,16929,13231,
						 -27589,-21207,9386,15530,7108,
						 -24871,-17394,-6650,7393,-912
						 },
						 {-9206,-2672,3092,-570,1496,
						 -15085,-8232,-5925,778,-2210,
						 -14529,-3745,-5666,-2075,4383,
						 631,4539,1245,3634,954,
						 6163,6555,-4353,-3128,-4804
						 },
						 {-1764,-5427,-13455,-6524,-3879,
						 1348,3116,-8732,-9900,-7297,
						 -6482,226,4334,1981,5960,
						 -7264,-3263,8549,3750,4511,
						 3167,-3254,-2087,-2874,-1793
						 },
						 {552,7341,790,-6032,-5889,
						 -11471,950,9401,464,1178,
						 171,-783,4054,6594,3935,
						 -6864,-4033,-5377,5794,-3058,
						 -5923,-2551,-5623,-2287,-2757
						 }},
						 {{1509,-2769,-2835,-1777,-2628,
						 4557,-2545,-5920,-4670,4066,
						 -3476,-2654,643,5593,6476,
						 -9638,7392,8792,-581,-5539,
						 2335,7771,-1300,-6922,-1825
						 },
						 {-9108,-8419,-8264,-2588,-4052,
						 -5837,-10644,-1556,3529,-535,
						 -2803,5101,3600,4687,-4609,
						 11948,9249,14495,1529,-2708,
						 18279,2,3456,6206,9035
						 },
						 {4974,3317,-421,1419,-914,
						 -7068,-155,324,841,5863,
						 -6325,-2792,-8349,-5527,-11556,
						 -894,-4984,-11808,-16776,-7959,
						 -7674,-4712,-4768,-2054,1466
						 },
						 {-786,-3587,-5901,-5908,-8324,
						 -1675,-10274,-7923,1021,1838,
						 -7268,2395,7726,94,1612,
						 2878,11078,3120,-5541,-12143,
						 9445,8795,-7169,-8834,-448
						 },
						 {2630,-2571,-2638,-4267,-4953,
						 8587,-3965,-9245,-2771,4561,
						 -6134,-7835,-222,2421,1164,
						 -4157,7837,9849,5074,-5025,
						 6564,9195,2528,-7912,-8487
						 },
						 {-1052,-4214,2647,1391,1223,
						 -4602,-2974,-1908,7101,2615,
						 -9531,883,4892,6520,1565,
						 1517,1973,-3146,-6084,-5467,
						 2229,-3299,-12720,-8006,-5832
						 },
						 {-2646,-390,-1840,-2691,-1833,
						 -2854,2211,-1419,4693,4384,
						 -12972,-448,4354,2706,5584,
						 -9090,7533,6570,3532,-3348,
						 -2250,8519,3364,-3768,-8846
						 },
						 {-16584,-9521,-4051,-1177,-2443,
						 -9881,-4535,-3980,-215,-4885,
						 -9247,-21,2963,-525,3351,
						 -14504,9803,10229,3734,3990,
						 -7609,9520,10216,4664,1068
						 },
						 {751,1357,148,217,-2099,
						 -3936,-3026,-4542,1389,4919,
						 -5304,-3893,-1820,-2850,-4228,
						 -4697,1334,-4935,-9912,-7678,
						 -5397,1424,1344,-5850,-2361
						 },
						 {-1995,-411,-506,285,1956,
						 -2270,1617,5495,859,6067,
						 -7587,-2631,5344,-1687,130,
						 -5493,3067,-4846,-4117,-6276,
						 -1367,3223,-2368,-7615,-5813
						 },
						 {1619,1844,2649,791,4408,
						 -7904,-4292,-1353,-539,6608,
						 -6961,-8531,-1439,5173,227,
						 -6267,673,4384,-4079,-4968,
						 -6135,8437,6117,-10129,-762
						 },
						 {2744,-2330,-1477,3961,1238,
						 -1967,3482,2727,-4135,-576,
						 -4618,-2822,-3323,-3674,-71,
						 -8063,-8377,1466,-847,-2279,
						 -9953,-166,1761,-2736,-8192
						 },
						 {6507,14476,13236,15709,5089,
						 4687,17715,14635,3860,-8002,
						 -1630,5975,3085,1294,-38,
						 2659,-2872,-9231,153,1895,
						 -1155,-5641,-18753,-4172,-1088
						 },
						 {3228,-5990,-2123,-5327,4254,
						 573,4670,-5370,-929,-1111,
						 -4511,-5725,-3905,5142,9153,
						 -3851,6581,6535,3085,-3632,
						 -1127,14413,9696,-8609,-1640
						 },
						 {1572,-2837,-1452,-5493,-2597,
						 4658,172,-1339,-550,1956,
						 -7150,-4255,-4329,6173,4264,
						 -6388,5423,6284,-1387,-6585,
						 4441,1874,-6587,-7087,-6482
						 },
						 {3357,-872,-1120,2905,8,
						 -5339,100,1014,3617,526,
						 -1503,4378,3623,-1815,-3846,
						 -3410,-3520,-8665,-5268,-1959,
						 1190,-3021,-6629,2502,-1551
						 }},
						 {{-2334,-3613,-4826,2808,-2036,
						 -2158,-1305,-4284,-3344,-1163,
						 -252,1783,3620,4867,5134,
						 -750,285,3604,4229,4714,
						 -2029,-150,-6670,-5073,1558
						 },
						 {-7046,-2417,2120,-7488,-10860,
						 -2799,6609,8123,83,-1680,
						 -5286,-3909,-1340,-2149,-470,
						 -11436,-17261,-12963,-7831,-2643,
						 -5186,-9360,484,1474,1364
						 },
						 {6938,5914,854,-283,4017,
						 -5071,-1330,4602,9223,10486,
						 -16343,-13796,-7083,1508,3877,
						 2147,-3180,-2242,-8247,-13435,
						 13926,12723,16576,10501,6186
						 },
						 {722,611,3124,2118,-1352,
						 -3802,807,1984,3268,7673,
						 -6883,-4490,-4722,-681,3593,
						 -3169,-4344,-5820,-5258,-736,
						 6652,-2431,-50,5480,8273
						 },
						 {2073,-4311,-1373,2955,-4903,
						 2001,952,-752,2601,2127,
						 -3033,3334,1974,5195,8439,
						 -2052,1796,4149,387,5160,
						 -3642,-1916,-5286,-3009,-7872
						 },
						 {-1152,3298,1448,-689,-3916,
						 -4961,-1551,4925,2769,2923,
						 -6989,-2884,3437,8101,5402,
						 -8281,-8691,-5455,-4271,2001,
						 511,-7804,-3706,-2538,-3846
						 },
						 {-2688,1128,2413,-2624,-5935,
						 -1938,935,5008,-1888,-3582,
						 -5110,-5130,536,-1981,3864,
						 -13454,-8688,-6474,-8710,-727,
						 -4933,-11243,-10339,-14393,-3310
						 },
						 {-2094,1003,1186,2101,-6370,
						 -257,-1314,-1969,-3014,-9220,
						 -3076,-8213,-4164,-12578,-7183,
						 -4048,-2323,-1995,-10908,-7744,
						 -943,-4873,-1145,-4023,1163
						 },
						 {3482,3552,-1593,1152,1712,
						 -4777,-1740,-1923,5121,8127,
						 -5736,-7381,-7211,-3066,-2114,
						 -925,3685,-4698,-7481,-9624,
						 11354,12523,6365,9474,4585
						 },
						 {2425,1181,4471,2994,2608,
						 -3020,2252,5395,5452,1942,
						 -8011,-3250,1839,692,4300,
						 -4522,-6768,-8288,-7849,-1207,
						 4279,4054,1372,-881,2028
						 },
						 {2558,1034,5522,5514,876,
						 -3322,-3718,-1185,5536,5574,
						 -7634,-5517,-128,1486,546,
						 -4029,-8157,-5519,-13183,-7834,
						 4595,5268,3624,-619,-6504
						 },
						 {4255,2559,-869,-2282,4861,
						 5982,1661,4516,6193,3718,
						 -4984,-3543,2002,4102,5829,
						 -8801,-11664,-6854,-7047,-215,
						 4915,-311,-4101,-8698,-12909
						 },
						 {13777,-699,-6083,-16801,-12222,
						 17687,14091,5230,-6971,-2214,
						 -8450,4881,3891,2563,1494,
						 -12969,-19140,-25275,-30268,-17324,
						 -9457,-3926,-9292,-9260,-14319
						 },
						 {3590,2968,4637,11413,3099,
						 3711,-4009,2695,5500,4121,
						 -12273,-8422,-1922,1827,9593,
						 -7146,-7372,-4943,1756,-1069,
						 792,-4208,-1608,-2003,-6322
						 },
						 {1764,-4895,-5269,-6584,-11440,
						 2183,5778,4430,-955,-760,
						 1817,6696,10065,14609,8621,
						 -5749,-3204,6597,2799,7989,
						 -9374,-5559,-10630,-9574,-10873
						 },
						 {4129,5840,3133,7435,752,
						 -1916,5148,5198,10710,7501,
						 -8510,-6911,828,4346,378,
						 -4020,-2510,-7578,-6,-2658,
						 1909,5230,4972,4623,2434
						 }},
						 {{2238,-1106,-6873,-6045,2941,
						 821,-11418,-5590,-1352,2953,
						 -2667,-12207,-1477,1837,1248,
						 -7232,-3645,-2199,-831,4046,
						 -2222,-2549,-2713,-2751,4057
						 },
						 {14081,-2937,10509,11253,3831,
						 9598,-6038,13695,9328,2290,
						 9536,9558,9799,4959,-2743,
						 14662,12017,11276,-831,-12997,
						 11936,5795,-714,-11649,-21273
						 },
						 {-4766,-10098,-16596,-10229,-8882,
						 -11211,-2681,-9913,-6160,55,
						 -2258,-3000,-4184,677,4376,
						 -143,-4080,-6032,3258,2950,
						 8724,-1493,1451,64,548
						 },
						 {6416,-6365,-10698,4706,2656,
						 -7303,-14859,203,7483,661,
						 -7576,-8002,3761,2453,-2557,
						 -5291,2892,288,-5280,5157,
						 763,805,-209,-4000,2091
						 },
						 {4680,1958,-10097,-7721,5031,
						 4617,-4394,-10741,1027,-1529,
						 -6142,-15297,-6082,88,-672,
						 -7476,-11578,-4164,-1850,3041,
						 -5328,-5562,-7333,1020,3099
						 },
						 {1644,-7126,-8951,-2714,222,
						 -1054,-10281,-3310,168,-731,
						 -8206,-1338,-1163,-2895,-921,
						 -3215,1437,5164,1485,5970,
						 2295,2630,143,4800,941
						 },
						 {12444,7611,-6157,-2880,10968,
						 8591,-397,-11959,1048,8269,
						 -4324,-6431,-5750,4762,6312,
						 -8745,-7252,-1010,2487,-799,
						 -595,620,-1511,-2916,1075
						 },
						 {7876,8506,5344,-1574,12853,
						 8198,1441,2183,1478,8635,
						 294,-3549,-2921,3045,3144,
						 -1553,20,-1306,4463,889,
						 3596,-1382,983,-9478,-4080
						 },
						 {-2681,2239,-7119,-6859,-2564,
						 -2353,-1614,-4193,-5702,4306,
						 -6880,-4439,-776,856,1776,
						 3000,970,-4135,2647,5462,
						 2384,886,-3063,3793,-1568
						 },
						 {-191,-3552,-7123,-1476,-681,
						 445,-4599,-1594,-1810,3772,
						 -5789,-3227,-3417,464,5328,
						 -1982,-4063,885,1288,5257,
						 4532,1518,7496,7055,3220
						 },
						 {7805,1459,-10278,-12060,4879,
						 4879,-800,-1904,-3007,5175,
						 -2722,-6067,-6180,1735,1824,
						 -6115,2080,2699,7559,2794,
						 7614,3376,9843,6394,-2564
						 },
						 {5957,7403,-13024,-10209,2011,
						 7353,3149,-8358,-8506,7930,
						 -2718,-9832,-14496,-2446,2691,
						 -10621,-4444,-5582,4012,2393,
						 -2545,-280,5219,3219,1911
						 },
						 {-7701,-12212,-29968,-15090,-7808,
						 -8433,-9305,-22685,-11626,-2032,
						 -19043,-7064,-13650,-1318,2500,
						 -14526,-6943,-5461,5492,-177,
						 -7339,-568,3749,6605,8794
						 },
						 {9467,-2855,-3747,-9038,7347,
						 5895,-4127,-9391,-2711,8500,
						 -3476,-3596,-7867,6253,3919,
						 -2218,-11906,-1114,6179,-4568,
						 1607,-1695,1360,-3449,1755
						 },
						 {580,-6290,-10330,-7422,-6421,
						 2003,-14151,-6924,-3246,-3898,
						 -5599,-16852,-8214,-3490,-360,
						 -14355,-12539,-1948,-2870,-2695,
						 -4788,-2057,-2306,2126,-920
						 },
						 {1278,-6227,-5866,-3476,1510,
						 -8099,-4613,-8078,1093,3920,
						 -1518,-1123,-4992,3062,3523,
						 -5254,-3077,3738,6582,1055,
						 5181,6493,7716,5176,3026
						 }},
						 {{-4467,-7579,-3478,-1852,1874,
						 -1147,4364,3288,494,1833,
						 3597,797,4179,2202,-1420,
						 365,67,-4401,1047,469,
						 -5089,-504,-6660,-1265,-5786
						 },
						 {787,-64,-7503,-6345,-2223,
						 4049,1191,-9780,-2115,1076,
						 3103,-1803,-11661,-3027,-3582,
						 7135,-10373,-10654,-5456,-8924,
						 8496,-6739,-553,1025,-4782
						 },
						 {4892,1895,2395,51,-3586,
						 2721,3778,-1413,36,6769,
						 -9221,-9207,-4479,1147,1026,
						 -613,-3697,-7735,-7664,-11126,
						 2295,4232,-5040,-5588,-5479
						 },
						 {-8510,-3359,-383,-910,4298,
						 3559,6557,4608,1087,-624,
						 2335,7850,-2265,-4821,-562,
						 139,-3968,-13772,-5554,-5870,
						 4787,2005,-1713,-3664,-10013
						 },
						 {-9306,-8520,-5292,-2210,-3989,
						 -1415,-1271,2414,-750,-2413,
						 3559,2374,-1480,1824,5141,
						 -1528,2501,-4764,2883,-882,
						 2558,1637,-4716,-2685,-10086
						 },
						 {894,-1104,3212,5154,4232,
						 5352,3389,3829,5332,2733,
						 465,1047,3601,1877,2745,
						 1686,-688,-5115,-2923,-2360,
						 -1086,-2269,-5372,-1985,-6252
						 },
						 {-10102,-9727,-5325,-5605,2498,
						 -9183,-5610,-1793,3182,5788,
						 1491,4557,3740,4758,2033,
						 -731,5609,669,-4412,806,
						 3988,-2143,-9455,-5992,-4260
						 },
						 {-1403,-12146,-12044,-7310,597,
						 -10102,-10257,-3480,-3790,-737,
						 -1660,3531,2866,-4646,-764,
						 4841,4550,-3017,-524,6235,
						 4060,-36,-1843,4000,6531
						 },
						 {-2293,3229,-1839,2499,453,
						 233,1615,-426,-2216,2546,
						 -6349,-447,-1687,-4611,1961,
						 -2287,-3480,-5255,-5624,-6959,
						 4742,5813,1958,-1126,-3354
						 },
						 {-2649,-1815,1349,4092,4415,
						 1081,6212,4682,3977,5926,
						 1929,1232,-2649,1580,2971,
						 -3379,-4214,-4216,-5594,-3621,
						 1751,-1473,-5649,-7003,-4921
						 },
						 {2636,4628,114,3551,2384,
						 2917,3997,2501,5854,-686,
						 -4327,2100,1782,-987,2904,
						 -944,997,-5165,-5707,-5606,
						 -5362,715,-1287,-5122,-328
						 },
						 {-1173,612,749,-78,1070,
						 3280,-66,-1305,1909,-229,
						 587,2878,4904,2783,7306,
						 422,127,-1238,-4338,3080,
						 2994,1937,-2743,-220,-824
						 },
						 {9213,1835,1134,-3748,-1149,
						 -3058,-8081,-8987,-429,9678,
						 -4353,-3909,3925,9766,7165,
						 4214,3231,-5684,5568,-4063,
						 8186,6085,1549,8504,-3348
						 },
						 {491,-6646,-2113,-1251,2544,
						 1808,3171,1272,761,-23,
						 -1970,2491,2109,-2480,-3625,
						 -2163,440,-7791,-8716,-154,
						 -5221,-3698,-12260,-8860,-5369
						 },
						 {-8820,-7192,-4523,-2381,-1990,
						 -4530,839,-1460,-1791,-4629,
						 6937,3247,5282,5643,2975,
						 3067,3516,410,6615,988,
						 -4058,-3656,-7264,-1880,-7334
						 },
						 {3347,3503,-1511,-76,-2265,
						 -308,1807,1812,4453,6763,
						 -2864,-3868,-6148,4296,1787,
						 3804,3180,-1223,-2976,-2756,
						 1981,-3446,-6498,-4955,-7161
						 }},
						 {{-5948,-4033,-1204,5998,3504,
						 1298,-4599,-48,3099,1048,
						 -3361,-4573,-1782,472,-2020,
						 -1314,551,3209,1621,137,
						 -3299,5487,6812,-1341,-137
						 },
						 {33,5789,5753,-1774,4214,
						 -1540,3921,4690,-2353,660,
						 -9931,1676,-3457,-7618,-13012,
						 -11600,-4832,-7605,-13057,-13015,
						 -2651,-3497,-15170,-18805,-15334
						 },
						 {-5332,-13389,-6987,1150,-990,
						 -416,-8056,-9422,-5240,-941,
						 5038,-5679,-2496,5704,5169,
						 -2167,-3483,1207,8628,6827,
						 -1328,-5229,-8525,392,-299
						 },
						 {-1436,2119,2067,-2397,-1352,
						 -71,-107,2719,-3131,2200,
						 -44,-1745,-753,-7152,-3088,
						 -3160,1638,2105,-757,-5893,
						 61,6852,2949,-9257,-6010
						 },
						 {-763,-6934,-5655,269,6364,
						 -4610,-2807,-4459,1308,-798,
						 -1495,-943,2675,2296,-762,
						 -4179,-3499,240,3401,2714,
						 -2734,4604,4562,157,-3400
						 },
						 {-3328,3524,4405,4726,-1993,
						 -2142,4434,1967,5382,1459,
						 3902,-249,1274,3136,-4147,
						 1254,4910,3420,2905,-4404,
						 5574,2669,-1598,-1121,-7001
						 },
						 {-7576,-7665,5519,5943,1619,
						 -6527,-2552,8693,5069,-265,
						 -7865,-2774,6671,7314,1005,
						 -2625,607,838,1324,-269,
						 -8023,1277,3956,-328,-1477
						 },
						 {-7551,-14704,801,3358,1989,
						 -5837,-8430,507,8432,174,
						 -8932,-9584,-1975,771,2007,
						 -13003,-10873,-5406,-1931,-4594,
						 -11532,-5337,-532,-4429,-2120
						 },
						 {2275,-10217,-6970,-1292,4364,
						 441,-2765,-4618,-922,1758,
						 -1207,-7038,-7031,1195,-2369,
						 -2129,-2342,-5388,128,2058,
						 -777,2218,90,-1437,-3608
						 },
						 {-2312,545,4141,1369,-2874,
						 -1816,1060,3315,3198,198,
						 3105,3231,2204,2843,-361,
						 -437,5131,5081,3486,-412,
						 456,3568,-3010,-3985,-2613
						 },
						 {-3860,-805,3345,6137,3341,
						 3137,-4841,1720,2641,620,
						 6183,991,4960,7177,5442,
						 1338,-2141,2600,7360,2221,
						 -2494,-3380,3969,2861,-1531
						 },
						 {-5316,-3424,-1041,894,-338,
						 -1955,-8286,-2319,1066,-1864,
						 3652,-84,1152,3728,732,
						 3832,-2240,1643,6872,3225,
						 -5814,-891,5608,7285,2803
						 },
						 {-13655,-8200,3626,-576,3665,
						 -8952,-5566,7521,5033,3121,
						 923,-7665,2936,9792,8989,
						 -11858,-11057,-3017,8422,4733,
						 -15021,-11426,-11764,11083,11168
						 },
						 {-5257,-3727,921,6451,1866,
						 -117,-5812,-1921,954,4823,
						 103,-4069,-3294,3509,735,
						 5184,1379,2816,-205,-963,
						 -5034,-5010,4751,592,-789
						 },
						 {-2120,-5318,-2490,-1396,-6518,
						 -518,-1684,1108,-654,-6617,
						 3703,-1668,4697,1612,662,
						 5962,3280,2532,1730,4807,
						 -2532,1994,459,1523,600
						 },
						 {-226,-3660,1436,2562,3065,
						 939,-325,56,-379,1793,
						 1525,-2696,4404,5381,5026,
						 -512,4817,6003,3367,-2437,
						 3871,-2314,-4929,-5008,2670
						 }},};

int weight3[10][1568]={
						{-3227,-1473,-430,191,-447,480,1802,-589,128,-75,2442,-745,-3392,-10827,1349,-990,2597,1471,-7094,-7811,-9123,4094,3662,3826,-8091,1531,-1703,-592,1210,3444,-1960,0,1868,7002,1820,185,-4486,-5018,-2799,2816,4818,827,3488,-4185,-9040,-2942,-3837,-2350,436,1028,-5350,-6682,-4008,-5147,-3963,2698,1411,-2335,-175,-18,-6770,277,2324,-2271,-805,1774,2349,1159,5438,6055,-4232,-889,-444,-1980,-839,1497,3021,-3380,2068,2028,-2367,-5308,-417,1036,-933,2509,265,-1136,-3831,776,712,471,509,151,1038,571,-4484,-1634,-90,127,-2286,-2297,876,74,-278,-1095,-2958,-862,-1366,220,1914,1784,3236,-2008,159,690,1743,652,-1646,1840,-514,-3905,-6792,-3226,-2439,-6963,1795,-1935,-2394,-4,2980,-649,-8216,-1956,3254,-2567,1023,2999,-570,-8513,-1370,-2970,-1012,-1661,1353,-5092,-5274,-2163,-2581,-736,-719,-3573,1765,-1226,-1193,-2261,1361,890,243,1257,-897,769,2835,-1799,-5669,3563,840,-614,112,1445,-1537,-2330,-835,3240,796,-5420,512,-234,2491,-5875,-1458,1812,-5257,716,362,5419,-3146,-3120,-89,-2532,1632,1891,14,-638,-792,-526,-718,-1147,-55,-428,232,408,1381,-920,-1064,-1020,994,-58,3623,4350,-3398,1093,874,-722,1130,3769,1358,-2250,574,448,-4615,-5868,767,-5187,1585,1537,-1274,-2358,1920,2052,-11336,1841,-813,-2280,3663,2558,1152,-4457,1636,1020,-5961,-7947,-5206,-6303,-2234,-1826,2321,437,-590,5187,1400,-2273,2900,-1590,-4257,-797,1581,2166,-6699,2284,1647,-1054,-2721,56,-1530,-5822,2669,-2878,-2251,-7492,-3942,-142,-4824,2021,-65,510,-4949,971,3359,-783,-1144,-128,2371,3491,3117,-1029,-1999,-2138,841,2249,3208,3672,-1979,-3556,-7020,-10826,-323,-76,1927,-534,2248,-3421,-6418,1863,2411,635,3854,5264,-3960,-5953,-1044,5602,-2615,2962,1464,1186,3428,760,-1262,-4660,-3908,-571,606,1299,-2577,-4751,-1984,-215,-5131,2298,490,2127,-3336,-4474,-1269,-1755,-1835,-6966,-9336,-4106,-1705,2818,-2414,-2516,-1122,-338,3344,6195,-345,872,875,50,1042,617,-237,571,-2658,837,-1804,559,-783,1051,921,-7051,1375,-896,1,-2888,-1476,366,1940,943,1521,238,-2000,-2793,510,2427,-194,1479,1448,-1128,-3128,-25,-532,969,2315,2482,-21,467,-2989,-1808,597,-2187,-329,-2018,-1191,450,2952,-1019,-2123,2566,-3490,-1217,-4440,-742,-3881,4047,2685,-1762,-1966,-4393,1229,-6235,-7709,-13583,-12051,-6316,-402,2638,-4887,817,-2978,-1570,878,2278,4343,-1375,-456,334,1315,-2259,-1496,-2153,-4812,-2154,-1309,-3733,-3775,-946,-4628,-2249,-1254,2789,-2587,-1376,-1592,-940,-1735,2400,-4660,-3506,-240,-240,1227,2335,-5665,-6614,996,-2575,77,1253,-984,-1876,197,-1519,-2176,-1880,1210,-9339,-19278,4522,5172,-2177,511,2466,-7949,-12080,-858,-1807,4628,2268,-795,-10802,-18800,-9965,6769,2040,902,-2299,-1591,-3850,87,28,-84,-1204,678,-4303,-2883,-1494,-539,2231,2554,-1743,-1761,-146,-1504,-921,3728,1723,439,-2974,-1402,-5483,-7738,2780,1183,5219,-3514,2113,1347,2693,-3215,554,3988,-2276,-1761,1113,6551,-3109,-1409,-1185,-1796,3936,6699,3090,-8502,-7157,-4393,1322,-3765,-8017,-1809,-4135,-5047,3287,-2274,-7941,1694,2145,1529,-3091,3057,-3724,1797,885,430,-2442,3580,4957,-9164,-1099,-1618,-2872,1352,3094,4771,748,54,-3928,135,39,1293,2209,518,734,1814,-347,-3971,-2106,-1183,913,209,813,275,-1678,-1876,-1899,2812,881,4483,3114,466,1207,1601,3,-3194,-5565,-3088,1328,2261,-789,-5683,-5260,-4281,-1461,-107,-728,-2140,-12978,-14624,-5408,-158,1811,1946,-3368,-3875,1979,489,-982,-2759,1461,1766,-1702,1875,2181,183,1391,-1365,992,1622,1222,3105,1655,571,-2717,-3171,-1525,-1165,510,1549,1742,162,1925,858,1109,944,512,2253,-120,-3432,538,2638,-828,-2366,-2400,-9421,-3995,2275,219,-1141,-4303,2289,-5432,-3553,1525,-425,7086,841,4113,3952,1787,1073,6399,3143,-3203,4346,5448,1047,4103,1726,-12499,-4799,1246,-1697,-1540,1048,1358,-7,-6860,-734,-385,-950,-1165,-6242,-4910,5074,101,-3146,1220,-3961,-2331,1342,5436,-932,-2482,2,-3549,-4309,133,-2477,-7088,-7147,-1586,2930,4038,157,-1589,1157,1163,965,-1348,17,824,1388,2007,708,2763,2354,-248,101,593,1480,1390,402,-366,-2088,-693,914,2130,-844,-4733,-449,-2087,-331,2393,161,2466,-1759,-217,-2299,711,-635,-699,4325,339,720,1317,-1377,-2409,254,2975,-2023,-427,1572,1692,-6040,-2471,3768,3625,1741,2433,584,-4944,-2807,2994,3365,3943,3432,3413,-2389,-8771,-9678,-3570,-5947,-7312,-2126,-74,253,-4448,-3748,-2503,-3093,-506,-488,2366,1741,-468,-1085,-3282,-3005,1665,3367,2666,-1330,694,-2484,-5122,-6598,982,2496,-790,476,-751,1007,420,-4563,-621,1509,3866,407,3230,3092,-1810,-368,1533,1277,1893,1813,2877,-306,282,-855,571,-3653,-5255,-693,-3893,433,-3228,182,-1836,3265,-912,-3789,-1032,1400,178,422,1192,667,-857,1642,-384,715,4407,2706,-6623,-4975,1448,3197,1872,2368,-1496,-2331,-2669,150,2007,843,2315,1088,288,-3663,-709,-713,629,2881,1806,2503,-2683,-3498,-1935,-2176,-1747,-816,-2331,-601,441,-1396,-1910,-2722,-594,725,-1509,-5,618,1170,1013,-2272,-2925,760,-66,255,-1439,1633,-251,-3038,-188,723,-2203,1345,2907,925,-6240,1121,5482,-6387,6151,2686,5275,-274,-795,-386,-6965,2867,4863,-5516,-14143,-16312,-10858,-747,-1510,-485,249,5823,-796,-9080,-4342,411,-2607,-4533,-5379,-2478,-10352,-2309,396,-1402,-1328,-651,2782,-4344,-1114,871,134,-826,2241,-1130,636,-4413,3103,1936,1636,-3385,4083,7257,-6201,2370,1641,2947,-2094,1098,1309,-6834,3664,443,2730,-4240,-7206,-4830,-5561,-1358,-2998,2048,-1323,1818,-1733,2820,1375,-3127,-264,-1402,5012,2958,1209,-462,-4327,-2270,3022,5958,5163,-939,293,-2380,-5096,8872,1681,-2643,-3143,1082,-524,2024,2307,749,-4523,-5395,-1048,4553,14695,1142,-3309,-7972,-4305,1118,2154,2506,-12721,-13125,-3436,-569,-1467,-2604,-1624,-480,437,1084,360,-2335,-2138,724,1267,964,1886,824,-359,-513,-2318,-1556,-2414,-1041,-300,-1781,2639,-380,671,-5979,72,985,-5233,1779,4872,-1265,1374,-86,3103,-2064,671,961,2123,2087,-271,912,-714,489,-9630,-6050,642,-3951,-3470,-2238,-1205,-1574,-912,1242,1323,882,-1566,-137,-1214,1408,713,-1298,477,1576,3174,-1535,-2465,-3534,-944,927,1052,-815,-4689,-4612,1353,-157,2556,-453,100,-1358,-627,6917,1071,-38,1674,2170,319,4799,7393,-2089,-4759,1539,3601,-5358,-12083,-28075,-12347,-11076,-1307,-2168,-741,57,4500,159,-3327,190,2827,-325,3595,4602,6143,-3422,322,-3649,-3932,197,-94,4187,-579,-12983,-3415,3813,-4389,-6000,718,3199,-12299,-2013,1676,3292,-3110,-1004,3278,-8060,15,1240,-259,-2577,900,1269,-2048,3439,3040,-656,-1267,485,-280,-3133,-1362,-1875,-1250,1725,-2468,-4431,-2280,659,-1561,5119,2321,6374,-5557,-556,354,-2234,584,775,4293,-10233,-1448,1405,-956,-4831,-1859,939,3891,1503,-320,2512,-2900,-185,1371,3035,1944,2144,2924,-3738,714,758,-391,377,2188,1156,-2972,-4642,-5430,-1086,288,-2839,-1145,1004,-1039,801,-255,-1731,-488,-1331,-809,-1426,204,-1037,-361,-2231,-2527,-3814,-186,137,-1659,760,2094,-1489,688,1107,2009,1230,-385,2946,1878,-302,-506,3736,3088,-2263,2130,1868,-989,1489,1081,3578,-532,2650,2649,-2219,-2563,-7274,-3512,1666,470,1391,985,155,-2039,2898,2755,6149,7961,4765,-902,-9502,-7215,-593,-2903,-3400,-4617,-6338,-7488,-3212,-9554,-7125,-2197,-6447,-7329,-8923,-3530,-7529,-7034,-8318,-12442,584,5929,3179,1365,595,3223,3166,3481,2498,2937,2261,485,448,2249,957,-599,-422,1621,-1863,-83,-614,238,4799,1403,1173,4736,4831,3795,2632,3085,4553,2917,2258,1185,909,666,-1169,2154,-3786,-7401,-8831,-5575,-6531,-4256,-246,-9947,-8142,-2918,721,801,-9940,-3850,-617,-1347,-411,803,-5131,-8576,-4239,4121,-410,5094,4596,556,-1689,-3304,1727,-444,-2336,-172,-168,-739,1192,-983,-2885,-2302,-1278,-3189,1637,2494,-540,-1727,3822,-860,-3804,2104,3839,1368,-102,3027,2521,1293,737,-1270,2149,2013,5214,-6309,-2753,471,3484,1623,-856,-3699,-5718,-2618,2486,1588,1763,2834,-4561,-14852,-10317,-11248,-3122,-727,-1472,-1113,-2202,-2288,-3390,-933,-3723,-2752,1284,959,-607,-365,2523,-4166,-2190,778,1738,-2851,3405,3367,1689,636,2673,-5151,276,2750,261,1046,-685,-2602,967,2304,1743,-4146,-379,-195,-1361,1861,7057,-2056,-8499,3447,-291,-3391,-5054,-9003,-19586,-14610,-2139,-4458,-626,-6259,-5905,-1613,-971,-3388,-245,-3537,-1038,-1454,-10284,-11052,-2678,331,3408,4120,-5265,-2795,-4608,4558,3843,4415,-4204,5245,4571,1275,3096,4639,3545,1556,1287,3334,2055,1308,1149,-4288,-7393,-674,3889,580,33,134,-2991,-12399,-7133,-4196,-3225,-1807,-3384,-1640,-2985,-2853,1006,819,1789,77,-209,2263,5338,574,-1046,3057,1373,4877,3550,-4522,-8403,-5950,2607,2670,728,-2898,3214,-11912,-7313,414,718,-2877,1144,3462,-1389,804,2151,1653,-8507,-1663,11036,3554,3033,3033,-377,-5314,6539,3414,2366,-976
						},
						{879,-3028,-1103,-860,-544,-1576,-625,-4427,-4630,-2011,4721,1485,3316,-2110,-3626,-5292,-3598,2898,7306,-429,2938,-2723,-3532,2714,4478,-3049,1466,4640,-6460,-1577,-2440,-895,-660,-955,-1072,-59,-1925,-1521,1804,-9630,-9177,-4804,279,-796,2339,3055,4055,730,-581,-1998,4854,6698,13584,2616,2514,3284,392,2454,263,2766,418,-1379,2546,-159,3748,2194,1437,1405,-1205,-3235,1390,-1256,-4821,-975,-329,1380,-2119,1261,-2214,-1744,-1068,-3255,-3692,-1251,752,-1978,-1935,1797,3793,2405,3468,1015,-1715,-1789,-62,-169,733,-1067,1710,269,-4852,-5453,940,-2002,1839,-2231,706,-2063,-5638,-3226,1242,-233,-403,1767,-347,-684,-4095,-605,810,-315,2710,-3433,-1730,-8181,-16350,974,1265,3317,2700,-61,-2291,-251,7736,-1454,-866,3276,960,3887,5597,4254,-1528,-2437,-1217,-885,-4402,-9232,-2456,4206,-5944,-1489,1274,2683,-965,-3335,3044,317,-1819,6506,87,-673,2947,2176,-769,-4882,1287,330,431,54,-223,-2944,-13041,-4775,-1193,601,-2282,3751,1106,-7767,1046,8318,3373,845,2608,-899,-2307,3476,4538,2402,-2524,1421,4211,4663,3447,-2289,1190,-2183,-544,5679,1047,1250,376,-3518,-2287,453,-5669,2084,4381,-1586,-2632,-628,1726,-3691,-2009,248,723,1443,-4905,-665,-1408,-1855,2094,514,2447,4613,-1409,-702,405,1464,-5371,5858,4089,-325,452,-2151,-1417,-14921,-1138,850,-1123,-2266,2886,2676,1863,-102,-2861,738,-254,4042,4834,8537,2202,1998,-694,1591,-170,-372,-3152,-9416,-7602,-2943,-211,-340,17,-7640,-5818,-2827,-3186,-2717,-4134,-2005,-8127,-11013,-2756,2162,-5294,-5248,-2269,-4668,-5395,1593,1803,-566,961,-97,2136,4498,3467,851,-211,-1931,-24,772,1248,2146,4302,9114,7622,5376,3142,-1240,-1318,6454,8171,-591,-7732,-1163,-1720,40,1490,-3588,-2253,-8101,-3949,3378,-2178,-1713,-14076,-321,-5347,2202,2701,716,-2464,-10072,-1757,-8245,-4201,5941,5542,-3009,162,3481,-57,4525,-796,5065,-1330,988,308,-5600,-1065,-1996,-2684,5119,-3326,62,426,2159,9274,145,5596,1657,-2518,-2121,-4228,-3033,-688,-325,-829,2756,-1697,-8202,-6484,-596,-1486,-3489,3110,-2275,-10447,-4311,367,2161,-2739,-4619,-2236,-6732,-4153,3689,907,2962,-2209,-54,608,-611,5391,4527,-2463,-1950,-186,-2708,854,1293,1800,-6235,-11823,-8695,-497,1732,308,532,846,-1982,-6050,-4581,-4019,-3511,-269,-1552,-1597,-11029,-6301,-1425,420,5668,-3512,-5401,-14045,-2478,-3921,2994,1585,737,491,-4896,-750,-3206,3602,3093,2558,2561,3435,6198,1243,1651,-4543,-6347,-852,3523,86,-3335,-1411,-3916,-8887,-8982,-4708,-508,-1011,812,-4785,-1991,-2164,259,6005,2436,-529,-558,3074,-9988,1409,7857,2761,-47,4462,1758,-8693,-746,2643,1750,1165,2610,3763,-8167,-5875,4000,1177,-1643,3287,4972,3388,2840,196,-2911,38,-1815,-1398,5755,784,-4135,-1178,137,3842,-461,-6766,-6761,-3287,1064,2475,3168,1107,344,3671,-1076,935,-231,1276,2942,2984,4071,1991,2228,399,5908,-912,-6197,-4829,-4326,313,-1051,4331,5322,-10643,4455,8828,1725,898,2050,466,-2231,1761,8452,2247,3046,-1014,-4137,3807,4593,-559,4541,-3277,-1138,1877,210,12398,8039,3080,1134,1067,-1825,-4694,-861,1254,1955,4202,5245,5919,4800,-338,-931,-2262,33,1104,886,2417,-3210,664,-1531,-4801,1832,-1927,-3149,-3526,-6471,-10267,-4037,2028,-1331,301,-1572,882,-612,100,-1302,47,-715,-253,-991,-1050,986,-2769,397,-9892,-12780,-1941,2547,2765,3995,3677,-1606,-5032,727,-1020,-907,1190,2042,-2565,-3690,-2378,-587,-212,3542,-110,-7290,741,-1034,-662,-1736,3692,-5953,-5184,1560,1488,-645,1221,5350,1322,-320,2450,1197,587,6036,208,-247,-195,-589,-1880,2007,3408,1024,-1522,609,3156,-1222,1171,-1052,-2119,-5090,-416,1375,236,3763,-315,-128,-5285,803,-1264,8563,1351,2299,-3494,-2981,1054,6054,-2444,1954,1176,-689,-970,-886,4942,6247,2432,-1508,-2807,7,290,7235,2932,-7179,-4407,-1466,4599,3725,7311,-4100,-5129,-354,1683,863,3619,9327,9703,539,2417,3179,3054,-1930,766,1730,-2544,2406,2245,1104,1679,-200,-478,-1010,744,-2103,-3253,460,3648,-2513,-1209,-3353,-1215,-5020,4189,-155,-4439,-1321,1730,1134,73,2401,2050,2392,91,1002,1239,1070,566,-733,-4644,-4723,-4268,3887,37,-8308,-5553,-6373,-2927,-1664,-525,-366,754,996,1929,-668,-3414,-778,-2729,1453,1825,1859,866,-6891,1772,-6659,-1324,-445,7351,4758,-3599,841,-2250,-891,1840,6793,-613,1970,-1398,-4439,227,2628,4123,-12615,445,-1410,-2599,2065,5760,2840,-6316,-5393,2746,2269,-2826,-3038,-3065,-4174,-1064,5700,3678,2138,-3894,-5357,-3592,-1826,-1012,-2176,-134,-6058,144,-3995,-4126,-3197,-5926,-4119,-7034,742,-59,-1175,-2455,-954,-4854,-1736,4563,45,6044,158,-898,-1873,-3097,2825,4162,2765,-659,76,-984,188,1561,-981,-651,1442,7902,3567,8359,4722,6795,412,-2835,-4518,-3016,4743,4005,1352,-402,-1116,-1575,-4679,2330,3436,703,-3709,-642,-4872,-259,995,4404,502,1736,-1661,-3842,2431,1381,471,61,3235,1924,2665,1016,3564,2506,-401,1912,2299,-2874,2063,-1958,-2433,2327,-73,-1740,-3393,-2387,-3450,1534,954,1855,1997,-208,255,4387,-3490,-3612,0,419,-1174,947,-572,-1754,1547,-3846,1362,-1816,2096,-2679,-1602,-569,-265,627,1938,1995,4161,3782,4272,-622,-349,-1127,2028,3413,-1015,-1218,5178,-1209,858,4723,2199,40,-6834,-7315,-542,1416,-656,5465,4881,3497,1755,1313,2791,3489,-145,-1686,-62,3450,2179,83,2405,-1183,-3128,-4319,-6067,-4347,-3924,2531,478,-1472,-6135,-6995,-2208,-3065,3098,2321,-4511,-5036,3348,-2803,-3239,638,5313,-5131,2585,141,-2741,-1744,1927,2499,4458,-4514,-5951,-3644,-1040,955,-818,1154,859,1857,3821,7359,3280,-801,2471,-1166,2120,1387,2655,131,1746,13652,33,-1813,2533,1508,1234,4877,12098,721,-1552,-5591,-3419,3382,40,3822,1759,1989,-4397,-3272,2194,3918,5417,-742,2245,-972,127,2539,5540,9020,1401,-720,1888,591,1682,1162,-204,67,468,-96,-326,-2581,2903,3987,-168,-360,141,46,-2383,919,1464,311,21,965,-18,-5224,-542,134,-1532,1357,622,3438,-5325,-69,-232,-2136,-661,1874,-4241,8238,1372,-5267,-8111,1310,110,4667,5930,-107,-6074,2843,-1865,5448,-3736,-5150,-1588,-1923,-511,408,1836,1405,-3782,-255,-874,-854,-1870,-2283,110,1281,-4264,-484,-706,-1949,752,-2634,-4986,-7924,-1554,-490,-352,3474,3219,-1023,-451,75,-299,349,4267,-1887,67,-2307,-469,2426,2680,2069,-1424,-359,8872,4322,1565,5513,2067,3318,1782,593,-995,-2737,-5646,2023,-1373,-1353,-2008,-4884,-3952,-953,-584,-2943,-8654,-2297,198,1623,1113,-2689,-3218,-18234,-2397,-1459,-371,-511,1689,237,-5695,-872,2789,935,3397,-2941,-966,3861,2671,302,-921,-244,3699,2034,2024,1649,-1828,-1362,-522,4955,4483,5686,1615,819,-1904,-4405,-1662,-932,1432,1708,-3584,-4912,2450,-900,-6423,1519,-1319,169,-863,1580,-4753,-2158,1201,-2462,-2741,-1563,-8323,-4369,-4318,-2977,2880,-314,-277,7033,1415,-2263,-3605,-57,-4207,-3345,1439,483,1059,954,-1031,-4381,-747,-1139,-208,-6702,-4210,-4823,-2950,1191,1832,-1678,1243,-131,2872,829,1606,236,-5730,719,-4307,314,1782,2473,-2456,-3223,1634,-2523,3742,5763,4928,-4375,5171,167,-4863,2407,205,834,254,-1967,-5665,-2633,3938,-3902,-8107,1079,-1732,-543,2052,4570,2133,70,-3082,1708,-1616,-1840,-1275,-2547,6423,3556,907,-2474,-132,10611,9851,1180,-3860,-2546,-2378,4477,6753,2533,-2895,-1370,-1050,2367,3031,-594,-6732,-3578,130,1966,4351,4126,2028,-3878,-7518,-1276,2394,-780,-575,-3700,-2458,214,215,139,-1033,-1841,-1610,-572,1192,7,3878,2645,-1883,-931,-750,-1352,-2656,1058,516,-1877,-1783,-4351,-988,-2152,-1791,-2769,1194,-1984,-3166,-4932,-477,1351,-1758,-3089,-10400,-6441,-741,3015,2713,6037,5286,-4266,-3584,2189,4608,-1546,4062,1469,-1335,2387,3807,-1580,1239,2606,-566,9952,7250,-2998,5699,1681,5692,5938,6777,2945,-1386,-267,1512,1087,1860,7370,1091,-474,3065,1658,1322,-18162,1029,-282,2040,12,1587,6644,-489,3411,683,-530,925,2709,1478,9172,3154,-520,3373,2148,-1397,2943,6804,3221,-788,-3521,375,632,494,2069,1630,-174,3054,-1547,-1128,-919,206,3458,4978,2076,-1054,-2267,-3537,586,-2309,2827,47,-285,-1791,-1929,-3390,4926,3968,-435,-48,1604,-2487,2424,8337,11271,-2556,-1046,-1936,-2066,17,1723,3026,3077,1863,-53,476,2238,5554,-6873,3860,3076,-2615,1246,-898,786,6555,577,4201,-3378,-1885,3459,6484,1443,4650,1139,3015,-4132,-5652,-2995,3414,4196,1995,-262,-3566,-2332,4471,6726,1538,3126,1242,-2907,840,2473,-2518,-319,909,-6446,-531,536,-1031,3241,-3110,-4480,-1135,1970,3651,5296,-2039,-10286,-3333,348,1274,1974,2920,-1845,-2065,3523,-605,-4188,817,-1115,114,-1181,1666,-5062,-4126,1219,3110,1823,-1765,1561,-3078,-1614,5918,12845,9574,-1444,882,-8183,-1509,2578,5503,-6256,319,1890,-34,-2517,3322,1166,2291,3012,1833,-102,1781,3483,7363,2332,-7677,-341,2430,646,2308,-865,-1617,-2659,3685
						},
						{-1355,-393,94,-1279,-1323,-1904,368,-3347,137,1014,556,-3190,-2528,-486,699,-44,831,-282,-1958,872,8168,920,-1226,-1870,996,1144,6704,3644,2648,5846,6441,2105,6057,-2296,-4986,2187,4707,7242,3459,-9517,-6551,-494,-1025,645,-3276,-17393,-19851,-2369,-2868,221,2911,-3761,-7118,-3427,-8632,-1517,2323,1352,-2349,736,3153,4264,-3275,2724,2451,442,2832,85,3265,-4482,2748,-1308,-1833,-2727,-4984,89,-3341,-2829,3327,-145,-3448,-1195,-746,-1592,4636,2496,4109,95,266,3583,3314,2883,-1106,2617,1410,-1344,2423,-87,-1305,1398,5775,2325,849,-906,-4032,2009,-1012,-84,2616,811,-5124,-2841,-3432,-1587,912,-2154,-2022,-11108,-6070,-828,283,-2912,5996,2721,3507,5167,21,-888,-1804,233,5383,2032,4367,1486,-2831,-4511,-1587,5664,8304,4048,-1890,-2873,-1664,-1357,7624,12537,2496,897,569,2089,877,2352,1141,-2973,-1928,-1193,-259,-478,3450,2985,-1362,3664,1455,-4536,-2327,2965,1580,-2066,5193,300,-3067,-5085,-2626,2316,-66,2763,-2281,-990,1363,-1023,1816,-2269,-3175,-2853,2345,2100,-307,4744,1061,725,-275,-485,-2062,-233,218,1059,-315,-1265,3067,-656,-1209,1034,-67,2523,-2567,-411,607,-511,-943,-826,1177,303,1980,-1158,-5160,-2129,-677,818,-1807,-3256,-853,736,-578,2583,-426,727,1961,5312,3824,1352,4086,3884,1027,-1266,1189,3503,3835,9450,1292,-905,-1944,-7107,-7234,-2525,1040,-130,-160,3986,6199,-4892,-7546,-5445,-1319,-606,-2128,2021,1350,1715,-15976,-1860,26,652,3423,2164,-4474,-13142,-1298,1317,3319,-2699,-3213,-6494,4752,-2507,1369,911,-4027,-1300,4919,9975,2473,1578,-391,-1342,836,7198,5768,-268,-1968,788,141,-1338,1495,-1034,-4569,342,-7307,7913,635,-1554,-1404,-9506,-447,-1239,764,1815,-666,-1011,-5647,-793,-1560,-1614,-732,-3817,-234,-6600,-9600,4265,-896,-500,-669,-2645,-3353,2345,7870,5982,1835,1219,2252,-1358,-422,-303,1529,5313,6612,7036,-7431,-8165,-1939,-871,-5982,9431,7249,989,-150,3364,3851,-4799,-11870,-5727,-3531,-1180,2061,2623,2957,644,-18601,-2431,-1198,-2501,-217,-663,-2847,-4677,1137,203,4980,746,-3118,-1552,6449,1438,-420,927,2548,-842,-267,7917,891,-147,-842,1291,2774,2068,-1200,-2859,-2413,529,861,2364,2368,1270,2623,8887,9238,1762,-5149,-1961,-6129,824,4100,2694,649,-1256,-3071,-8323,2644,4017,1541,3448,-3012,-4095,-3258,1703,-3292,1871,-1783,-823,5263,6283,-331,-3984,-4499,-758,572,4635,6282,-3328,-6461,-1129,-1233,1361,5901,-1043,-12705,-6763,545,-230,4302,1863,316,2587,4742,1391,-5986,-2529,1519,208,-1849,-787,81,-2635,-140,1464,-150,1628,8002,1279,-3703,-1335,-853,-1350,10633,11131,-3322,-9885,437,2056,-427,1415,2752,-808,-4188,3294,462,-983,-6899,-3578,1459,2872,1282,-2382,1976,-14765,-6976,-3150,-10595,-10327,-4940,-2033,3138,4597,5765,5614,411,-1664,-1408,635,204,1532,4720,3320,-2708,-460,-69,-1713,-1906,430,3060,-3122,-3957,2182,-4277,-7970,-4016,2921,1517,-3979,2161,-5476,-4272,-758,-1865,-2383,-4218,-4123,-4009,2483,230,538,2804,-158,-4648,-635,-4931,-2990,2012,2962,3502,1079,1069,-9040,-11546,-15316,-3348,6050,4257,3215,2006,7139,-1514,-1590,5637,3787,1893,-3208,-1569,938,2543,-1497,13,-2109,-5033,-2202,236,-142,-1583,-3565,168,-555,1442,-401,-3960,-4990,1544,2135,-650,2375,-3201,-785,1928,-2567,628,-158,-1861,-1760,-568,2636,2757,3041,5723,2757,-1420,-4848,-2770,-1193,2126,4359,203,542,81,1722,1438,5407,6293,3123,1261,-3617,-4074,-78,-6487,-4643,-3552,-1850,1736,-2014,-1661,-8144,-5156,-2240,2166,3649,7624,-864,-2353,1102,1707,3579,6170,2937,-4942,3780,-261,-2109,-928,1195,1146,-125,-1428,-703,-2411,-1277,-963,-289,-1946,-3514,-2759,-1867,-1605,-1205,-551,-1110,231,1583,3348,-132,-857,1370,1964,1817,2227,4773,3051,2264,1488,-224,3091,5581,3698,12131,5026,-3048,-975,2237,3042,9907,-9293,-13458,-4348,-388,-3038,-5525,-10459,-11943,-4336,-1460,910,-1543,2813,6512,3788,-1034,-3320,-272,4408,4898,3109,-811,-1771,-1112,-23,3019,455,4154,-1686,-6436,313,-263,-329,2223,-8130,-3636,-470,777,1055,120,3191,684,912,2922,2296,-504,4202,2484,174,-437,-336,-1572,171,497,-71,-153,-1839,-4714,-1704,-534,2026,3802,3216,504,-2307,-1325,-2563,1467,961,-496,-147,4871,-1842,-2938,177,-1015,-3233,407,1966,-972,-2243,-4631,-184,-1318,2191,362,7162,-1501,-4196,1221,1043,-2244,-3948,5891,928,1816,3510,884,-3512,-8598,-816,4199,3045,1628,-1167,-7817,-3944,-4503,556,4171,3321,2471,1500,-6164,-4057,-2623,-1688,2640,5154,3450,1710,-2470,-1352,-4978,926,815,492,445,-2047,-1642,-6630,-5420,-273,-3645,436,-348,1074,-1052,-2818,1062,3992,1899,6024,-134,-865,-1568,-158,988,3217,3518,-1353,-1902,665,710,2205,2915,241,1366,-2438,2290,-3024,2384,-9465,2694,2879,1184,2546,-2628,2859,755,-2105,2738,223,-204,-54,-4299,-3153,979,-1285,2676,-1446,-4480,-2088,-4873,2249,4155,3632,1995,-1016,-1430,628,4900,4112,39,1983,120,-2302,-272,-4,-636,3045,-377,-2052,378,-982,-173,2152,4170,-163,786,878,-42,-588,-453,-2475,-58,-2013,1467,-795,-5384,-3486,-461,-1391,843,-2459,-1158,-1041,-1594,-6375,-3760,-157,2995,3933,6228,3063,-2725,2645,-3027,-2063,1905,4552,-163,2720,3340,-173,646,1056,7368,-214,-3490,-5758,-2979,-8452,-3844,-8498,-4040,1933,-1254,-5954,-9172,-4353,-4266,-3038,-1051,-936,3227,3996,-10578,-4536,-7247,-4857,-2133,5123,4682,-2028,-781,-4696,-8001,1088,122,2046,2945,3966,1065,-4080,-4145,438,1246,1661,7171,3081,3356,-1484,815,139,-1043,9310,2553,1575,-73,-1094,1744,3834,6294,1427,899,190,-1941,-1478,-1155,111,-1860,-906,212,5596,3675,956,-937,1227,3234,6367,12069,10153,5598,621,-1147,-7557,-5614,4328,4761,-5370,-2978,-2406,-4449,-18598,-967,-5530,1121,534,2506,6202,-3653,-2842,-3948,4410,-587,336,1526,-2695,-3841,6843,971,-29,-99,179,188,618,-673,-1607,-678,-133,626,-112,-541,-1503,-130,-406,3322,-1533,-1078,16,-1689,-2603,-199,4737,-3163,-6187,-2583,2679,627,1988,1974,-3517,-7474,5104,2915,234,2494,-2676,-276,-5167,1142,744,-2927,-2878,-1104,-6576,-16150,-12626,-8993,-8222,-908,987,1402,-239,712,2457,-1478,-1732,-2004,-44,-318,-634,-1435,-3492,188,-495,926,1835,-1485,-5171,-216,1014,-788,4722,3529,1908,1812,371,270,1226,-4117,-1102,899,2148,462,-1797,-796,-1619,-973,1453,498,2587,5052,-236,-3464,-5014,-5951,-6861,4100,-595,-3263,1316,1412,1033,2165,-2261,-4952,-903,-1781,5675,4671,2029,1104,-2496,9534,1810,-1132,-1674,-3109,-2662,420,4264,-4002,-4399,1143,-3849,-1113,172,-6532,-8196,-2846,2337,1304,-754,-962,-9573,4256,-1039,1688,1701,270,-1081,2506,5423,371,-2944,-1440,-3043,-2107,-870,-2270,-2736,2179,2936,-5018,-6939,-4191,-5181,2920,3730,4864,-4553,-8917,-3783,-5252,-4143,-2497,-3806,-956,-2585,-79,-1484,-4035,-4001,-4665,1663,8323,-1098,432,2557,1136,469,1068,3161,4401,2084,930,595,2264,1893,-890,1704,1887,1351,-1607,-214,-1683,976,-4,-456,402,1322,2252,-1377,-2240,2308,953,2412,-203,-358,-1080,-918,1738,-390,3745,514,-262,-981,2962,3510,-1936,-3123,-2552,581,2251,337,-28,-1960,-2864,1002,-917,-6951,2827,785,-268,988,1889,250,-3941,-2604,1838,4650,183,-320,-1418,-2843,-941,-3303,-1215,773,1602,-4082,-3826,2927,662,5402,4507,-4204,-11355,-7672,-4997,6380,6222,4311,3155,-3303,-11253,-5230,6605,6851,7865,3958,-4056,-3624,-1384,-4300,-2855,253,-741,-1526,3591,7948,537,3059,3290,3650,-522,2053,2510,1881,430,1024,-1062,97,1250,-2907,-3951,1311,-178,1633,-861,-21,-4051,-2709,-2664,189,-743,-846,-3570,-1467,3688,6825,5031,2740,-2586,-2227,-2623,6131,7579,9462,12211,561,-4903,2098,2265,-1673,-5653,-1238,1249,-2914,-1517,-9080,-8336,-2336,-832,8935,10574,1230,-733,-1169,-525,-1894,7818,6466,-1227,-681,-2156,618,627,1479,-1183,618,2601,-3415,-1440,-2538,2208,-81,330,-257,-5964,-7173,-2283,-3207,-3090,-1427,378,-3726,-7851,1241,-162,-56,-3370,362,-6171,-743,1160,-129,317,90,427,2317,-3144,-4239,1440,-4875,-2024,7041,1648,-3034,-13315,-7566,-2003,-1743,-156,5015,4890,-1204,-4007,-1553,2329,6895,2732,256,3432,-1886,-2520,-2062,1639,4460,-72,-2505,-2579,396,-358,-2382,-1362,-1080,-187,247,5142,-3563,-2167,-402,1022,-1752,387,-1308,-1361,1474,664,3351,-1148,1005,3740,3117,2594,152,-1086,-6544,-6639,2223,816,995,-4300,-3167,-2367,-10059,-7537,-10314,978,1131,3533,-2719,-10725,-6720,-761,-1730,-377,-3825,-3856,3126,-825,-816,-1712,-4407,-2701,379,5363,2133,1349,1540,-96,1730,-1352,5266,-3171,-5451,4232,5282,-208,910,-2424,-4900,-2135,2042,2696,-4597,-4329,-9908,-430,-3526,-1364,171,-1906,956,208,-1987,-771,-340,1573,1287,882,-4888,-1866,1555,562,-3544,-2604,415,441,-612,980,-2496,-424,588,2954,2065,2708,117,2145,5731,5579,1357,6205,8055,2056,5195,3144,5396,5727,-7263,-8655,-2296,1131,-4729,2043,-1036,-5966,-176,71
						},
						{426,444,1704,1778,-727,-513,-7307,726,-1477,-1085,-3363,-3553,-5953,-9609,-1572,-3902,-2719,-2211,2995,-656,-2063,-970,-3911,583,4223,-4329,-3905,743,-6470,-7428,-1396,927,-2290,4292,1406,-3663,-4586,-1905,3413,5344,4010,1172,-1457,-1607,8319,3441,4782,2324,1175,-427,-4837,1256,-3423,-8157,-12844,-6401,-146,-646,-3230,4654,952,1276,-1067,3443,-1940,-6044,219,1749,643,-3341,-375,-10023,-7403,-1744,-160,1184,-1966,-1355,-8255,-4790,-1204,1206,-987,-2601,677,143,-2208,-556,-1848,969,-3533,227,1020,1825,-1049,1936,-39,-72,-924,-336,544,2292,2643,588,-2727,-251,2770,1952,258,-2501,-3710,-1677,2699,1895,2061,3198,588,2759,-2347,-515,-1602,-1431,-1635,1309,-3159,-6713,823,-823,-3472,-1348,-314,-4740,-1119,1935,-221,1983,-379,1073,-5049,-5624,3113,5762,8869,3101,-143,523,-2411,2636,1097,96,1960,3795,1894,-2716,3524,1290,133,3553,3080,1098,-461,109,-4918,-1531,-2290,151,-2347,-1592,-1908,-5970,-6225,-1317,2763,-1907,-2092,853,2422,-688,-656,-1973,-861,-400,2034,625,1373,-5196,-3935,-1557,-1080,2149,2944,1509,-1444,1618,2234,555,-106,2635,1454,1927,1007,-246,493,1708,-1977,-2669,-1346,-556,-901,-2409,2374,-3363,-7990,-4741,1317,-1405,-3586,-752,-193,-1376,5094,5508,825,3045,-5758,-4664,-3588,1126,912,-9,-1058,-4238,-5950,-2301,1435,2945,1489,-6534,-268,-1294,1313,6381,10157,1308,-1105,-1187,-1982,-4803,-1977,-6168,-7408,-1763,107,713,2781,2051,1147,-1279,-10594,501,3358,4424,2360,-98,-8676,-4350,-1504,816,-1054,3716,339,1202,-6466,-935,-4272,1104,3730,2830,-3909,-4917,-1666,-1238,421,270,247,-6604,-4841,537,1751,1441,1756,-1857,-1550,-4547,-1264,-551,8940,-299,-139,397,2632,-659,856,-3201,-4191,-803,-2848,-607,-2315,-5974,-5082,-3337,-5273,-5367,-4470,-1218,-2455,5648,6949,6282,2852,-558,555,-1397,470,2117,1530,-1705,172,-2049,-146,-1035,3919,230,2107,722,4532,1835,3496,7930,8749,1806,-2539,1986,261,-536,-522,-666,-527,-3432,1073,139,1107,855,-1554,-6958,-19554,-2468,-1032,3736,3397,807,-349,-2923,-2131,-4304,-2118,697,7188,2607,-12977,3626,-2217,-2649,211,3163,-3363,-5772,3166,653,-1144,1547,1675,206,-1517,2187,3262,-363,-1571,-1265,-120,-3774,-3570,3232,8654,6461,2951,-1887,-1994,3833,3253,3738,4954,2570,-6314,-8070,3180,2028,4887,1566,-2446,-4307,-3843,884,-2064,1000,2690,1749,-6866,-9582,1425,908,848,2332,738,-3916,-5752,4423,979,819,-1536,-4460,-3814,-3098,7242,5838,2530,-1417,-4678,-66,-2932,-697,-622,2012,2700,-805,-2071,487,-1504,4171,3988,286,-1340,117,-1317,4972,8997,10039,-3683,-2427,-1002,-1352,4031,7505,20956,8244,1964,-177,2205,3630,140,6111,-6625,-5064,-2692,-1629,1244,5192,387,-3927,-1990,1142,1278,7934,13867,12069,1534,3114,1873,-508,-566,1277,2425,2845,465,-1317,234,1594,1817,926,2028,351,878,418,1050,-701,-4386,-5663,150,2073,-641,3819,-8296,-7722,-3441,431,-3932,-860,2322,4760,-2289,6206,2216,-284,-2073,3337,5742,-893,486,-1501,681,-5765,3901,5066,324,-4916,-3552,-1820,-3482,1147,-2570,-3365,-2403,1992,-5918,-10544,919,352,46,-4351,1470,-1105,-3730,4705,3239,2464,1077,5712,1488,-5303,1285,-7275,-4083,746,778,442,-3273,-7027,-4803,-4021,-1387,3429,3808,2038,1117,787,-2217,-266,1597,3313,-2304,1661,-434,898,-1216,1314,626,-3291,-6270,600,3244,5313,5709,313,-1659,3844,2746,6205,2133,1971,-2760,-3338,3604,3657,2934,968,1569,2795,-1436,1033,4445,1491,2460,-864,-2141,-2241,-242,1979,1807,3436,-128,-1763,-2702,3574,116,-1730,-3662,-3944,-4455,-5230,794,625,-1399,-804,424,-561,-4567,873,2602,1027,2706,2562,429,92,-536,-3784,-3685,-1662,-1940,591,-1798,-3886,-5917,-9396,-10725,-1855,4352,-169,-3854,-2348,-4325,925,-6332,-226,4397,-3240,-1435,-1527,-2266,-5063,-1833,1257,-1771,-3893,-7365,-5023,-4489,6381,2740,-1220,-3918,-10051,-12729,3960,2449,1896,-57,-4003,-930,3682,4716,-856,629,1999,1915,-3112,-6076,-635,-1509,567,1487,-2252,-2086,-4576,-4527,-974,-725,-987,-3850,-928,1983,2182,3415,-2447,-2559,-4729,1,-1533,-1386,-1873,-2552,-1725,-1108,645,994,198,108,1134,-1835,562,2244,312,1799,5871,33,1120,883,1056,1036,816,-1554,-522,3033,-841,-1802,2007,1414,1971,-477,-2015,-5649,-1724,2874,1417,3267,-4761,-3560,-2137,-3758,2,198,-331,-23,-95,-2597,-1309,743,-1796,-5332,-3757,1512,-1612,-3053,-1321,-2122,-977,-1547,-2995,691,-1171,-2503,3085,-204,-9509,304,-2607,3551,9567,8243,-4092,-3286,1494,2320,4585,3251,708,-1816,-2324,-1268,-1878,1016,1981,-2449,-774,-3198,-2767,-1799,907,4509,1674,179,-718,-1414,-1185,2379,5822,239,98,-4479,-343,927,-677,839,-1627,-1717,-3561,2984,2521,882,181,-1156,-86,-701,-216,3392,2705,-3576,-5012,-4572,-2250,617,-1216,-4037,1627,4253,1860,-1982,3232,45,262,704,-1178,-102,-4962,-461,-7245,-2281,3917,-141,-3590,-3390,-4380,-7350,-2805,-1018,-3622,-194,-1726,255,807,674,-866,-301,388,-2510,3005,1409,-174,-337,811,1937,-2657,-783,-253,531,1790,-955,1409,1028,52,2798,2270,1600,-529,454,975,533,-2306,-4847,1722,-567,-12,-2388,-2915,-1571,-2360,-633,-3992,-6016,4479,1957,-383,-5107,-123,-2900,-5069,-319,746,3298,-3469,-47,-1682,-1253,-2540,4395,294,-4323,-2918,628,-1699,4386,-984,-6028,-6912,-5404,-1382,1928,-1649,940,-4126,3415,1549,1322,-127,-1623,-25,-478,1371,1746,-2060,-996,-3686,-3023,-2952,-1352,12,226,-228,-195,-3950,-1623,1844,1639,-2468,-6283,-938,1388,-2073,1424,1536,4506,1176,-3088,-2266,-366,-3788,2429,-188,-39,-559,1636,-104,389,1683,-34,407,714,982,-1017,-1122,1596,2092,757,-2177,2063,-2593,-4897,-14566,-412,-582,-609,-213,1060,3564,-3941,-7300,2696,2288,340,-492,7692,-993,-1783,2928,-1143,-888,-4531,-1605,-4084,-544,6822,2066,569,-2687,-8363,-3497,-8490,-4217,917,1359,-117,1933,-540,-735,-859,43,-667,-46,-173,-574,-464,-2531,-191,666,-3703,-1019,-838,2516,1550,-463,4872,-1570,1541,-1378,5288,2952,-2676,3170,-2148,-3853,-2712,-16,374,1688,3489,-427,-1889,-2849,1011,2498,804,-3431,-6701,-9241,3703,4622,5622,-586,-1819,2847,722,491,2143,1967,-149,3168,3929,1161,-1096,341,-1233,-82,2371,-354,-2189,962,1778,1983,-3622,-2409,-4330,-6261,-3945,-2434,-1314,477,-422,-264,1119,-344,-3883,-74,2790,688,1506,1988,-744,359,1548,707,3005,1260,-4953,-3756,-11346,-7572,-861,1596,905,271,296,2745,451,-3658,2566,-719,-763,965,-637,60,-2956,2862,-6604,-8304,2810,1049,-1941,623,6816,-677,476,2338,6118,1518,-2286,7449,4638,-518,3071,2434,-2311,-2865,13147,150,-5152,-3281,-1062,1547,-528,2729,-3004,-152,38,-592,2900,-1047,1959,-355,-1183,2533,4248,-401,-2693,-747,-3714,-2051,-1494,-5010,-3259,-3117,-3656,-4337,-783,-1269,1649,-3107,172,1860,-3864,550,3828,6182,1502,-892,859,-1634,-3902,2160,645,-1677,-5490,1354,-2120,-3789,-2655,264,1015,2592,-1088,502,-786,-1041,2115,3143,-1689,4259,2477,1234,2006,3386,-1696,-174,1847,3209,5656,442,59,-550,-2325,1935,951,1490,2797,2002,1799,-3875,-6156,-319,-349,1076,3521,-238,-2798,1130,-2156,-5007,1352,-190,748,-835,925,-1670,-4730,-2776,954,2815,1317,1990,-944,628,-738,1206,3079,-4007,-1292,-705,-968,1354,-816,295,-1243,-188,1549,1920,-6700,-10125,-4599,-5194,545,3868,-1042,-3278,-5317,-1899,-1759,4343,3722,-1637,781,2142,4635,355,1233,-753,-406,760,-1633,-1207,-2671,-3582,972,1299,741,644,605,-2988,-328,-569,130,3227,3538,-737,828,-1506,671,1297,2102,2569,2460,-864,-656,-2759,-702,2133,522,-703,-3871,2920,-4757,-4391,-1837,2105,-1370,-2313,656,619,-3318,-4765,4567,3846,-2115,5717,4380,6723,6382,8095,3407,1287,1038,3189,2641,-1435,1389,-5091,-2220,-6585,1478,6503,-5446,-16742,-4836,-906,-2748,-3825,1443,-398,-153,-248,-1715,-1230,983,-8341,-573,482,-599,-2431,-1332,-1485,-8431,-6915,-1746,318,-4091,212,5898,-2699,-3872,-85,808,3299,1157,-2378,-6617,-4547,-1405,-1779,2597,-3698,-9671,-7922,-3441,1986,1957,1353,-5370,-8304,-7603,1623,3225,1684,-1269,-2042,1501,1228,-2131,2330,2478,1094,4107,6857,2265,-2394,-156,1493,2082,5612,3222,-783,-1401,-1933,-1260,-591,-192,-5783,-4400,-581,-3373,-1557,991,-3267,-4837,-1582,561,-1742,828,3137,68,-3448,155,455,2037,-805,-3092,1434,-55,161,4532,-223,-4170,-534,1707,2728,-4136,-6116,-6834,-8873,-12545,2293,-1879,-3287,-8304,-3896,1833,-3345,628,-3405,-4885,3534,5111,9908,4919,-5799,-3761,-2266,-178,-6537,-910,2410,-10384,-6365,-3125,-10268,-2569,5647,3043,-6195,-8710,-7677,-6314,280,3333,2136,-3639,-3700,-4210,-4524,941,3515,2326,5378,1945,285,1905,1589,-1151,-1416,1505,603,-1859,-966,-2249,-3969,-4814,-2796,-5384,-9217,-6368,-672,8295,2560,-8101,-11103,-2879,-8920,-6076,-3916,-113,-7282,-9953,-5093,-3339,1982,-2761,-426,-1946,-2109,-755,1282,-612,3152,-278,-2152,-3288,-2204,3256,3331,3837,-629
						},
						{-1714,-4460,-5122,-4044,-2494,2270,4754,233,-2129,-115,-3703,2176,2883,589,1667,763,-126,-1998,3051,4229,-870,-1245,2911,563,-3542,2379,-1121,-1202,2623,3471,129,-2970,-1727,-4381,-4190,5116,1949,1728,-1796,-5035,-7507,3523,1018,157,-185,731,2038,3901,2758,408,-1054,119,3039,5940,6294,1217,808,863,-1312,-1645,-3234,2882,-1970,-1390,377,906,-7590,-3022,1469,230,-938,-1291,738,1999,77,-576,879,2510,1165,440,1372,1740,135,-2302,2599,1276,-2279,-2366,2381,-1250,1494,-552,1871,-2713,229,1850,1890,3669,1905,796,1952,-3714,-301,-3254,-3776,4513,384,-3011,-6305,-1828,-2748,5621,-1470,-3092,-4427,-5563,-3364,-1184,-1622,3657,2227,2818,6586,9,2709,644,2477,1914,4284,2885,308,6173,2969,-1284,1286,-246,-1186,314,3204,4258,-1221,-1451,-3653,-4278,-3026,-2942,-2038,-1225,-2403,2128,1550,3522,3114,-2841,-3439,-383,-1093,-4041,-44,-2486,2313,1470,1472,-3,162,472,1801,1539,1256,758,1903,4280,1465,2987,-2089,-5794,-237,943,-2438,1003,885,-2260,-1863,-559,-1794,-2005,606,2252,-2644,2593,1474,-69,1559,2009,-3367,-283,-615,1234,1780,-669,-590,-676,3290,-2158,2738,-1286,-4435,-2613,-533,348,-443,989,3830,3087,2571,-1974,-3587,-3943,3058,3234,-4038,-915,-3595,-2461,-263,5185,-469,-6739,320,-1883,827,156,3802,1287,-613,-6631,-1077,2962,-1473,-1137,-66,3062,-576,2962,-2348,2997,-2514,759,-3845,5141,-1436,-2107,2780,-800,1548,-10506,-9727,-11999,415,4695,532,-4891,-8856,-1916,-6333,958,1648,28,-1942,1217,1258,2309,3509,3655,5555,665,1947,4338,1308,2672,2941,-1454,-1977,-2054,-2785,392,8813,3202,-2521,-4267,-6053,-3364,1959,1990,-3581,7328,9420,-185,-2703,-287,551,6394,5238,4153,2014,-3733,5457,-319,1821,-84,-5510,-754,-4069,1632,2052,3195,-1234,5106,-4961,-11395,-2579,-3343,1139,-797,-1330,-4291,2779,1225,1625,2446,-3082,832,4013,4258,-1461,-3616,2115,3729,2025,-2292,-10301,2023,1050,-1184,-4165,-3249,-6011,4542,1210,-4688,-316,2269,659,-5705,-4057,-1440,7137,2478,3491,-2766,-2720,-3300,-2654,5031,1108,2265,915,-3392,85,1386,2201,-2325,1231,1737,404,105,-59,2876,-892,-1299,-1865,1174,-2136,1917,2254,157,-1997,-3348,-3939,82,1877,-1373,-7279,-6960,-13240,-14596,-8945,-3164,-660,2499,-843,-13434,-13062,-14133,669,6244,-1174,-5837,-9994,-3265,-5854,-911,4880,3024,4337,7091,5482,1677,5339,-245,1858,3056,5427,4995,4613,5420,235,-507,1308,1120,-311,1245,5633,4742,596,-7584,-7567,-1010,2136,400,508,-1610,-7369,-4728,-2265,-3967,-1092,508,2837,-4186,-5822,858,5170,3307,-1834,736,-3853,-3873,-2060,-2106,2044,467,1497,-2096,750,2351,-6705,39,-627,708,-6866,-3293,-815,-1495,2170,1412,983,3186,-8729,-7540,243,-1056,-394,935,-5677,-4144,2267,1324,-2358,-185,-1001,-6125,-2999,-117,-2963,106,2870,2754,-3699,-5610,-2270,-3007,1517,3848,1909,64,2218,2572,1003,1341,1592,2675,2259,4519,3074,-1166,-705,-3329,-4613,1072,411,-4668,-1451,-1560,-4373,416,-2759,-3641,-5307,1900,2312,-4512,-975,-4405,1033,-329,5579,1240,269,-1145,-5053,366,5663,10399,5509,3764,-1916,2434,-3323,-3902,2769,9511,883,-4952,-3058,294,-5435,-7227,1722,-2914,-301,915,-2279,-589,-2551,-2924,-2973,356,3053,1970,855,1172,-3145,-750,713,-695,-1546,478,257,422,-59,-1103,-991,-3157,-68,494,571,1875,3949,-508,-8025,-8844,-7181,-621,829,1191,2471,-5610,-13713,-11457,-7170,274,-1629,-2270,-2246,-669,-3234,-4920,3253,1706,6745,7887,-56,808,-1248,2974,3404,2231,4226,-727,-477,393,-1329,1691,621,-1532,-1482,-568,3750,2755,-1527,-6298,-5879,-1146,93,2726,4449,-381,-1466,-584,-2224,10,2012,2470,-321,1030,1281,-559,2174,385,-2271,3851,2320,2758,-1108,2107,-883,323,-641,-751,3019,-7928,3916,-3639,-2061,-2765,-3554,2170,-3272,-6376,-1813,-2367,-1556,1441,1792,1685,-327,-2925,-1601,-656,2935,3176,5083,3194,-166,1342,1687,-1897,-6326,-6319,-7108,1579,-1616,241,1426,-6556,-6036,-8788,2930,3733,818,-222,-3331,-5979,-5122,1569,-371,1403,4109,5078,-816,2379,1717,3206,645,1552,71,2872,4978,1011,3361,2837,-1059,-1445,-553,-1311,-1073,1429,553,-1426,-1130,-2794,-5171,-1354,12,19,-2929,-5595,-6819,-3854,3194,164,601,-3026,-5673,-993,-4138,-2262,193,1217,1805,1727,-1417,-117,-1515,-3101,3699,2008,3687,78,4008,-2466,-6833,-1179,1208,316,-1913,4168,3354,-6147,40,-367,-2248,732,1666,5726,-5181,-3701,-507,-2360,2496,1631,6092,-5257,-2809,-3089,5477,-4913,-3832,-4980,-2136,3367,3065,-3316,-4409,-5035,-2590,1338,4058,2465,-2866,-2889,-4880,-2184,2672,3492,1486,4953,1588,-5577,-304,1611,557,1946,3208,-1287,-1531,272,-271,879,-1002,-2238,-722,1876,2909,-172,2130,-5006,-3196,-3003,-3148,2,2174,-1795,602,4547,6708,3062,3879,6863,455,702,2519,1783,-3827,2857,4715,-1298,-499,-3858,-5118,-1035,4464,-2077,-3571,814,-1031,1084,2804,5002,-3962,2140,3173,1730,2504,4877,3011,-3207,-3986,-1508,526,-2592,-604,2677,-1255,-2630,-3355,-555,-1834,1643,1202,80,-826,-3169,468,-508,-313,685,-592,2917,652,-1278,-671,-1774,-3954,1633,-1406,401,3623,1910,3367,-1299,1606,1553,970,5837,873,7155,1244,810,-4311,219,-229,189,6128,2149,1945,-5403,-4339,-5898,1040,42,-25,2529,-3512,-307,1086,3483,-1016,7318,-8414,-2964,-1169,-1257,-3665,859,-578,-1684,368,5380,3930,2785,1857,3494,4056,2196,1632,-4313,-542,-4776,4323,-1074,941,1290,1652,-174,486,3579,5560,3897,2073,3067,-1814,-1876,-3663,4880,-1921,-343,-3199,167,-3065,-5381,2832,-1736,-2941,-2422,3103,3296,587,-2482,183,-737,-1084,2812,2741,2794,1688,-768,412,6064,7563,1286,284,-442,269,4991,11847,5923,-6659,-3411,-2837,-3206,-1722,-3558,-6683,-970,-5874,-1586,-2569,-2421,643,708,-282,-6822,-680,-687,-3204,-2526,6211,2873,-1589,-3515,-830,-1961,-2150,7467,5402,-200,-2255,2252,-505,-2945,-1058,-1262,-363,-1279,-336,-450,-2614,1032,394,613,2387,668,1670,2506,2166,862,3257,-1623,-1691,511,5267,1802,-651,1210,-2104,-2789,-705,3459,-5417,1041,-1091,-28,402,-4643,616,768,-2223,-3333,-1873,2293,4687,8198,3688,228,-1461,1013,-767,-1653,-5006,-2385,-3710,-1,3965,295,-4577,-7420,-3142,-4230,-540,-41,1782,-2141,201,1001,2874,2465,-1966,5276,185,5043,2798,7452,3593,1186,-1537,-1319,-1164,683,1859,-1564,-1201,-6188,-6259,-2940,-2054,-9758,-999,2685,-3297,-1042,1185,5556,-388,746,-3495,1378,1863,704,-1478,-541,942,-3634,753,1970,-1160,-7950,-4896,-8753,2901,1427,-1300,288,-4589,-3644,-987,1478,-6638,-651,5360,-294,-4476,580,-2425,2150,-800,-1058,-2324,1725,2113,-2145,395,-6925,-562,787,-49,1289,-140,2890,-6099,1729,1042,824,-498,-923,-760,1563,8483,5467,2530,-437,-9798,5006,6915,1677,454,-1826,-6894,2206,1173,1480,-3847,-810,-861,2554,3225,-2487,-38,-248,4248,-1309,-1131,-606,-826,438,-930,-1988,3172,1951,-3771,-2016,-1901,5,60,2155,1195,-3913,-898,-3141,-859,-727,-175,1771,-3278,-1380,-4689,-6326,-3224,74,1412,-707,-2659,-4115,-10093,-530,-1417,1561,1501,735,175,1907,2325,-218,5002,3659,3310,1380,4284,-1315,-2381,-284,-2965,-2242,3011,2212,-3134,1017,3286,-8447,-6429,703,-683,-534,-158,2212,-5101,-1588,-2741,-138,206,3679,3510,-4421,2040,-170,-6808,-8780,-7347,-1967,2072,2407,-3074,-17216,-23644,-16399,-10067,-425,927,-7529,-14461,-5465,-2461,-937,2741,-7067,-6890,-1139,2630,-1626,-67,4183,1198,1831,-485,1495,5822,2552,880,3295,2670,-2506,-2369,-4421,-915,2444,2129,-99,-1011,-702,-1655,2928,4411,369,85,-2833,-3296,1921,-388,1966,3014,2315,-2187,-1929,-89,-2557,1808,2934,-679,-5148,-7993,-6545,-5030,-4245,-2407,-7280,586,-659,-6396,242,484,-6,2402,5127,5101,-6761,-2349,4012,2991,-1262,-4150,-17874,-3213,4308,3954,3348,-2504,-14130,-12257,2824,4306,-5494,-1814,699,2502,1304,407,1728,2731,-1094,1632,6904,381,-218,572,-1614,1003,2832,3843,-866,868,94,-3692,-771,-2469,380,-6199,367,2498,-3481,-7581,-6066,-384,-6340,619,1450,-3573,2367,-525,5027,6150,350,-2336,1443,-427,2541,5546,4737,3082,4775,160,-971,-2738,-5573,949,-4246,-2544,545,-1580,-4361,-8416,-4061,1772,3033,-355,-7305,-3863,-1859,1066,2454,3890,-4699,1540,2763,1571,-1643,1205,401,-1554,15,1548,1654,-901,-5,-2371,498,3475,-281,1151,845,-3657,-4167,-208,-1484,960,1133,2934,5047,6266,-644,-5665,-2102,-453,4977,4217,2791,4113,-2542,-2350,1670,5187,12096,10487,-2173,-2540,-738,2820,1778,3935,6091,-2187,-1001,-151,1503,-2569,1879,-2092,-2928,1906,-360,1597,5768,-1215,-3590,-1274,489,645,3549,3050,-2655,-5945,-831,1135,-451,1748,7016,3363,1443,2850,-1916,-1943,629,399,-1750,3362,3349,-62,193,-2043,-2406,-4704,-5297,1222,1907,4383,-2597,-3065,-2202,-5752,1326,2391,6066,-5114,-118,2031,-3030,2706,-156,5616,-367,-1264,404,1873,138,-94,-910,809,-1354,357,620,-923,-472,698,-142,-4441,-3706,-2711,4002
						},
