#ifndef MODEL_H
#define MODEL_H
#include "Matrice.h"
float weight1[16][25]={
						{-0.061799,0.192482,0.12675,-0.108176,-0.200671,
						0.197088,0.2798,0.077289,-0.067865,-0.32183,
						0.118913,0.287765,0.285077,-0.102413,-0.016085,
						0.174271,0.07078,0.241025,0.179056,0.171914,
						-0.161693,0.05233,0.279065,0.220531,-0.151768
						},
						{0.072861,0.115356,0.094608,0.012212,0.111326,
						-0.036943,-0.056982,0.192835,-0.223661,-0.337284,
						0.189166,0.282538,-0.069428,-0.274593,-0.1255,
						-0.289003,0.216321,-0.03913,0.247155,0.010396,
						-0.234935,-0.074553,0.178367,0.268735,0.022298
						},
						{-0.067965,-0.240105,-0.022012,0.161584,-0.007136,
						-0.12533,0.031065,0.303728,-0.122974,0.14844,
						0.266048,0.358542,0.117235,-0.197177,-0.032258,
						-0.205766,0.052837,0.032511,-0.170602,0.217877,
						-0.309978,-0.04966,0.230382,-0.090762,0.091117
						},
						{0.182696,0.180696,-0.014033,-0.077348,0.201935,
						0.005058,0.167865,-0.185237,0.028416,0.083243,
						0.066258,0.003012,-0.269476,-0.095217,-0.332403,
						0.253118,0.266049,-0.002707,-0.048823,-0.182914,
						0.018057,0.253264,0.249072,0.154357,0.179343
						},
						{-0.091043,-0.210802,-0.098478,0.209695,0.073648,
						-0.248454,-0.026828,0.168295,0.121699,0.215471,
						-0.139179,0.265286,0.352859,0.173489,-0.160794,
						0.306214,0.34362,0.105102,-0.035339,-0.179807,
						0.181496,0.267946,-0.050795,-0.174887,-0.213496
						},
						{0.177551,0.181445,0.30214,-0.075127,0.292364,
						0.250496,0.153864,-0.052017,0.126568,0.046634,
						0.399107,0.109234,-0.269976,-0.418851,-0.227573,
						0.208268,-0.094425,-0.344511,-0.255817,-0.343211,
						0.225329,0.009554,-0.39162,0.045627,0.010931
						},
						{0.153698,-0.120068,-0.09455,-0.343603,-0.257006,
						-0.08718,-0.074438,0.035116,-0.054932,-0.208995,
						-0.126717,-0.095889,0.037892,0.237399,0.173387,
						0.157966,0.205317,0.176498,0.091762,0.256939,
						0.001605,0.247062,0.141024,0.257401,0.233086
						},
						{0.128597,0.259977,0.183264,0.243163,-0.068697,
						-0.117676,0.207623,0.096465,0.132837,-0.296942,
						0.006581,0.381148,0.160986,0.063162,-0.440031,
						0.063871,0.144466,-0.117302,-0.259123,-0.287687,
						0.122322,0.106541,0.170623,-0.229941,0.009448
						},
						{0.037712,0.20721,-0.015695,-0.329555,-0.023966,
						0.380925,-0.073586,-0.355287,-0.323785,-0.023203,
						0.337112,0.060568,-0.4079,-0.409335,-0.21156,
						0.487975,0.267298,-0.083356,-0.150525,-0.255956,
						0.221473,0.451447,0.368015,0.330274,0.313479
						},
						{-0.316632,-0.078667,-0.327885,-0.036593,0.145135,
						-0.325326,-0.282394,0.145968,0.195934,0.028636,
						-0.180582,0.152183,0.127142,0.195379,-0.045534,
						-0.019005,0.270255,0.11612,-0.107908,-0.188671,
						0.288476,0.31324,0.206832,0.218173,0.084275
						},
						{0.172588,-0.003072,-0.126504,0.208224,0.218055,
						0.260649,0.017903,0.263893,0.371804,0.148147,
						-0.093035,0.230032,0.288497,0.144078,0.393907,
						0.068927,0.116469,-0.263358,-0.165183,-0.21913,
						-0.278291,-0.469003,-0.608391,-0.538878,-0.279766
						},
						{-0.028163,-0.114625,0.071831,0.13067,-0.042729,
						0.138229,-0.13127,0.051048,0.150471,0.019583,
						0.050762,0.231206,0.156052,0.065609,0.010274,
						0.200165,0.119832,0.144247,0.11318,0.080937,
						-0.195713,-0.10166,0.181256,-0.07699,0.015878
						},
						{-0.211588,-0.471869,-0.360092,0.020181,0.204132,
						-0.483938,-0.26653,-0.23889,0.172937,0.075318,
						-0.486193,-0.160433,-0.081865,0.228801,0.349951,
						-0.325401,0.038863,-0.058216,0.251708,0.023795,
						-0.060478,0.009503,0.034231,0.25542,0.28408
						},
						{-0.155052,-0.100197,-0.083704,0.047717,-0.14639,
						-0.110706,0.210311,0.235608,0.241281,0.129446,
						0.110632,0.14446,0.030492,0.145625,-0.10399,
						0.051378,-0.048369,0.255301,0.134265,0.169738,
						-0.057174,0.142316,0.260966,0.272545,-0.126458
						},
						{-0.395155,-0.330297,-0.28472,-0.245906,-0.22758,
						-0.033451,-0.300744,0.074426,0.020983,0.273548,
						0.201274,0.389322,0.234092,0.317718,0.108437,
						0.274383,0.425381,-0.043982,-0.146236,0.010261,
						0.112735,-0.019749,-0.218359,0.08339,-0.055683
						},
						{0.144443,-0.178312,-0.251396,-0.223323,-0.241955,
						0.324815,0.039947,-0.324973,-0.495869,-0.16897,
						0.249737,0.309814,0.207123,-0.181152,-0.285413,
						0.171164,0.32406,0.438009,0.147611,0.148151,
						-0.178817,0.197662,0.113976,0.273263,0.248901
						},};

float weight2[32][16][25]={
						 {{-0.041709,0.027604,0.075313,0.052305,-0.096837,
						 -0.082001,-0.095157,-0.063364,-0.023629,0.025829,
						 0.017129,-0.00384,-0.04022,0.009836,-0.034427,
						 0.028453,-0.003407,-0.020906,0.048545,0.053832,
						 -0.087068,-0.023508,0.031154,0.040937,0.03574
						 },
						 {-0.066839,0.074325,0.172711,0.030117,-0.008371,
						 -0.048425,-0.013014,0.030343,-0.051097,-0.008002,
						 0.010714,-0.073078,-0.033195,-0.013586,-0.056447,
						 0.00071,0.076579,0.077815,-0.001163,0.02977,
						 0.006017,-0.036828,0.095132,0.061315,0.027268
						 },
						 {0.01051,0.083104,0.094376,-0.075324,-0.140139,
						 -0.066098,-0.038808,-0.032359,-0.042297,-0.018364,
						 -0.06925,-0.038914,-0.033437,-0.022852,-0.039049,
						 0.098471,0.155873,0.09263,-0.003766,-0.018892,
						 0.025073,0.050964,-0.013859,0.087898,0.033692
						 },
						 {-0.019112,0.048634,0.063849,0.015729,-0.094933,
						 0.002105,-0.06796,-0.011188,-0.028188,-0.017597,
						 0.03975,-0.024257,-0.061504,-0.008599,0.065361,
						 -0.03308,-0.026263,0.004788,0.085316,0.044512,
						 -0.063466,-0.064104,-0.005436,0.086835,0.082554
						 },
						 {-0.046234,0.01087,0.00576,-0.044596,-0.132192,
						 -0.064586,-0.101286,-0.113184,-0.07878,-0.004929,
						 -0.03982,0.005722,-0.031639,-0.021755,0.062152,
						 0.053803,0.021371,0.037612,0.012173,-0.023656,
						 -0.032064,-0.062038,0.013415,0.017881,-0.003002
						 },
						 {0.030115,0.104017,0.059818,0.094501,-0.037509,
						 0.045772,0.016795,0.004856,-0.059987,-0.088813,
						 -0.081653,-0.109689,-0.067177,0.034287,0.01502,
						 -0.000279,0.000182,0.027501,0.018485,0.060684,
						 0.018595,-0.079527,-0.125084,-0.079084,-0.049939
						 },
						 {-0.114088,-0.095014,-0.12393,-0.024899,-0.00689,
						 -0.10353,-0.029012,0.020913,-0.035269,0.026602,
						 0.046572,0.063258,0.038015,-0.027183,-0.059535,
						 -0.010615,-0.002426,-0.017911,0.000979,-0.049882,
						 -0.059687,0.024565,0.033579,-0.013682,-0.00317
						 },
						 {0.025793,0.088718,0.174413,0.108075,-0.011168,
						 0.003565,0.041349,0.049091,-0.096791,-0.082914,
						 -0.083105,-0.12919,-0.083494,-0.062265,-0.024525,
						 0.006381,-0.088654,0.005856,-0.001028,0.049357,
						 -0.054601,-0.102375,-0.072206,-0.020053,0.032881
						 },
						 {-0.06458,-0.039336,-0.064144,0.050358,0.063064,
						 -0.021296,-0.034906,-0.054473,0.025263,-0.011879,
						 0.074883,-0.022427,-0.046259,-0.082059,0.002771,
						 -0.005964,0.062009,0.058405,0.06542,-0.031506,
						 -0.091443,-0.104112,0.000769,-0.015456,0.074324
						 },
						 {-0.038188,-0.055135,-0.009377,-0.064959,-0.042543,
						 -0.005627,-0.116288,-0.077659,0.016758,-0.00221,
						 -0.016516,0.011341,0.038252,0.021513,-0.016501,
						 0.00434,-0.03469,0.042092,0.064111,0.04334,
						 -0.028584,-0.040404,-0.019611,-0.043099,-0.03203
						 },
						 {0.150056,0.150279,0.151821,0.027249,-0.03965,
						 -0.087027,0.025032,-0.00693,-0.023102,-0.138723,
						 -0.084516,-0.080675,-0.11064,-0.076765,-0.070816,
						 0.207183,0.024235,-0.058157,-0.065289,-0.058358,
						 0.098698,0.058137,0.027332,-0.018831,-0.001264
						 },
						 {0.019565,0.007773,0.048987,-0.066701,-0.122681,
						 -0.092867,-0.102892,-0.076787,-0.063104,-0.083534,
						 -0.055797,-0.009674,-0.058737,0.005694,-0.00034,
						 -0.003796,0.051819,0.036977,-0.023283,-0.055523,
						 -0.09776,0.003059,0.053417,0.059728,0.041585
						 },
						 {0.114181,0.02435,-0.051785,-0.036619,-0.078901,
						 -0.015844,-0.070534,-0.065227,0.055223,-0.047346,
						 -0.086463,0.028759,0.006245,0.010981,-0.033096,
						 -0.019626,-0.024907,-0.025905,0.008097,-0.021537,
						 -0.08076,-0.007325,-0.004818,-0.029121,-0.066459
						 },
						 {-0.042815,0.057919,0.036376,-0.094186,-0.171852,
						 -0.068816,-0.126721,-0.080532,-0.006282,-0.037717,
						 -0.020099,-0.029808,0.038661,-0.007321,-0.053524,
						 -0.037048,-0.044875,-0.001723,0.009892,-0.038207,
						 -0.008378,-0.041496,-0.020417,0.01357,-0.022872
						 },
						 {0.011078,0.025824,-0.019193,-0.027228,-0.108089,
						 -0.051544,-0.060935,-0.053486,0.051882,0.035167,
						 -0.039458,-0.007342,-0.030826,0.039858,0.049423,
						 0.101226,0.014853,0.011343,-0.042244,-0.080603,
						 -0.00195,0.010484,-0.026215,-0.024716,0.007449
						 },
						 {-0.011927,-0.047406,0.002176,0.008133,0.105306,
						 -0.069178,-0.088627,0.000513,-0.002517,0.018221,
						 -0.004195,-0.037633,-0.04588,-0.003278,-0.029176,
						 0.095518,0.081616,0.059504,-0.01484,-0.021054,
						 -0.113102,-0.032737,0.049259,0.0127,0.023212
						 }},
						 {{-0.043993,-0.039414,0.005991,-0.013935,-0.112783,
						 -0.003972,0.090377,0.048715,-0.080711,-0.027173,
						 0.014058,0.124432,0.050727,-0.050846,0.032049,
						 -0.045473,0.030567,0.000429,0.029703,-0.031104,
						 -0.037247,0.0422,0.046116,-0.005095,-0.091739
						 },
						 {-0.045578,0.032349,-0.034905,0.007678,-0.043943,
						 -0.001772,0.092388,-0.033287,-0.04024,-0.052461,
						 -0.036808,0.099241,0.033743,0.02191,0.056549,
						 -0.0643,0.038036,0.059261,-0.019812,0.017008,
						 -0.048779,0.020886,0.03936,0.050503,0.072111
						 },
						 {0.047492,-0.004605,-0.07166,-0.053774,-0.052676,
						 0.075543,0.101091,-0.001926,-0.001394,0.03673,
						 0.051255,0.093341,0.072489,0.019333,-0.001847,
						 0.005384,0.004537,-0.00702,0.058401,-0.028895,
						 0.027711,0.02795,-0.041468,0.01256,-0.017099
						 },
						 {-0.044933,0.038301,0.018028,-0.092387,-0.102363,
						 -0.013742,0.05075,0.1124,-0.080137,-0.078843,
						 -0.036208,0.092571,0.132777,-0.025498,0.003466,
						 -0.074338,-0.004717,0.049852,-0.073778,-0.091943,
						 -0.137917,-0.057991,0.06012,0.021594,-0.00762
						 },
						 {-0.009215,0.023882,0.062228,-0.084122,-0.029838,
						 -0.003933,0.025305,0.01754,-0.00608,-0.004391,
						 -0.076485,-0.039145,0.023018,0.001185,0.007397,
						 -0.044488,0.00074,-0.046651,0.002027,0.094421,
						 -0.050787,0.047243,-0.053177,-0.03769,-0.07398
						 },
						 {-0.148445,0.063691,0.147975,0.005323,0.102904,
						 -0.154485,0.071496,0.131308,-0.040336,0.156957,
						 -0.213128,-0.070956,0.024645,-0.005318,0.135309,
						 -0.192343,-0.078817,-0.01475,-0.007142,0.107463,
						 -0.198993,-0.006701,0.030904,0.035586,0.076007
						 },
						 {0.050962,0.021178,-0.007617,0.027649,0.02517,
						 0.007476,0.001304,-0.028644,-0.055739,0.034028,
						 -0.052336,0.051557,-0.024441,-0.022123,0.063571,
						 -0.067083,-0.007563,0.02221,-0.007531,-0.002956,
						 0.010238,-0.001753,-0.090422,-0.048069,-0.120163
						 },
						 {-0.008227,0.0631,-0.023908,-0.079764,0.019052,
						 0.000904,0.14274,-0.009075,-0.02451,0.0058,
						 -0.112251,0.00569,0.019163,0.038036,0.036477,
						 -0.141463,-0.006223,0.066468,0.059368,0.08621,
						 -0.067796,0.030197,0.027166,-0.018667,0.11074
						 },
						 {-0.1263,0.032421,0.076453,0.031543,0.043703,
						 -0.116513,0.120789,0.120568,-0.053648,0.096642,
						 -0.323562,0.065013,0.223895,0.078262,0.112483,
						 -0.305643,-0.059892,0.023787,-0.059125,-0.041661,
						 -0.307527,-0.143319,-0.011958,-0.042383,-0.009577
						 },
						 {0.025735,0.064945,-0.024361,0.028751,0.00136,
						 -0.008664,0.079038,-0.044831,-0.022508,-0.006795,
						 -0.026945,-0.071555,-0.025954,0.064199,0.033787,
						 -0.058602,-0.098875,-0.066851,0.007187,-0.043765,
						 0.023187,0.037757,-0.096723,-0.053717,-0.036484
						 },
						 {-0.212524,-0.009541,0.020901,-0.135869,-0.082427,
						 -0.191722,-0.208404,-0.078351,-0.109474,-0.096304,
						 -0.112095,-0.14931,-0.085438,-0.046979,0.021444,
						 -0.093598,-0.054431,0.083596,0.011435,0.053048,
						 -0.106949,-0.031886,0.026746,0.037905,-0.001092
						 },
						 {-0.018094,0.013676,-0.009015,-0.026959,-0.038182,
						 0.022377,-0.008871,-0.015011,-0.000192,-0.038573,
						 0.044692,0.057965,0.041077,-0.037013,-0.042045,
						 -0.01968,-0.020359,-0.010862,0.011989,-0.004283,
						 -0.020668,-0.020669,-0.021867,-0.073688,-0.098111
						 },
						 {0.059774,0.107284,0.031822,0.072735,-0.007349,
						 0.135589,0.033149,0.000172,0.020196,0.066458,
						 0.109317,-0.081492,-0.183847,0.057511,0.055395,
						 0.086751,-0.106942,-0.245669,-0.012566,-0.025509,
						 0.043796,-0.025951,-0.098488,-0.068357,-0.124432
						 },
						 {0.021586,-0.00664,-0.07606,-0.01477,-0.024318,
						 0.048841,0.087571,-0.060543,-0.005506,-0.035485,
						 0.056766,0.05202,0.003691,-0.021784,0.00044,
						 -0.038544,0.02471,0.008152,0.035632,0.002611,
						 0.020143,0.00181,-0.016868,0.013176,-0.10819
						 },
						 {-0.143231,-0.00332,0.121546,-0.017611,0.119498,
						 -0.060577,0.038467,0.08207,0.000412,0.119397,
						 -0.070152,-0.142063,0.060882,-0.046209,-0.008754,
						 -0.084457,-0.183276,-0.019553,0.01009,0.081115,
						 -0.066359,-0.042712,-0.016595,0.008275,-0.02564
						 },
						 {-0.059874,-0.008684,0.07911,-0.004867,0.052197,
						 -0.100026,0.145655,0.140548,-0.052812,0.050989,
						 -0.105887,0.151511,0.189129,-0.042508,-0.000806,
						 -0.210476,-0.02413,0.136898,-0.029027,-0.052718,
						 -0.228326,-0.11409,-0.056184,-0.088193,-0.049635
						 }},
						 {{-0.035441,-0.079878,0.012354,-0.111825,-0.092139,
						 0.040793,0.117323,0.118123,0.087949,0.094224,
						 0.047471,0.044971,0.033735,0.010096,0.050161,
						 -0.072964,-0.119722,-0.135253,-0.055291,0.006457,
						 -0.069642,-0.078886,-0.050792,-0.059439,0.030812
						 },
						 {-0.033616,-0.0305,-0.01505,0.010418,-0.043837,
						 0.054688,0.149666,0.120772,-0.002266,-0.058252,
						 0.052942,0.028311,-0.029481,-0.027486,0.043482,
						 -0.006833,-0.041532,0.082007,0.074263,-0.071605,
						 -0.102789,-0.048439,-0.016533,-0.113195,-0.040091
						 },
						 {-0.030488,0.041611,-0.025703,-0.104273,-0.137667,
						 0.032245,0.068246,0.061884,0.01696,0.010108,
						 0.036376,0.08661,0.112728,0.133236,0.045851,
						 -0.124514,-0.064265,-0.042239,-0.048165,-0.024395,
						 -0.115858,-0.0548,-0.064731,-0.001679,-0.000196
						 },
						 {0.002235,0.066794,0.106373,0.025436,-0.01164,
						 0.000977,0.099351,0.112943,-0.013044,-0.044155,
						 -0.039133,0.015947,-0.066529,-0.098784,0.003458,
						 0.03802,0.049971,-0.066524,-0.048027,-0.057153,
						 0.015206,-0.059073,-0.077733,-0.09039,0.002327
						 },
						 {-0.018588,-0.0048,-0.023667,-0.119413,-0.117472,
						 -0.03766,-0.04441,-0.043944,0.06093,0.006861,
						 -0.049889,0.039909,0.022261,-0.031559,-0.079797,
						 -0.140196,-0.047394,-0.079417,-0.082641,0.114202,
						 0.028494,0.02762,-0.060048,0.160586,0.165089
						 },
						 {-0.013071,0.024543,0.079869,0.058983,-0.011868,
						 -0.005426,0.008884,-0.051781,-0.161042,-0.165006,
						 -0.017315,-0.043539,0.006238,-0.017675,-0.097255,
						 -0.003598,0.074449,0.112533,-0.142187,-0.065547,
						 -0.042132,-0.04636,-0.239477,-0.117988,0.038046
						 },
						 {-0.081363,-0.106499,-0.030776,-0.053484,-0.024765,
						 0.003919,0.096251,0.114318,0.077216,0.115609,
						 -0.005999,0.053487,0.055311,-0.042513,-0.044792,
						 -0.046971,-0.137106,-0.054918,0.036463,-0.01841,
						 -0.020424,-0.0338,0.152403,0.045892,0.003464
						 },
						 {-0.00235,-0.000201,0.012862,-0.066962,-0.058444,
						 0.00205,-0.06864,-0.14393,-0.199955,-0.171039,
						 -0.060478,-0.018522,-0.051639,-0.10283,-0.036347,
						 -0.02991,0.014209,0.018949,-0.080368,0.067742,
						 -0.050406,-0.066977,-0.121427,-0.025443,0.14453
						 },
						 {-0.026378,0.071709,0.080029,0.129891,0.123429,
						 0.148402,0.197305,0.100503,0.040048,0.051392,
						 0.056775,-0.079716,-0.189208,-0.249115,-0.148982,
						 -0.051355,-0.116959,-0.255487,-0.344673,-0.192233,
						 -0.012193,0.044397,-0.116436,-0.272573,-0.086058
						 },
						 {0.067526,0.014801,0.029491,-0.028561,-0.041744,
						 0.063666,0.004493,0.044504,0.098723,0.014864,
						 -0.019529,-0.066189,-0.036788,-0.035013,-0.090559,
						 -0.00908,-0.045592,-0.124001,-0.013174,0.1066,
						 0.013356,-0.007736,0.061696,0.150541,0.135976
						 },
						 {-0.114628,-0.108885,-0.116757,-0.036184,-0.18302,
						 -0.015634,-0.03282,0.009695,0.029178,-0.196703,
						 0.141066,0.159606,0.171529,0.160623,-0.125873,
						 -0.008001,0.104331,0.036617,-0.085849,-0.092604,
						 -0.128998,-0.139869,-0.328147,-0.16352,-0.060311
						 },
						 {-0.037164,-0.051215,-0.087634,-0.107434,-0.074189,
						 0.006293,-0.007347,0.047062,0.034147,0.095617,
						 0.081173,0.047075,0.098916,0.079853,0.079057,
						 -0.068443,-0.071235,-0.073462,-0.039268,-0.006568,
						 0.050394,-0.023116,0.015915,0.077799,0.081542
						 },
						 {0.098332,0.042087,0.002664,0.03787,-0.030034,
						 0.088624,0.033714,0.088283,0.00856,-0.040867,
						 0.083537,0.034684,-0.136598,-0.152826,-0.114665,
						 0.029798,-0.126133,-0.135212,0.021728,0.093419,
						 0.01898,-0.000391,0.096054,0.15838,0.100139
						 },
						 {-0.018178,0.00574,0.004478,-0.002559,-0.075772,
						 -0.032004,-0.014477,0.075657,0.089794,0.094759,
						 0.003059,0.060325,0.051272,0.028574,0.056269,
						 -0.084157,-0.071273,-0.108662,0.004214,0.024565,
						 0.013615,-0.057944,-0.011091,0.102574,0.099527
						 },
						 {-0.026875,-0.002677,-0.066758,-0.199933,-0.14577,
						 -0.075488,0.029316,0.039462,0.130551,0.141663,
						 -0.010074,0.134998,0.210905,0.188121,0.049523,
						 -0.089914,-0.010666,0.016997,-0.091205,-0.105,
						 0.118713,0.059724,0.057107,0.109834,-0.000737
						 },
						 {-0.172385,-0.096177,-0.076194,-0.034828,-0.018209,
						 0.020127,0.091036,0.162583,0.07685,0.089948,
						 0.152707,0.069082,0.047581,-0.008368,-0.030364,
						 -0.094779,-0.168649,-0.292853,-0.237623,-0.20617,
						 0.092993,0.038008,-0.03509,-0.240213,-0.120242
						 }},
						 {{-0.031424,0.006106,-0.090778,-0.03578,-0.001563,
						 -0.031773,0.021325,-0.021513,0.076284,0.046458,
						 0.014265,-0.030218,0.000918,0.005079,0.011664,
						 -0.018376,-0.004395,-0.066414,-0.016036,0.015579,
						 0.070429,0.053496,-0.048122,-0.113803,0.00597
						 },
						 {-0.080009,0.011969,-0.110399,-0.022822,-0.013032,
						 -0.069465,-0.090773,-0.083345,-0.076042,-0.058603,
						 0.008302,-0.06136,0.015144,-0.010001,-0.05353,
						 -0.007165,-0.034519,0.024905,0.025485,0.065649,
						 0.030823,0.025461,-0.005974,-0.025927,-0.064841
						 },
						 {-0.006633,-0.077439,-0.055842,-0.048393,-0.065186,
						 0.02943,-0.064135,-0.025064,-0.023376,0.003463,
						 0.068802,0.048956,0.038272,0.040423,0.07408,
						 0.037062,0.031236,-0.024479,-0.00767,-0.072018,
						 -0.007992,0.022933,-0.142878,-0.049555,-0.085158
						 },
						 {-0.070078,0.011366,-0.030342,-0.068346,0.006401,
						 0.059842,0.048159,-0.034334,-0.006254,-0.003264,
						 0.050224,-0.028758,0.024485,-0.05319,-0.000285,
						 0.074803,0.083714,0.039259,-0.023013,-0.039228,
						 0.054308,0.058928,-0.027831,-0.109802,-0.034104
						 },
						 {0.022044,-0.073447,-0.068879,-0.041196,-0.069432,
						 0.021409,0.004956,0.030417,0.059209,0.08444,
						 0.042717,0.067385,0.04174,0.07356,0.046213,
						 -0.007197,-0.029562,-0.007881,-0.02089,-0.0654,
						 0.008227,0.007531,-0.069518,-0.1064,-0.036097
						 },
						 {-0.017346,-0.053503,-0.088238,-0.106115,-0.10287,
						 -0.074166,-0.118417,-0.12387,-0.127004,-0.044588,
						 0.012335,0.006105,-0.024377,0.010682,0.023954,
						 0.011738,0.058953,0.058454,-0.003974,0.060731,
						 -0.104382,0.013444,0.050647,-0.053966,-0.108498
						 },
						 {-0.010917,-0.05196,0.020814,0.040269,0.017093,
						 0.057821,0.026994,0.069493,0.103686,0.03693,
						 0.055526,-0.004305,0.019811,0.030199,-0.005869,
						 -0.051921,-0.107921,-0.150926,-0.130668,-0.064764,
						 -0.014822,-0.013203,-0.093535,-0.062575,0.011875
						 },
						 {-0.084882,-0.088751,-0.133186,-0.109845,0.025123,
						 -0.104988,-0.025219,-0.056989,-0.10409,0.04561,
						 -0.072674,-0.006574,-0.032582,-0.011172,0.114373,
						 0.030988,0.053023,-0.036067,0.082181,0.132026,
						 0.023747,0.018187,-0.015549,-0.026367,-0.1076
						 },
						 {0.025987,0.096526,0.040872,0.021385,0.006135,
						 -0.010723,-0.026057,0.002681,0.011828,-0.00407,
						 -0.024103,-0.098673,-0.056381,0.039373,0.026273,
						 -0.030633,0.044912,0.045848,-0.06312,-0.027087,
						 -0.002928,0.05958,0.031068,-0.052124,0.011321
						 },
						 {0.04062,0.050254,-0.061437,0.033989,0.020065,
						 -0.005072,0.00961,-0.006915,0.06949,0.036991,
						 0.055529,0.018285,0.021076,-0.008071,0.022391,
						 -0.000129,-0.010434,-0.052292,-0.03631,-0.086043,
						 -0.035026,-0.031217,-0.110278,-0.112507,-0.034118
						 },
						 {-0.043559,-0.067713,-0.145315,-0.138843,-0.109387,
						 -0.109051,-0.114019,-0.12065,-0.05508,-0.059576,
						 -0.062675,-0.035211,0.062257,0.098756,0.124897,
						 -0.017945,0.012019,0.095,0.113489,0.005112,
						 -0.110983,-0.13516,-0.055479,0.016176,-0.116358
						 },
						 {-0.075484,-0.069187,-0.073715,-0.009231,-0.056255,
						 0.009404,0.020721,0.035534,0.067258,0.059562,
						 0.024346,0.040512,0.05185,0.025883,0.049104,
						 0.060873,0.033704,-0.060114,-0.038547,-0.038267,
						 0.027792,0.020108,-0.041932,-0.115716,-0.078541
						 },
						 {0.010478,-0.088615,-0.001064,0.017897,-0.048352,
						 0.04536,-0.028645,-0.035105,0.004557,-0.011119,
						 -0.019315,-0.034803,0.007831,0.020521,-0.123879,
						 -0.015866,-0.085412,0.021601,-0.038705,-0.047441,
						 -0.030343,-0.112029,-0.070279,-0.006491,0.091901
						 },
						 {-0.06083,0.00665,-0.041857,-0.016094,0.031345,
						 0.019117,-0.027348,0.062397,0.024812,0.097625,
						 0.085692,0.054443,0.013043,0.096029,0.047368,
						 0.060423,0.024964,-0.053053,-0.035233,-0.08664,
						 0.05783,-0.021049,-0.035623,-0.045311,-0.046659
						 },
						 {0.068624,-0.020617,-0.039275,-0.059674,-0.064478,
						 0.054956,-0.02793,0.0024,-0.027137,-0.022478,
						 0.088805,0.08217,0.035428,0.096573,0.076188,
						 -0.074064,0.009743,-0.072546,-0.055509,-0.058861,
						 -0.09398,-0.020655,-0.014286,-0.054756,0.049896
						 },
						 {-0.044191,0.103623,0.089915,-0.032711,-0.001114,
						 0.018903,0.021335,-0.02539,-0.010767,-0.019313,
						 0.015384,-0.142326,-0.02345,0.010759,-0.07775,
						 -0.084494,-0.055641,-0.027323,-0.049179,-0.100936,
						 0.027774,0.166912,0.059539,-0.090125,-0.018401
						 }},
						 {{-0.098368,-0.057543,-0.13062,-0.156785,-0.062964,
						 0.002885,-0.02127,-0.007783,0.024617,0.090489,
						 0.089013,0.036274,-0.017798,0.027487,0.034542,
						 0.00264,-0.049809,-0.035696,0.068693,-0.010829,
						 -0.017951,-0.040223,-0.074162,0.007593,0.01582
						 },
						 {-0.127469,-0.112766,-0.102213,-0.073624,0.038056,
						 0.044595,-0.059631,0.020246,0.03257,0.010948,
						 -0.050035,-0.105279,-0.030463,0.080872,-0.057381,
						 -0.034842,-0.064842,0.024476,-0.004407,0.047213,
						 0.008148,-0.029126,-0.063972,-0.001507,0.01409
						 },
						 {-0.112611,-0.136097,-0.08954,-0.155615,-0.082292,
						 0.094369,-0.086149,-0.069476,-0.026942,-0.058334,
						 0.072742,0.019847,0.04463,0.075833,0.055789,
						 0.035499,-0.078052,0.000355,0.013044,0.042069,
						 -0.000702,-0.106597,-0.105122,-0.061646,-0.097876
						 },
						 {-0.007888,-0.047545,0.034756,0.025093,-0.039753,
						 -0.010186,0.020739,0.032633,0.028047,0.038662,
						 0.05448,0.025963,-0.007939,-0.028008,-0.01394,
						 0.093871,0.089517,-0.013738,-0.005581,-0.01562,
						 0.071768,-0.008588,-0.070794,-0.002473,-0.019364
						 },
						 {-0.047328,-0.080106,-0.108461,-0.106422,-0.089761,
						 0.050661,-0.008927,-0.086595,-0.060976,-0.044882,
						 0.020263,0.001897,-0.001611,0.058515,0.136656,
						 0.092883,-0.023939,0.013524,0.09381,0.078178,
						 0.000218,-0.195386,-0.11146,-0.065241,-0.134207
						 },
						 {-0.083783,-0.035522,0.011597,-0.023343,-0.005504,
						 -0.014337,0.038841,-0.070004,-0.070801,-0.0161,
						 0.062785,-0.046636,-0.1247,-0.000853,0.074911,
						 0.112269,0.077126,0.036552,0.023101,0.123611,
						 0.024912,0.013592,-0.039502,0.007669,0.008412
						 },
						 {-0.006639,-0.078573,-0.175766,-0.156947,-0.094126,
						 0.076197,0.061078,-0.007789,0.084485,0.167123,
						 0.041086,-0.002497,0.083199,0.129026,0.084135,
						 -0.064554,-0.142609,-0.105499,-0.01742,-0.137227,
						 -0.163669,-0.177782,-0.153717,-0.067036,-0.037176
						 },
						 {-0.142611,-0.058208,-0.092756,-0.053688,-0.063785,
						 -0.015574,-0.054114,-0.076557,-0.10769,-0.025927,
						 0.072545,0.020516,-0.040478,-0.066523,-0.012173,
						 0.113574,-0.000903,-0.00194,0.083912,0.126211,
						 0.091624,-0.037344,-0.008479,0.053599,-0.029508
						 },
						 {0.096927,-0.007314,0.003995,-0.024676,-0.015531,
						 0.02936,0.122266,0.059368,0.115557,0.103733,
						 0.03472,0.012564,0.000496,0.062854,-0.02676,
						 -0.012255,0.062969,-0.169449,-0.085795,-0.109218,
						 0.024748,0.079178,-0.073057,0.007174,-0.036157
						 },
						 {0.079014,-0.017888,-0.049685,-0.029554,-0.126619,
						 0.069753,-0.015548,-0.01847,0.017491,0.098657,
						 0.01905,-0.039532,-0.057404,0.058443,0.09793,
						 0.063082,-0.095341,-0.110121,0.033872,0.004949,
						 -0.075193,-0.15446,-0.099365,-0.096648,-0.059948
						 },
						 {-0.234686,-0.133427,-0.022289,0.087202,0.164086,
						 -0.213766,-0.174584,-0.169278,-0.084478,0.038623,
						 -0.019446,0.004195,-0.086902,0.017508,0.100659,
						 0.049404,0.104169,0.107182,0.168134,0.09994,
						 0.05514,0.038322,0.049286,0.029506,-0.069301
						 },
						 {-0.05726,-0.01279,-0.119229,-0.111656,-0.086119,
						 0.065643,0.008252,-0.039641,0.018833,-0.032087,
						 0.075636,0.02804,0.060763,0.030513,0.117892,
						 0.085107,-0.005568,-0.024032,0.069308,0.060576,
						 0.016868,-0.073636,-0.087464,-0.043861,-0.094179
						 },
						 {0.10341,-0.056618,-0.115572,0.022725,-0.102216,
						 0.079411,-0.00133,0.017757,0.008494,0.011858,
						 0.042238,-0.049485,0.055611,0.061441,0.046839,
						 -0.010433,-0.065238,0.118125,0.022079,-0.092203,
						 -0.062491,-0.072134,0.060824,-0.04933,-0.008633
						 },
						 {0.013287,-0.072609,-0.132424,-0.125547,-0.11321,
						 0.087276,-0.02933,-0.020469,-0.034756,0.076845,
						 0.118387,-0.034037,0.015064,0.078947,0.037751,
						 0.082366,-0.000231,-0.014401,0.079631,0.004967,
						 -0.01539,-0.132792,-0.106786,-0.062036,-0.032025
						 },
						 {0.038698,0.034556,-0.114497,-0.143966,-0.166346,
						 0.10186,0.076684,0.023076,0.04556,0.026226,
						 -0.012923,0.078887,0.035965,0.131532,0.122385,
						 -0.056412,-0.056782,-0.089363,0.07499,0.063279,
						 -0.100803,-0.231741,-0.203175,-0.197587,-0.162072
						 },
						 {0.006383,0.000699,-0.093932,-0.060838,-0.076801,
						 0.095839,0.091922,0.021268,0.111585,0.087268,
						 0.00607,0.042743,0.054099,0.036815,0.082619,
						 -0.013174,-0.068226,-0.157847,-0.048572,-0.105055,
						 -0.05369,-0.026456,-0.080407,-0.111976,-0.034296
						 }},
						 {{0.017148,-0.041901,0.042969,0.026961,0.031397,
						 -0.091806,-0.005774,-0.059429,-0.002585,-0.052836,
						 -0.031297,0.002117,-0.023547,-0.106807,-0.091234,
						 -0.018586,0.072673,0.030112,0.051797,0.041362,
						 -0.033508,0.045655,0.052798,-0.019833,-0.016446
						 },
						 {0.028824,-0.05492,0.073064,0.087855,0.054014,
						 0.028161,0.010503,-0.039341,-0.026726,-0.013918,
						 0.024543,-0.043149,-0.029662,-0.05043,0.00662,
						 0.01503,-0.019036,0.099701,0.051041,0.030115,
						 -0.037246,-0.011948,0.040175,0.050377,0.017357
						 },
						 {0.064713,0.02436,0.086908,0.053718,0.043163,
						 -0.096436,0.012099,-0.045907,-0.000623,0.057432,
						 -0.050467,-0.053587,0.035348,-0.105552,-0.017289,
						 -0.031119,0.022179,0.019543,0.047199,-0.028207,
						 0.007678,0.062689,-0.004112,0.072802,0.11583
						 },
						 {-0.03491,-0.016164,-0.060152,0.005718,0.019546,
						 -0.011557,-0.023448,-0.015883,0.023545,0.063973,
						 -0.03658,-0.013812,0.042209,0.055329,-0.01137,
						 0.034821,0.015051,0.050808,0.088854,-0.05334,
						 -0.02329,0.005196,-0.002763,-0.051161,-0.053597
						 },
						 {0.038794,0.014475,0.039054,-0.026291,0.079503,
						 0.015414,-0.024701,0.02902,-0.047047,0.039213,
						 0.019383,-0.023212,0.060594,-0.031453,-0.111264,
						 0.045337,0.005333,-0.085372,0.010826,0.070106,
						 0.014007,-0.0603,-0.020533,0.001161,0.061957
						 },
						 {0.031432,0.023071,-0.100339,0.057192,-0.100567,
						 0.098135,-0.027996,-0.012155,0.002514,-0.032211,
						 -0.06639,-0.012688,0.02967,0.117516,-0.058761,
						 -0.063955,-0.05861,-0.058885,-0.056083,-0.098687,
						 0.086243,0.009703,-0.058791,-0.028933,0.009497
						 },
						 {-0.009074,0.050219,0.007703,0.057367,0.047002,
						 -0.032455,-0.053618,-0.045806,-0.07496,-0.026567,
						 -0.025363,-0.00916,-0.061573,-0.134963,-0.065279,
						 0.099258,0.048876,0.042745,0.063592,0.054425,
						 -0.004925,-0.019151,0.034633,0.01521,0.013698
						 },
						 {-0.003061,-0.0585,0.024969,-0.045707,-0.073211,
						 0.037274,-0.00438,0.069122,0.01879,0.048445,
						 -0.052137,0.013002,0.012396,-0.068254,-0.051742,
						 0.021663,-0.029776,-0.031423,-0.046326,-0.023401,
						 -0.02315,-0.03217,-0.068787,-0.018623,0.004368
						 },
						 {0.007542,-0.066634,-0.091031,0.085127,-0.008178,
						 -0.08523,-0.169639,-0.153372,-0.198105,-0.15787,
						 -0.001144,-0.017526,0.03674,0.043615,-0.079244,
						 0.070632,0.032041,0.196863,0.100545,0.049009,
						 -0.055423,-0.11,-0.135176,-0.115197,-0.044253
						 },
						 {-0.06938,-0.007216,0.000881,-0.029146,0.014355,
						 0.002451,0.019838,0.025551,-0.022293,-0.029841,
						 -0.028746,0.071194,0.03828,0.006927,-0.002397,
						 0.014931,0.072977,-8.1e-05,0.026129,0.076354,
						 -0.028201,-0.100637,-0.153082,-0.034156,-0.044491
						 },
						 {0.129285,0.120686,-0.022226,-0.050672,-0.020883,
						 0.02154,0.036168,0.048436,0.08164,0.101547,
						 -0.11823,-0.118643,-0.022324,-0.031318,-0.029137,
						 0.081598,0.013783,-0.078907,-0.029835,-0.004794,
						 0.187621,0.124408,0.181178,0.204005,0.111917
						 },
						 {0.062425,0.022442,0.000776,0.047313,0.050156,
						 -0.064835,-0.028871,-0.021481,0.02319,-0.035091,
						 -0.082454,-0.077471,0.008718,-0.051578,-0.100937,
						 -0.035456,0.071864,-0.028188,0.048309,0.0349,
						 -0.021502,-0.030832,-0.044817,0.037669,0.043144
						 },
						 {-0.076035,-0.059927,0.04148,-0.063915,0.05621,
						 -0.090196,-0.011228,-0.035264,-0.066606,-0.050201,
						 0.016079,0.06626,-0.08483,-0.007417,-0.137712,
						 0.026128,0.077679,0.017215,-0.01185,-0.031846,
						 -0.080771,0.006961,-0.11639,-0.082874,-0.107897
						 },
						 {-0.000785,-0.04388,0.023685,0.047753,0.058673,
						 -0.099161,-0.030255,-0.038078,-0.017376,-0.03597,
						 -0.029224,-0.026552,0.010631,-0.095101,-0.03402,
						 -0.009638,0.008111,0.019636,0.021855,0.081346,
						 -0.030572,-0.034532,-0.053048,-0.014568,0.019318
						 },
						 {0.067034,0.073344,0.05384,0.070668,0.145943,
						 -0.033727,-0.001949,-0.076422,0.092113,0.013723,
						 0.002414,-0.021233,-0.004272,-0.020957,-0.147318,
						 0.03166,0.053304,-0.039,0.007067,0.032959,
						 0.007321,0.020875,0.013282,0.148182,0.087064
						 },
						 {-0.004759,-0.055914,-0.015973,0.112873,0.021865,
						 -0.140995,-0.08412,-0.123806,-0.044768,-0.031444,
						 -0.055052,-0.10959,-0.01777,-0.119415,-0.170058,
						 -0.013365,0.052888,0.122221,0.08411,-0.015058,
						 -0.067307,-0.003117,-0.009436,0.009172,-0.030616
						 }},
						 {{0.084702,-0.050317,0.021678,0.013904,-0.073679,
						 0.065649,-0.05798,-0.062166,-0.033373,-0.067206,
						 0.046661,-0.097309,-0.019742,0.019108,0.058805,
						 -0.047706,-0.062834,0.026444,0.088742,0.07526,
						 -0.047352,0.04489,0.088332,0.066757,-0.027912
						 },
						 {-0.010681,-0.066716,-0.052245,0.036491,-0.009814,
						 -0.007349,-0.047656,-0.05895,-0.039436,0.002427,
						 0.106115,-0.042029,-0.043316,-0.031932,0.129403,
						 0.007321,-0.096217,-0.006749,0.105645,-0.02473,
						 -0.025055,-0.10247,0.049153,0.08852,0.012041
						 },
						 {-0.027579,-0.217625,-0.083299,-0.06243,-0.087952,
						 -0.114661,-0.103461,0.018238,-0.01495,-0.035011,
						 -0.12624,-0.024412,-0.037783,0.039657,0.046514,
						 -0.061049,-0.028557,0.073594,0.065656,-0.082743,
						 0.011069,0.041877,0.089289,0.001156,-0.034459
						 },
						 {0.038876,-0.070961,-0.122469,-0.084413,-0.053837,
						 0.059452,-0.071842,-0.062287,-0.092192,-0.022642,
						 0.065936,-0.130639,-0.08341,-0.043696,0.048842,
						 -0.080417,-0.079208,0.044507,0.098463,0.103688,
						 -0.02484,-0.007878,0.041692,0.129062,0.088673
						 },
						 {0.085544,-0.023516,-0.116109,-0.152944,-0.018378,
						 0.188016,-0.121337,-0.110128,0.037806,0.156782,
						 -0.105303,-0.159509,0.020678,0.15611,0.060447,
						 -0.167284,0.086596,0.087336,0.041284,-0.013024,
						 0.079586,0.151019,0.040234,-0.026516,0.011893
						 },
						 {0.200992,0.022548,-0.076286,-0.124603,-0.138677,
						 0.266758,0.066166,-0.130252,-0.078208,0.066688,
						 0.199847,-0.087121,-0.1829,-0.013244,0.043395,
						 -0.08006,-0.211207,-0.137831,0.001138,0.077883,
						 -0.195867,-0.128505,-0.115399,0.008109,-0.007116
						 },
						 {-0.042743,-0.02678,-0.002275,-0.002764,0.011122,
						 -0.047503,-0.176747,0.022038,0.073381,-0.011008,
						 -0.116568,-0.011778,0.074681,0.031295,-0.056959,
						 0.034766,0.055753,-0.017708,-0.036208,-0.010399,
						 0.054253,0.041724,-0.070268,-0.068874,-0.030322
						 },
						 {0.090002,-0.068489,-0.108102,-0.183202,-0.126464,
						 0.164717,-0.052536,-0.100752,0.078844,0.12348,
						 0.112687,-0.16014,-0.014105,0.060986,0.029544,
						 -0.067288,-0.097509,0.109797,0.059448,0.043237,
						 -0.043072,0.02835,0.027356,0.020838,0.015224
						 },
						 {0.09995,-0.042703,-0.107154,0.073157,0.034543,
						 0.221245,-0.048679,-0.140753,-0.176775,-0.071264,
						 0.177878,-0.102562,-0.253774,-0.160874,0.059792,
						 0.077199,-0.174657,-0.181978,0.100205,0.155549,
						 -0.071107,-0.144596,-0.001443,0.165985,0.092707
						 },
						 {0.103449,-0.146308,-0.126058,-0.120534,0.05501,
						 0.131222,-0.045736,-0.124561,0.082201,0.096071,
						 -0.106712,-0.113705,0.109751,0.065699,-0.020478,
						 -0.074526,0.118484,0.124095,0.068544,-0.056746,
						 0.053083,0.154441,-0.02675,-0.07535,-0.127216
						 },
						 {-0.060247,0.042067,-0.035293,-0.169371,-0.15267,
						 0.082206,-0.025017,-0.168471,-0.108356,-0.002921,
						 0.101951,-0.216318,-0.213772,-0.016687,-0.122936,
						 -0.037906,-0.208226,-0.188661,-0.045253,0.022083,
						 -0.062714,-0.001035,-0.02436,0.044085,0.121649
						 },
						 {0.070895,-0.000172,-0.095895,-0.057751,-0.064452,
						 0.038158,-0.106741,-0.048131,-0.012141,-0.001697,
						 -0.091022,-0.070245,-0.033242,0.04815,0.044473,
						 -0.070713,-0.000273,0.096066,0.033771,0.003406,
						 0.003236,0.07413,0.002547,-0.013412,-0.010698
						 },
						 {0.067487,0.084376,-0.081493,-0.03088,-0.006954,
						 0.00953,0.048496,-0.008191,0.112924,0.041749,
						 -0.038599,0.011074,0.105665,0.092569,0.035451,
						 0.079965,0.129612,0.112061,-0.013375,-0.136358,
						 0.130755,0.024033,-0.023279,-0.11103,-0.167382
						 },
						 {0.087677,-0.086,-0.060522,-0.004962,0.00235,
						 -0.020787,-0.098573,-0.006295,0.036979,-0.021309,
						 -0.101315,-0.034921,0.046423,0.063798,0.046076,
						 -0.009651,0.031813,0.027532,0.055142,0.026144,
						 0.099288,0.09934,0.018197,0.006002,-0.017158
						 },
						 {0.084074,-0.059607,-0.035311,-0.011807,0.020928,
						 0.144182,-0.146228,-0.036516,-0.062541,0.125598,
						 -0.145992,-0.138332,-0.025095,0.084502,-0.008665,
						 -0.162123,-0.045279,0.028489,-0.015457,-0.050153,
						 0.02475,0.102806,0.033706,-0.114545,-0.048542
						 },
						 {0.100414,0.013279,-0.031696,0.155609,0.058473,
						 0.114456,-0.135782,-0.061763,-0.084725,-0.078378,
						 0.106342,-0.121905,-0.119993,-0.123035,0.085636,
						 -0.010945,-0.205921,-0.217082,0.024221,0.042109,
						 -0.035159,-0.178852,0.011346,0.0696,0.084582
						 }},
						 {{0.026818,-0.051731,-0.071078,0.070133,-0.055896,
						 -0.09872,-0.03009,0.034114,0.056729,-0.011013,
						 0.031593,-0.069921,-0.022667,0.063792,0.041117,
						 0.045371,0.047351,0.01866,0.073403,0.056853,
						 -0.024966,-0.011384,-0.013045,0.028383,0.01028
						 },
						 {-0.002486,-0.010636,-0.079119,0.038692,-0.046353,
						 -0.054554,-0.067999,-0.009531,0.003426,-0.059821,
						 0.011128,-0.002316,-0.07846,0.082644,-0.024313,
						 0.073588,-0.007102,-0.010008,-0.00897,-0.009208,
						 0.051821,0.073265,-0.05322,0.018504,-0.027054
						 },
						 {-0.030491,-0.053282,-0.032575,-0.021602,-0.111589,
						 -0.103503,-0.017145,0.070015,0.044313,-0.072473,
						 0.001091,-0.021601,0.057419,-0.032608,-0.006482,
						 0.032176,0.061293,0.066476,0.026854,-0.094116,
						 0.030212,0.097426,-0.077797,0.013928,-0.044605
						 },
						 {0.02338,-0.017642,-0.093982,0.006613,-0.061609,
						 -0.089345,-0.070883,-0.02096,0.038834,-0.004101,
						 0.046985,-0.061113,-0.070529,0.070865,0.015785,
						 -0.006919,-0.064069,-0.08978,-0.022251,0.047137,
						 -0.070647,-0.010596,0.053911,-0.028222,-0.020412
						 },
						 {-0.040466,-0.037834,-0.027913,-0.01794,-0.032952,
						 -0.13281,-0.03321,-0.027966,0.01163,-0.03854,
						 -0.087867,0.022432,0.075555,0.038689,0.024485,
						 0.099314,0.120745,0.056635,0.00869,-0.009715,
						 -0.089229,-0.066501,-0.07179,-0.016531,-0.08514
						 },
						 {0.029929,-0.020046,-0.124607,-0.01167,0.069577,
						 -0.033314,-0.075844,-0.115801,0.026764,0.025462,
						 -0.127888,-0.178879,-0.073934,-0.038763,0.06119,
						 -0.102985,-0.005889,-0.022691,-0.059803,-0.039896,
						 -0.031089,-0.059465,-0.073947,0.011488,0.025175
						 },
						 {-0.012749,-0.026569,0.060096,0.013679,-0.094671,
						 -0.093302,-0.04934,0.037173,-0.015989,-0.041244,
						 0.098022,0.051139,-0.038422,0.0017,-0.00689,
						 0.09081,-0.020953,-0.059795,0.000408,-7.5e-05,
						 -0.085659,-0.042052,-0.017195,-0.028131,-0.056067
						 },
						 {0.014349,-0.107301,-0.012263,0.007954,-0.064696,
						 -0.023218,-0.154957,0.018014,0.112006,0.001744,
						 -0.057142,-0.0499,0.001112,0.018143,-0.013705,
						 -0.104229,0.025286,-0.033799,0.023215,-0.00508,
						 0.009702,-0.030409,-0.044286,0.004327,0.033799
						 },
						 {0.033161,0.054271,-0.078805,0.116814,0.047369,
						 -0.044171,-0.053792,-0.163187,-0.012393,0.047424,
						 0.139733,-0.005326,-0.096941,-0.026176,0.058249,
						 0.004,-0.150669,-0.260613,-0.050954,0.007943,
						 -0.160094,-0.024371,-0.094912,-0.121201,-0.082526
						 },
						 {0.035022,-0.06649,-0.004358,0.043202,-0.017823,
						 -0.127314,-0.079532,0.019063,0.016043,-0.056431,
						 0.07152,0.051189,0.003765,0.066468,0.008975,
						 0.058965,0.09195,0.001396,-0.096517,-0.084301,
						 0.052147,0.02353,-0.016416,-0.04205,-0.173516
						 },
						 {-0.001052,-0.056901,-0.105458,-0.1519,-0.117149,
						 -0.035908,-0.104913,-0.124154,-0.12658,0.002311,
						 -0.111782,-0.126403,-0.078068,-0.040592,-0.126737,
						 0.148059,0.060302,0.052693,0.05447,-0.028038,
						 0.111827,-0.006172,-0.060769,-0.01259,0.043019
						 },
						 {-0.059293,-0.073503,0.006555,-0.010597,-0.095782,
						 -0.046927,-0.044956,-0.006725,0.000504,-0.012761,
						 -0.001056,-0.019058,0.059948,0.016576,0.022762,
						 0.112938,0.071604,0.076357,0.03444,0.009811,
						 -0.028443,0.013575,-0.052787,-0.044295,-0.047523
						 },
						 {-0.013234,-0.032708,0.060917,-0.011309,0.024916,
						 -0.082595,-0.004378,0.002733,-0.032072,0.057002,
						 -0.032148,0.048933,-0.003691,-0.007265,-0.029972,
						 -0.022234,0.025021,0.00011,-0.03223,-0.076818,
						 -0.077447,-0.113151,-0.094135,-0.06764,-0.192364
						 },
						 {-0.079484,-0.067784,0.072185,0.060564,-0.02739,
						 -0.110552,-0.047425,-0.001779,0.078012,-0.041974,
						 -0.007366,-0.014986,0.072878,0.001445,0.041689,
						 0.02828,0.047702,-0.007736,0.041494,-0.054532,
						 -0.026359,0.004273,-0.051993,-0.005458,-0.030054
						 },
						 {-0.02073,-0.036347,0.032495,0.036439,0.015596,
						 -0.023769,-0.066693,-0.095352,-0.030587,0.029136,
						 -0.02729,-0.015621,-0.011508,0.021496,-0.027835,
						 0.116265,0.125426,0.022704,-0.083252,0.00897,
						 0.04703,0.024809,-0.03207,-0.073887,-0.107888
						 },
						 {0.091345,0.019033,-0.028323,0.082357,0.05475,
						 -0.039826,-0.127137,-0.073681,-0.007599,0.058081,
						 0.04372,-0.054085,-0.132395,-0.006481,0.08466,
						 0.035764,-0.114496,-0.227904,-0.011283,0.080685,
						 -0.149042,-0.077469,-0.093615,-0.1088,-0.016233
						 }},
						 {{-0.057901,0.010148,-0.037647,0.028485,-0.079914,
						 -0.012262,-0.026669,0.037941,0.070643,-0.016424,
						 -0.012494,0.048957,0.101843,0.091021,0.040602,
						 -0.052858,-0.083351,0.005736,0.05559,0.027927,
						 0.001852,-0.047968,-0.101037,0.071909,-0.000179
						 },
						 {0.010091,0.033182,0.063377,0.017702,-0.010366,
						 -0.013379,0.013594,0.092002,0.031001,0.01893,
						 0.0257,0.026575,0.062676,0.135957,-0.005178,
						 -0.0336,0.020515,0.033729,0.141642,0.059859,
						 0.030641,0.027553,-0.015057,0.075537,0.005489
						 },
						 {-0.067751,-0.044514,0.012991,0.01309,-0.071147,
						 0.036218,0.014007,0.05898,0.028032,-0.011774,
						 0.049155,0.00548,0.092814,0.047635,-0.013378,
						 -0.016418,0.020616,-0.023624,0.015365,-0.00119,
						 -0.021375,-0.079705,-0.064922,-0.071069,-0.044432
						 },
						 {-0.039544,-0.006966,0.016049,-0.022595,0.006667,
						 -0.037258,-0.003124,0.025148,0.110862,0.022994,
						 -0.06337,-0.040912,0.096192,0.096775,0.041514,
						 -0.081966,0.012853,-0.003681,0.098244,0.089211,
						 -0.018576,0.013804,-0.027459,-0.055439,-0.007053
						 },
						 {-0.046357,-0.005892,0.05825,0.012792,0.063908,
						 -0.016245,0.06749,-0.008879,-0.014477,0.027746,
						 -0.000576,0.049754,-0.039925,-0.027486,0.029222,
						 0.053232,-0.008035,-0.078981,-0.033582,0.046244,
						 -0.026968,-0.096802,0.003907,-0.024059,0.01434
						 },
						 {-0.032916,-0.143642,-0.063186,0.034731,0.05568,
						 -0.029965,-0.154216,-0.105762,0.023801,0.0021,
						 -0.036085,-0.053871,-0.116407,-0.039633,0.072162,
						 -0.04413,-0.038145,-0.049195,-0.034063,0.078198,
						 0.060867,0.00389,-0.060312,-0.053178,0.04945
						 },
						 {-0.036256,0.017388,0.013015,-0.019934,-0.034921,
						 -0.022637,0.014913,-0.039259,-0.010255,0.0011,
						 -0.037985,-0.055521,-0.007136,0.057742,0.052349,
						 -0.003748,-0.070702,-0.052328,0.044762,-0.017694,
						 0.010085,0.02234,0.087326,0.04528,-0.134058
						 },
						 {-0.065422,0.009731,0.071972,0.069722,-0.045269,
						 -0.021279,0.036356,0.080321,-0.005345,-0.060491,
						 -0.092722,-0.045283,0.012128,-0.019883,0.020125,
						 -0.032075,-0.051603,-0.065302,0.047564,0.059545,
						 -0.015611,-0.070895,-0.099341,0.06692,0.041558
						 },
						 {-0.055443,-0.110971,-0.065992,-0.028064,-0.024792,
						 0.016289,-0.150877,0.03162,0.120295,0.093375,
						 -0.090219,-0.101133,-0.062969,0.144759,0.155494,
						 -0.114353,-0.209097,-0.241403,0.041989,0.088461,
						 0.071674,0.08226,-0.246696,-0.145075,0.081323
						 },
						 {-0.04055,0.005294,-0.000527,-0.006377,0.018372,
						 0.038288,0.0873,0.070424,-0.018093,-0.042587,
						 0.050008,0.055429,-0.035518,-0.004687,-0.078659,
						 0.008411,-0.104902,-0.110498,-0.115909,-0.01008,
						 -0.023152,-0.032578,0.033448,0.020143,-0.031652
						 },
						 {-0.03184,-0.218977,-0.205848,-0.083027,-0.019246,
						 -0.055592,-0.112935,-0.270363,-0.174121,-0.099399,
						 0.021117,-0.005601,-0.045062,-0.037061,0.005521,
						 0.134179,0.09337,0.006298,-0.005311,0.031703,
						 0.068266,-0.010858,-0.071658,-0.015019,-0.008401
						 },
						 {0.003483,-0.015461,0.013618,-0.065685,-0.086809,
						 -0.034593,-0.019074,0.060933,0.01094,0.011806,
						 0.048646,-0.009559,0.042375,0.000107,-0.048213,
						 -0.04553,-0.042477,-0.021064,0.038728,0.003569,
						 -0.048081,-0.069603,-0.03309,0.027377,-0.006748
						 },
						 {-0.110989,0.032768,-0.020088,-0.038166,-0.038952,
						 -0.042915,-0.006889,0.043095,-0.115545,-0.144001,
						 0.008407,0.02993,-0.003895,-0.183032,-0.182054,
						 -0.021811,-0.067914,-0.101111,-0.177737,-0.289371,
						 -0.031507,-0.058539,0.007168,-0.10263,-0.318286
						 },
						 {0.007145,0.020233,0.026904,0.018325,-0.014355,
						 0.021141,0.013631,0.061017,0.032545,0.032079,
						 -0.000688,0.028542,0.025246,0.02529,0.044884,
						 -0.080003,-0.094843,-0.00649,-0.009405,-0.012194,
						 -0.059349,-0.052316,-0.060927,0.01867,-0.098066
						 },
						 {0.016846,0.030893,-0.038783,0.038409,0.016295,
						 0.009937,-0.045643,-0.001447,0.001825,0.077413,
						 -0.065029,0.031427,-0.010396,0.060545,0.028588,
						 0.012295,-0.043844,-0.102257,-0.112656,0.066038,
						 0.000962,-0.076463,-0.094569,-0.044064,-0.046778
						 },
						 {-0.145506,-0.138616,-0.080361,-0.078851,-0.002461,
						 -0.115546,-0.146308,0.033431,0.006225,0.022052,
						 -0.005275,-0.065586,0.032047,0.181834,0.041672,
						 -0.103831,-0.141037,-0.060432,0.177092,0.072886,
						 -0.020958,0.014687,-0.163037,-0.059977,0.11053
						 }},
						 {{0.002533,-0.02966,0.004255,0.049241,0.06444,
						 0.021261,0.023577,0.054513,0.045999,0.04769,
						 0.04559,0.066191,0.064149,-0.04168,-0.087069,
						 -0.086994,-0.138212,-0.094293,-0.083136,-0.081135,
						 -0.00421,-0.111218,-0.068138,-0.08589,-0.062425
						 },
						 {-0.010915,-0.120828,0.010591,0.037399,-0.042966,
						 0.057538,0.006383,0.014235,0.063898,-0.031202,
						 -0.005718,-0.013134,0.022582,-0.058341,0.044255,
						 -0.071406,0.035886,0.024663,0.057515,0.069631,
						 -0.019857,-0.03652,-0.063209,-0.066774,-0.039612
						 },
						 {-0.007556,0.077072,0.078766,0.026476,-0.044819,
						 0.074734,0.032751,0.06544,-0.010305,0.006762,
						 0.033109,0.028022,0.123089,-0.00039,-0.00811,
						 -0.122422,-0.102105,0.022251,-0.092015,-0.07488,
						 -0.105441,-0.082739,-0.160724,-0.042115,0.003117
						 },
						 {-0.017151,-0.016051,-0.024421,-0.026297,-0.075666,
						 0.208932,0.073993,0.05039,0.045324,-0.052058,
						 -0.026269,0.02249,-0.023484,-0.069952,-0.018919,
						 0.096462,0.00658,-0.025336,0.024394,-0.039105,
						 0.003634,-0.056721,-0.07841,-0.096771,-0.113765
						 },
						 {0.051829,0.006642,-0.038548,0.019729,-0.005101,
						 -0.019334,0.032227,0.036176,0.023903,0.092432,
						 -0.086618,-0.031776,0.084058,0.051138,0.011092,
						 -0.116917,-0.088208,-0.049129,-0.027632,-0.078559,
						 -0.004069,-0.080957,-0.056517,-0.010668,0.067976
						 },
						 {-0.077714,-0.110445,-0.031402,0.016431,-0.077543,
						 -0.136522,-0.049706,-0.039922,0.030964,0.039937,
						 -0.076899,-0.088819,0.004702,0.051805,0.164154,
						 0.095043,0.07961,0.076889,0.079502,-0.01335,
						 -0.037518,0.061595,-0.055233,-0.031469,-0.013117
						 },
						 {0.01872,-0.037183,-0.022874,-0.031147,0.055623,
						 0.049763,0.06746,0.106572,0.055676,0.057928,
						 -0.055807,0.031229,-0.038194,-0.108815,-0.188152,
						 -0.150336,-0.154999,-0.095375,-0.067817,-0.058012,
						 0.070861,0.002686,-0.039748,0.037433,0.042366
						 },
						 {0.007687,-0.005414,0.014787,0.023686,-0.081158,
						 0.017461,0.00112,0.087939,0.061882,0.061674,
						 -0.104023,-0.023738,0.02434,0.041413,0.108391,
						 0.049019,0.062997,0.03597,0.094721,0.036999,
						 -0.096728,-0.001946,-0.113988,-0.087535,-0.087135
						 },
						 {0.106225,-0.062179,0.016195,0.061026,-0.050619,
						 0.166689,0.093319,0.069973,-0.027684,-0.124459,
						 -0.114709,-0.105744,-0.043375,-0.039937,-0.217242,
						 -0.057064,-0.122522,-0.002707,-0.093785,-0.034681,
						 0.077218,0.029601,-0.046302,-0.103807,-0.0402
						 },
						 {0.096606,-0.000557,0.004591,0.006413,-0.016155,
						 0.023904,0.045857,0.028563,-0.016918,0.093197,
						 -0.04873,-0.055332,-0.051882,0.034508,-0.083661,
						 -0.078101,-0.134552,-0.13191,-0.061168,0.013345,
						 0.059438,-0.060646,0.016709,0.001706,0.091689
						 },
						 {-0.132979,-0.112348,-0.141041,-0.149659,-0.009262,
						 0.032441,-0.051175,-0.072878,0.019436,0.157928,
						 0.175843,0.130016,0.135877,0.117004,0.134959,
						 0.107901,0.170094,0.171358,0.042053,-0.087427,
						 -0.220984,-0.11038,-0.103419,-0.103596,0.009569
						 },
						 {0.021379,0.015403,0.021027,-0.017289,-0.006324,
						 0.061181,0.025133,0.064795,0.009683,0.016157,
						 0.029263,0.024334,0.009774,0.065804,-0.027885,
						 -0.02249,-0.068907,-0.032606,-0.049644,-0.121057,
						 0.033069,-0.08785,-0.099625,0.028404,-0.001304
						 },
						 {0.023857,-0.050678,-0.041448,-0.039416,-0.030274,
						 -0.095652,-0.016867,0.005932,-0.024264,-0.033837,
						 -0.168325,-0.144933,-0.004201,-0.062931,-0.105385,
						 -0.093103,-0.083012,-0.097764,-0.018098,0.059699,
						 -0.01833,0.054959,0.054242,0.101812,0.156442
						 },
						 {-0.055483,-0.003786,-0.03812,0.043516,-0.018037,
						 0.06755,0.044821,0.03148,0.091522,0.074919,
						 0.064635,0.052548,0.08225,0.048218,0.000288,
						 -0.090473,-0.104684,-0.064068,-0.101024,-0.107115,
						 0.020213,-0.094774,-0.040661,-0.005652,0.004406
						 },
						 {0.075987,0.020186,-0.017823,-0.032996,-0.076518,
						 0.084766,-0.041988,-0.036284,0.057781,0.122692,
						 -0.001443,0.045263,0.132867,0.055624,0.016518,
						 -0.198459,-0.135596,-0.080969,-0.151689,-0.125654,
						 0.052938,0.026072,0.031951,0.17775,0.174848
						 },
						 {-0.056072,-0.105074,-0.083674,-0.000734,0.024872,
						 0.176364,0.042978,0.020452,0.03994,-0.00243,
						 0.048274,0.031136,-0.05471,-0.09877,-0.206815,
						 -0.185673,-0.210767,-0.109248,-0.104816,-0.163433,
						 0.065814,0.016377,-0.107934,-0.035927,-0.015022
						 }},
						 {{0.172771,0.024514,-0.135799,-0.043196,0.025912,
						 0.129024,0.152694,-0.076287,-0.150141,0.024631,
						 -0.02128,0.107842,-0.042419,-0.063556,-0.037351,
						 0.006239,0.00222,0.03733,-0.081224,0.041719,
						 0.010775,0.058747,-0.05179,0.042443,0.070001
						 },
						 {0.135491,0.041455,-0.082155,-0.011364,0.053369,
						 0.037408,0.099407,-0.122514,-0.126923,-0.020918,
						 0.016236,0.012016,-0.04776,0.056639,0.027008,
						 -0.0994,0.000943,-0.01055,-0.052217,0.063726,
						 0.014115,0.050064,-0.013036,0.047239,0.095237
						 },
						 {0.138045,0.035106,-0.026061,0.02296,0.035725,
						 0.072868,0.087376,-0.039674,-0.022429,0.048372,
						 0.076731,-0.045708,-0.092577,0.016493,-0.006416,
						 -0.008764,0.041645,-0.058587,-0.062594,0.005342,
						 0.052036,-0.002192,-0.031359,0.044023,0.020297
						 },
						 {0.032087,0.147855,0.009938,-0.121869,-0.030534,
						 0.021098,0.112444,-0.041066,-0.103132,-0.069911,
						 -0.006699,0.07737,0.037493,-0.047891,-0.029667,
						 -0.040562,-0.042542,0.051708,-0.065335,0.009448,
						 -0.030327,0.022736,-0.029332,0.006648,0.119825
						 },
						 {0.024197,0.00143,-0.043191,-0.026262,0.010725,
						 -0.067707,0.027466,-0.043365,-0.030224,-0.027091,
						 0.013591,0.074066,-0.008006,-0.055195,0.093591,
						 0.125703,0.022486,-0.020917,0.09244,0.04758,
						 0.045468,0.06312,0.011371,0.099078,-0.05083
						 },
						 {-0.076016,0.12913,0.023739,0.003159,0.043251,
						 -0.161222,0.06204,0.073359,-0.064525,0.051534,
						 -0.154152,0.001192,0.056083,-0.051406,-0.037748,
						 -0.132925,0.062587,0.007147,-0.148318,0.070553,
						 -0.06106,-0.014592,-0.113796,-0.11678,0.002536
						 },
						 {0.035159,-0.074797,-0.097529,-0.062233,0.001253,
						 0.000801,0.021604,-0.138751,-0.065196,-0.051013,
						 0.006766,0.037484,-0.071397,0.057401,0.033012,
						 0.009176,-0.020927,-0.002889,0.010218,-0.108517,
						 -0.037699,0.068798,0.073042,0.013842,0.051434
						 },
						 {0.04199,-0.0334,-0.026546,0.004798,0.084334,
						 0.077387,0.06499,-0.091557,0.021438,0.004318,
						 0.061875,0.171185,0.002033,-0.004711,0.062284,
						 -0.039255,0.129215,0.004547,-0.01254,0.079459,
						 0.01091,-0.030385,0.011135,0.00126,0.036551
						 },
						 {0.125932,0.21958,0.0654,-0.150627,-0.034329,
						 -0.062746,0.200619,0.102866,-0.057145,0.00208,
						 -0.123064,0.059972,0.053837,-0.095434,-0.043661,
						 -0.134989,-0.043338,0.050887,-0.187274,0.071352,
						 -0.057429,-0.029189,-0.051467,-0.013331,0.148654
						 },
						 {0.033582,-0.008642,-0.041938,-0.079838,-0.055019,
						 -0.089655,-0.033891,-0.019685,-0.076251,0.004073,
						 0.015271,-0.015096,-0.062938,0.000258,0.053094,
						 0.092308,0.066419,-0.014904,0.108748,0.094196,
						 0.086612,0.026068,0.05646,0.153166,0.002281
						 },
						 {-0.153849,-0.103456,-0.051391,-0.056488,-0.028771,
						 -0.110873,-0.138875,-0.159738,-0.199148,-0.102289,
						 -0.102967,-0.109514,-0.097262,-0.244572,-0.027989,
						 -0.016261,-0.087703,-0.154343,-0.184823,-0.103732,
						 0.00619,-0.004664,-0.022625,-0.021653,-0.007071
						 },
						 {0.024555,0.026252,-0.084998,0.019529,-0.024198,
						 0.025652,0.076851,-0.107695,-0.036114,-0.00704,
						 0.013735,-0.030566,-0.104351,-0.044616,0.033576,
						 0.008498,-0.030606,-0.012745,-0.012551,0.031111,
						 0.066873,-0.050755,-0.012816,0.024641,0.039921
						 },
						 {-0.090276,-0.043659,-0.04322,0.024057,0.008761,
						 -0.062706,-0.058935,-0.097317,0.037756,-0.028187,
						 0.004125,-0.143981,-0.04731,0.06879,0.006368,
						 -0.046047,-0.118781,-0.033453,0.086888,-0.023485,
						 0.023042,-0.015015,0.034775,0.098634,-0.103732
						 },
						 {0.028909,-0.040921,-0.075339,0.038892,-0.021107,
						 0.062971,-0.00989,-0.096599,-0.071322,0.046607,
						 0.040847,0.002068,-0.040143,0.017672,0.057013,
						 0.026626,0.020325,-0.011363,-0.012314,0.054771,
						 0.030608,0.058344,0.052469,0.021014,0.048695
						 },
						 {0.008217,0.102151,-0.031951,-0.1363,-0.058179,
						 -0.031749,0.047306,0.064529,-0.058253,-0.115813,
						 -0.082554,-0.059191,-0.072993,-0.169072,-0.038732,
						 -0.021724,-0.052738,-0.090175,-0.110603,0.009753,
						 0.02336,0.010597,0.018658,-0.022143,-0.065094
						 },
						 {0.216993,0.214531,-0.13028,-0.133515,0.01901,
						 0.114147,0.210663,0.08874,-0.083273,-0.083162,
						 -0.117389,0.061156,0.103503,-0.017137,-0.08396,
						 -0.202512,-0.050725,0.033686,-0.126429,-0.052806,
						 -0.123985,0.028745,0.027031,-0.022405,0.132263
						 }},
						 {{0.086193,0.0517,-0.061409,-0.087062,-0.055901,
						 0.007226,0.014712,-0.088441,0.04442,0.079628,
						 0.03479,0.077794,-0.026304,-0.018371,0.103772,
						 -0.030266,-0.02215,-0.048755,-0.126387,-0.064753,
						 -0.022773,0.051929,-0.013597,-0.043058,-0.066628
						 },
						 {0.028768,0.017616,0.006481,0.006292,0.056442,
						 -0.004259,0.054343,-0.064645,0.030101,-0.005791,
						 0.034557,0.075869,-0.105234,-0.06299,-0.000427,
						 0.009677,0.03942,0.093477,0.008148,0.027612,
						 0.05484,0.069394,0.103107,0.014159,-0.082806
						 },
						 {0.088996,-0.028768,-0.087678,-0.043025,-0.038019,
						 0.02058,-0.046057,-0.025417,0.044871,0.044109,
						 0.064355,-0.071573,-0.041249,-0.017664,0.122899,
						 0.003555,-0.073311,-0.086596,0.005346,-0.030844,
						 -0.072867,-0.064526,-0.044298,-0.077952,-0.070358
						 },
						 {-0.001285,0.079681,0.024845,-0.02328,0.0209,
						 -0.032899,0.073361,-0.052075,-0.031098,0.034047,
						 -0.054126,0.054531,-0.021839,-0.112689,-0.005377,
						 -0.08192,0.079946,0.045321,0.019224,0.030865,
						 -0.02693,0.06444,0.04983,0.11257,0.074423
						 },
						 {0.039377,-0.037118,-0.005414,-0.052663,-0.074358,
						 0.054045,-0.01806,-0.042957,-0.092046,0.040689,
						 0.040469,0.036517,-0.014213,3.2e-05,0.148657,
						 -0.015638,-0.074549,-0.10643,-0.061222,-0.094817,
						 -0.111264,-0.099515,-0.03771,0.014826,-0.047985
						 },
						 {-0.083411,0.06682,0.087649,0.02026,0.059911,
						 -0.044948,0.080474,0.02076,-0.057215,-0.00584,
						 0.008544,0.065424,-0.007686,-0.09059,0.070702,
						 0.022049,0.029054,0.040727,-0.018813,0.051943,
						 -0.015955,0.020694,-0.033408,-0.088592,-0.176586
						 },
						 {0.018234,-0.012242,-0.110734,-0.121275,-0.083384,
						 -0.04407,-0.072721,-0.086554,0.07224,0.232507,
						 -0.023743,-0.021269,-0.131547,0.067822,0.092786,
						 -0.03764,-0.121721,-0.169195,-0.233642,-0.148523,
						 -0.060306,0.078788,0.116485,0.155144,0.045224
						 },
						 {0.093281,0.024515,0.018528,-0.013348,-0.002104,
						 0.073509,0.042177,-0.019814,-0.112832,-0.060094,
						 0.044858,0.080977,-0.040741,-0.085069,0.132559,
						 0.025115,0.03893,-0.074784,-0.059732,0.088622,
						 -0.065946,-0.056578,-0.110442,-0.140077,-0.148538
						 },
						 {-0.182846,0.068231,0.044989,-0.093158,0.077284,
						 -0.084937,0.103935,-0.027214,-0.072643,0.102254,
						 -0.113281,0.129287,0.014613,-0.121563,0.11746,
						 -0.04263,0.120135,0.171039,0.003118,-0.072871,
						 0.033418,0.112604,0.155299,0.110353,0.028776
						 },
						 {-0.021131,-0.044956,-0.071509,0.013098,0.014843,
						 0.03136,0.001489,-0.107682,0.003988,0.096598,
						 -0.031749,0.010943,-0.186718,-0.071031,0.026728,
						 -0.003301,-0.115894,-0.07041,-0.059995,-0.104822,
						 -0.047443,-0.016353,0.073824,0.116379,0.102755
						 },
						 {-0.104677,-0.003231,0.09011,0.141448,0.005388,
						 -0.092979,0.040272,-0.020512,-0.150948,-0.116137,
						 -0.066331,-0.013991,-0.039796,0.155668,0.165568,
						 0.030144,0.000386,0.08983,0.151308,0.079753,
						 0.001617,-0.029044,-0.093844,-0.172988,-0.190313
						 },
						 {0.021283,0.009988,-0.009969,-0.071939,-0.043428,
						 0.066519,-0.008627,-0.068375,-0.025918,0.045493,
						 0.072485,-0.052311,-0.065748,0.001475,0.075724,
						 -0.010424,-0.023934,-0.071152,-0.080823,-0.09884,
						 -0.077184,-0.066372,-0.008242,-0.038823,-0.055368
						 },
						 {0.015245,-0.008089,-0.02364,-0.034836,-0.081815,
						 0.043014,-0.11729,0.013581,0.044159,0.014798,
						 -0.001749,-0.087091,-0.04912,0.079623,0.09004,
						 0.023855,-0.106265,-0.023144,-0.053339,-0.07096,
						 0.010801,-0.055114,-0.017488,-0.048651,-0.038303
						 },
						 {0.105409,0.063386,0.003687,-0.059364,-0.070608,
						 0.048063,0.050822,-0.039844,0.002998,0.06995,
						 0.062793,-0.024134,-0.14377,-0.008867,0.110495,
						 -0.006555,-0.053166,-0.142366,-0.047142,-0.100431,
						 0.000465,-0.0216,-0.021371,0.038254,0.017982
						 },
						 {-0.053923,-0.092092,0.01183,-0.034374,-0.155154,
						 -0.073281,-0.065061,-0.074961,-0.054328,0.134021,
						 -0.075799,0.017001,-0.031275,0.070472,0.148267,
						 -0.130107,-0.042776,-0.068621,-0.132727,-0.120216,
						 -0.237099,-0.071017,-0.009715,0.110799,0.134231
						 },
						 {-0.123851,0.017858,-0.057686,-0.062621,-0.037904,
						 -0.07106,0.017831,-0.072819,-0.033988,0.092983,
						 -0.143389,0.033911,-0.041026,-0.129828,-0.003827,
						 -0.132257,0.079271,0.042056,-0.152562,-0.117149,
						 0.001127,0.083331,0.15584,0.050341,0.010663
						 }},
						 {{-0.050089,-0.054011,0.004361,0.067764,-0.003394,
						 -0.033645,0.024512,0.059018,0.035,0.006061,
						 -0.021371,0.071056,-0.008916,-0.070838,-0.049705,
						 0.001,0.130041,0.018204,-0.063026,-0.060901,
						 0.075064,0.104652,-0.118703,-0.117764,-0.054935
						 },
						 {-0.162507,-0.096905,-0.04568,-0.008375,-0.027714,
						 -0.00027,-0.037881,-0.044724,-0.016048,-0.0,
						 -0.003797,-0.023121,0.059148,0.06659,0.020825,
						 -0.098813,0.069074,-0.027432,-0.109174,-0.07241,
						 0.032728,0.055471,-0.062745,-0.128999,-0.070927
						 },
						 {-0.106692,-0.015735,0.027601,-0.020039,-0.019152,
						 0.020679,0.025402,-0.012572,-0.007218,-0.017402,
						 -0.038987,0.044744,0.006689,-0.021706,0.00248,
						 0.105183,0.038032,-0.142049,-0.143882,0.003864,
						 0.027308,-0.0526,-0.160326,-0.137623,-0.047694
						 },
						 {-0.054281,-0.130609,0.007134,-0.000367,-0.034126,
						 -0.095926,-0.018136,0.048148,-0.034717,-0.003231,
						 -0.090282,0.040381,0.045883,0.029968,0.074973,
						 -0.021511,0.033968,-0.014156,-0.111149,-0.052543,
						 0.019323,0.007335,-0.085785,-0.143584,-0.110408
						 },
						 {-0.182575,0.031759,-0.033624,-0.020472,0.08598,
						 -0.112345,0.083175,0.09333,0.041357,0.045027,
						 0.012372,0.145061,0.048252,-0.105477,-0.017413,
						 0.11223,0.081612,-0.119459,-0.09977,-0.029601,
						 0.00472,-0.06672,-0.064773,-0.047242,0.000877
						 },
						 {-0.285111,-0.247088,-0.168058,-0.060145,-0.113639,
						 -0.29926,-0.059871,0.050896,0.06553,0.045492,
						 -0.283683,-0.017956,0.143552,0.018616,0.07111,
						 -0.041167,0.079399,0.097661,-0.086628,0.013889,
						 0.093535,0.032613,0.054398,-0.075906,-0.022964
						 },
						 {-0.017176,0.026757,0.067232,0.089276,0.103667,
						 -0.003591,0.041233,0.045102,-0.024609,-0.007705,
						 0.053954,0.010793,-0.106868,-0.09183,-0.052718,
						 0.004624,-0.11435,-0.167361,-0.038077,0.033777,
						 -0.051097,-0.104087,-0.077802,-0.07251,-0.001801
						 },
						 {-0.235415,-0.215132,-0.009548,-0.040988,-0.006699,
						 -0.194308,0.076598,0.089967,0.041914,0.048205,
						 -0.017245,0.103221,0.068975,0.043153,0.062704,
						 0.14434,0.180142,-0.028701,-0.052738,-0.000108,
						 0.056446,0.085221,-0.075714,-0.082007,0.006004
						 },
						 {-0.074399,-0.089853,-0.0163,0.046945,-0.040874,
						 -0.190038,-0.215119,-0.067043,-0.044804,-0.062426,
						 -0.243468,-0.046638,0.072246,0.047218,-0.000568,
						 -0.194521,0.038996,0.069732,-0.072661,0.098365,
						 0.032021,0.07699,-0.025502,-0.127179,-0.008963
						 },
						 {-0.013368,0.044191,0.015369,0.041098,0.019377,
						 -0.043014,0.06516,0.074099,0.027781,-0.036142,
						 -0.01446,0.07545,0.035858,-0.061585,-0.042185,
						 0.098605,0.032216,-0.120457,-0.145968,0.001556,
						 0.00275,-0.064504,-0.1017,-0.016189,0.054069
						 },
						 {-0.232718,-0.31432,-0.140705,0.02371,0.009094,
						 -0.189041,-0.134189,-0.009872,0.024882,0.055317,
						 -0.139326,0.003224,0.021429,0.015459,-0.080379,
						 0.014935,0.037749,-0.014796,-0.09986,-0.192224,
						 0.003889,0.059204,-0.046884,-0.117212,0.097615
						 },
						 {-0.113865,0.002641,-0.011387,-0.011026,-0.007269,
						 -0.000257,0.026995,0.042534,0.063778,0.041366,
						 0.073411,0.072342,0.005904,0.03222,-0.065496,
						 0.10826,0.042101,-0.040111,-0.070012,-0.038694,
						 0.056679,0.022239,-0.127193,-0.100116,0.000129
						 },
						 {-0.011028,0.074303,0.002365,0.005366,-0.061272,
						 0.053037,0.037715,0.065187,0.054414,-0.098399,
						 0.073373,0.050724,0.062032,0.045011,0.002239,
						 0.156075,0.062091,-0.020909,0.077923,0.11728,
						 0.097348,-0.068961,0.008157,0.115976,0.070013
						 },
						 {-0.085927,0.05742,0.067391,0.085466,0.044828,
						 0.019279,0.089798,0.091463,0.029754,0.068009,
						 0.07947,0.126568,0.053427,-0.078909,-0.060328,
						 0.060638,0.026685,-0.123085,-0.120126,-0.038934,
						 -0.002902,-0.029206,-0.136287,-0.093345,-0.033616
						 },
						 {0.058019,-0.002976,-0.057043,-0.010256,-0.00929,
						 -0.029684,-0.066252,0.071014,-0.019426,0.002903,
						 -0.0897,0.104871,-0.016157,-0.127768,-0.155859,
						 0.084332,-0.031163,-0.227541,-0.232623,-0.118034,
						 -0.094705,-0.124177,-0.181935,-0.147035,0.042801
						 },
						 {0.018534,-0.029891,0.035693,-0.00131,0.055113,
						 -0.072812,-0.13695,-0.011169,0.039153,-0.066995,
						 -0.13695,-0.056522,0.07153,0.002212,-0.091717,
						 -0.264372,0.000308,0.088121,-0.128119,0.007772,
						 -0.01664,0.074416,0.034366,-0.17447,-0.023649
						 }},
						 {{0.0273,-0.016718,0.015924,0.019119,0.02229,
						 -0.006992,-0.012411,0.056432,-0.034238,0.046702,
						 -0.050901,-0.000649,0.068022,0.064867,-0.017453,
						 -0.090583,-0.093281,-0.050004,0.100632,0.079435,
						 0.0619,-0.065331,-0.150379,-0.055466,0.074059
						 },
						 {0.074852,0.02913,0.001357,-0.009268,0.001865,
						 0.025182,0.086648,0.111298,-0.018686,0.026828,
						 -0.064718,0.030166,0.161862,0.159272,-0.021592,
						 0.003745,-0.02292,-0.021575,0.052961,0.095737,
						 0.096617,-0.06044,-0.101936,-0.052558,0.040072
						 },
						 {0.016691,0.066186,0.004017,0.009781,-0.027209,
						 -0.023276,0.045732,0.05445,0.089985,0.094236,
						 0.043744,0.018194,0.076054,0.054298,-0.00669,
						 0.000183,-0.115529,-0.023437,0.028579,0.078212,
						 0.037424,-0.066323,-0.096163,-0.083535,0.008896
						 },
						 {0.034034,0.07323,0.030116,-0.009424,-0.060944,
						 0.031608,0.055048,0.090828,0.082947,-0.053905,
						 -0.004408,0.002354,0.118117,0.057954,0.005357,
						 0.057207,0.033611,-0.025129,0.026142,0.104141,
						 0.071138,-0.025716,-0.155755,-0.05344,0.063956
						 },
						 {-0.052974,0.034767,0.024999,0.029513,0.057081,
						 -0.019741,-0.012263,0.011513,0.034773,0.038002,
						 0.036922,0.013166,-0.103197,-0.043751,0.002696,
						 -0.024119,-0.080822,-0.094906,-0.063695,-0.022926,
						 -0.055329,0.014787,-0.028798,-0.077898,0.036404
						 },
						 {-0.063809,-0.035869,0.001544,-0.032709,-0.059712,
						 -0.051179,-0.071192,0.014272,0.038855,0.006535,
						 0.046293,0.015599,-0.107236,0.02744,-0.003877,
						 0.037146,0.070679,-0.120651,-0.059759,0.011581,
						 -0.097895,-0.010325,-0.016222,-0.03445,0.042979
						 },
						 {-0.003633,-0.023904,0.022058,0.011575,0.063109,
						 -0.02179,0.032724,-0.002647,-0.050776,0.078768,
						 -0.078467,0.010752,0.02707,0.005566,0.045202,
						 -0.111558,-0.116224,0.006878,0.065437,0.028972,
						 0.106716,0.027331,-0.12597,-0.002875,0.021908
						 },
						 {-0.065319,-0.020259,-0.034358,-0.034003,-0.044004,
						 -0.020588,-0.046985,-0.014148,0.036348,-0.002935,
						 0.002252,-0.048616,-0.020773,0.005535,-0.000628,
						 -0.05343,-0.102657,-0.009872,-0.003805,0.014769,
						 -0.040647,-0.050756,-0.052631,0.058288,0.090066
						 },
						 {0.071554,0.0571,0.075486,-0.00881,-0.043319,
						 -0.071245,-0.096959,-0.020536,0.005249,-0.090188,
						 -0.207088,-0.208387,-0.029399,0.172935,0.003005,
						 0.101556,-0.011045,-0.137527,0.035966,0.118124,
						 0.207755,0.186649,-0.080249,-0.126166,-0.028326
						 },
						 {0.005502,0.052817,0.05043,0.042947,-0.008006,
						 -0.030324,0.037017,0.018886,-0.024943,-0.064393,
						 0.043719,-0.059586,-0.066724,-0.067671,0.028677,
						 -0.012251,-0.120587,-0.13822,-0.027351,-0.055812,
						 0.028995,0.062428,-0.051034,-0.08562,-0.04006
						 },
						 {0.032952,0.002826,-0.118617,-0.014349,0.016756,
						 0.048983,0.053688,-0.027599,-0.004051,0.071987,
						 0.041172,0.034975,-0.009134,-0.016139,0.051003,
						 -0.078317,0.003335,0.0515,0.083047,0.036297,
						 -0.079395,-0.109771,0.01214,0.024606,0.006679
						 },
						 {0.023636,0.034644,0.001878,-0.033142,-0.017119,
						 -7.3e-05,0.058369,0.063096,0.050861,0.05239,
						 -0.061124,-0.014287,-0.030311,0.041124,0.056038,
						 -0.026776,-0.065026,0.013112,0.029693,0.068425,
						 0.051203,-0.085257,-0.120582,-0.050794,0.010939
						 },
						 {-0.114537,-0.053758,-0.105792,-0.077501,-0.061201,
						 -0.08349,-0.141238,-0.069097,-0.059961,-0.047374,
						 -0.099358,-0.093348,-0.129553,-0.159964,-0.096865,
						 -0.094127,-0.072278,0.010861,-0.111094,-0.148335,
						 -0.02215,-0.000266,-0.035519,0.067994,-0.000853
						 },
						 {0.013963,-0.033899,0.037613,-0.018001,0.017551,
						 0.045434,0.02016,-0.00174,-0.022059,0.05865,
						 -0.020362,-0.055205,0.013215,0.045415,-0.041882,
						 -0.102539,-0.112058,-0.020863,0.009005,0.003125,
						 -0.020523,-0.028883,-0.088539,-0.025081,0.015168
						 },
						 {0.004049,0.073688,-0.002816,0.013974,0.101222,
						 0.024174,0.129079,0.113603,0.089859,0.101776,
						 0.06482,0.098086,-0.01439,0.010959,0.070352,
						 -0.016897,-0.158823,-0.119084,-0.054408,0.077335,
						 0.01516,0.096301,-0.126702,-0.007395,0.049958
						 },
						 {0.093523,0.095418,-0.009698,0.034086,-0.008443,
						 0.018713,0.030507,0.056331,-0.041783,-0.077626,
						 -0.128011,-0.126152,0.048466,0.13905,-0.022716,
						 -0.075056,-0.155016,-0.075293,0.143226,0.121658,
						 0.210122,0.124863,-0.157833,-0.096258,0.050849
						 }},
						 {{-0.073669,-0.215389,-0.148475,0.02032,0.013759,
						 -0.017438,-0.096481,-0.141985,-0.134715,-0.098583,
						 0.117404,0.067851,0.050881,-0.002285,-0.113101,
						 0.004791,0.051664,0.11094,0.070535,0.032953,
						 -0.0,0.04823,0.04156,0.015799,0.033713
						 },
						 {-0.080966,-0.101632,-0.066728,-0.010375,0.016033,
						 -0.024685,-0.070911,-0.118139,-0.122717,-0.073101,
						 0.062655,0.125289,0.114477,-0.009259,-0.080989,
						 0.131397,0.096541,0.023581,0.011576,0.059086,
						 0.066578,0.077734,0.039853,0.047,0.092348
						 },
						 {-0.242182,-0.230397,-0.053002,0.061342,0.053648,
						 -0.061919,-0.058772,-0.184339,-0.142747,0.049774,
						 0.17108,0.018762,0.053573,-0.023282,-0.13277,
						 0.093216,-0.0067,0.031389,0.046372,0.052019,
						 0.014399,0.063931,0.050179,0.039527,0.040179
						 },
						 {0.020348,-0.188563,-0.165846,-0.110529,-0.005218,
						 -0.000777,-0.016747,-0.017665,-0.044298,-0.116551,
						 0.019567,0.029142,0.055222,0.144062,0.098554,
						 0.032458,0.017174,0.005036,0.03104,0.042856,
						 -0.047086,0.037469,-0.000434,0.022562,0.112085
						 },
						 {-0.193206,-0.176082,-0.129227,-0.08318,-0.003619,
						 0.053912,-0.056247,-0.0984,-0.126309,-0.078114,
						 0.024392,0.037811,0.010663,-0.040071,-0.085237,
						 -0.059847,0.001186,0.00379,-0.065983,-0.033756,
						 0.051972,-0.041049,0.025975,-0.020793,-0.04794
						 },
						 {0.042241,-0.114624,-0.081041,0.048705,0.0591,
						 -0.103102,-0.050747,-0.063137,-0.054444,-0.085725,
						 0.037666,-0.018791,-0.026944,-0.104572,0.008936,
						 0.02953,0.020929,-0.065813,-0.069074,0.002243,
						 -0.054481,-0.052941,-0.007316,-0.051192,-0.027752
						 },
						 {-0.165637,-0.207264,-0.171859,-0.055666,0.027731,
						 0.107248,-0.037007,-0.104488,-0.116684,-0.1206,
						 0.006581,0.084048,0.000889,0.014812,-0.096326,
						 -0.045904,0.053128,0.039049,0.069531,0.019359,
						 -0.00918,-0.020812,-0.008782,-0.011834,-0.026402
						 },
						 {-0.081553,-0.158009,-0.112316,0.027919,-0.023526,
						 -0.180833,-0.191799,-0.122405,-0.054666,0.021409,
						 0.018057,-0.076542,-0.149924,-0.072077,0.021101,
						 0.010159,0.043545,-0.075815,-0.043476,-0.02442,
						 -0.017207,-0.094787,-0.038358,-0.030707,0.041484
						 },
						 {0.016094,-0.093501,-0.177046,-0.029319,0.045343,
						 0.113758,0.060631,0.035036,-0.057145,-0.166594,
						 0.005871,0.107087,0.108791,0.189621,0.078306,
						 -0.064047,-0.061929,0.00788,0.149622,0.208106,
						 -0.219998,-0.08595,-0.08876,0.017982,0.066813
						 },
						 {-0.134147,-0.148852,-0.134907,-0.07017,-0.010204,
						 0.16776,0.0318,-0.028175,-0.074224,-0.124162,
						 -0.015685,0.025908,0.065124,0.061289,-0.046872,
						 0.007621,-0.051163,0.018154,0.011339,0.044951,
						 -0.029818,-0.022335,-0.065656,-0.071924,-0.090325
						 },
						 {0.024704,0.009806,0.108513,0.168131,0.043703,
						 -0.15283,-0.138871,-0.009485,0.129247,0.101628,
						 0.12877,-0.046241,-0.222385,-0.168729,-0.129727,
						 0.00727,-0.020188,0.017918,-0.083811,-0.073583,
						 0.033119,-0.003412,0.001592,0.048157,-0.050511
						 },
						 {-0.168843,-0.146102,-0.037619,-0.011196,0.053493,
						 0.062192,-0.000124,-0.142174,-0.112727,0.000757,
						 0.050342,0.067109,0.040495,-0.006942,-0.102335,
						 -0.00537,-0.008451,0.004107,0.067763,0.002805,
						 0.013327,-0.050821,-0.024668,0.032698,-0.009244
						 },
						 {0.010503,0.027693,0.040019,0.110251,0.152676,
						 0.054339,-0.056356,-0.070398,-0.014456,0.049686,
						 -0.029275,-0.023131,-0.031283,-0.068295,-0.002564,
						 -0.069756,-0.001503,-0.022883,-0.028806,-0.037513,
						 0.003942,-0.071428,-0.157503,-0.108873,-0.126687
						 },
						 {-0.192342,-0.217144,-0.162595,-0.019114,0.043979,
						 -0.015083,-0.078276,-0.112935,-0.151762,-0.06107,
						 0.038338,0.065823,0.056868,-0.016238,-0.086373,
						 0.011312,0.007068,-0.001205,0.073661,-0.044052,
						 0.003678,-0.031728,0.0376,0.027061,0.021052
						 },
						 {-0.158599,-0.19999,-0.120064,0.033118,0.017192,
						 0.198736,0.07555,-0.043848,-0.126109,-0.128647,
						 0.192099,0.097226,0.068106,-0.00289,-0.092355,
						 -0.04017,0.053739,0.039934,0.012884,0.028234,
						 0.013813,-0.026507,-0.072363,-0.008722,0.009027
						 },
						 {-0.064818,-0.200485,-0.147438,-0.02629,0.002614,
						 0.110311,0.133225,0.009844,-0.108303,-0.143519,
						 0.129867,0.150085,0.195176,0.140733,0.02366,
						 0.006491,-0.023365,0.099649,0.198354,0.204507,
						 -0.088769,-0.058574,0.07138,0.038518,0.188933
						 }},
						 {{-0.106184,0.050048,0.081101,0.036336,0.057238,
						 -0.10415,0.042124,0.082968,-0.046248,-0.070362,
						 -0.068686,-0.016483,0.116479,0.023583,-0.110474,
						 -0.023069,-0.03115,0.154186,0.075113,-0.095722,
						 -0.066423,-0.047891,0.073269,0.055663,-0.116949
						 },
						 {-0.059252,0.032194,0.026999,0.027696,0.005867,
						 -0.069678,0.014252,0.084657,0.017842,-0.088228,
						 -0.029883,-0.03848,0.105923,0.003033,-0.137912,
						 -0.089017,0.035641,0.054365,0.030014,-0.066179,
						 -0.091639,-0.086335,0.0961,-0.000243,-0.145154
						 },
						 {-0.004249,0.118766,0.094778,-0.031143,-0.029077,
						 -0.023414,0.054823,0.021166,-0.020254,-0.08983,
						 0.004731,0.081496,0.050602,-0.117679,-0.157068,
						 0.04524,0.072975,0.092497,-0.049777,-0.125751,
						 0.008225,0.078199,-0.002049,-0.092464,-0.08841
						 },
						 {-0.060845,-0.055761,0.136353,0.056023,-0.021362,
						 -0.061522,-0.070017,0.100879,0.064523,-0.085987,
						 -0.020948,-0.019915,0.023951,0.108096,-0.16194,
						 -0.06091,-0.052282,0.004293,0.051103,-0.167944,
						 -0.054177,-0.117079,0.05449,0.133268,-0.13127
						 },
						 {-0.034633,0.018191,0.057756,0.06501,-0.042398,
						 0.008597,0.027726,-0.006027,-0.030775,-0.11037,
						 0.008962,0.030416,0.005823,-0.048934,-0.199111,
						 0.03767,-0.100714,0.072185,0.060026,-0.123498,
						 -0.087262,-0.050863,0.054446,0.053667,-0.139436
						 },
						 {-0.090869,-0.118996,0.011418,0.111565,0.079069,
						 0.003603,-0.16166,0.059578,0.085579,0.075428,
						 -0.042569,-0.095368,-0.062398,0.082085,-0.044476,
						 0.09661,-0.082594,-0.07861,0.168245,-0.033094,
						 0.036241,-0.085883,-0.028115,0.20492,-0.043742
						 },
						 {-0.111906,-0.059818,-0.035498,-0.109472,-0.045185,
						 -0.115467,0.022267,0.01842,-0.081974,-0.099239,
						 -0.089944,0.047669,0.019556,-0.081984,-0.050292,
						 -0.145874,-0.010988,0.030205,-0.000196,-0.087624,
						 -0.065799,0.068237,0.044334,-0.05408,0.016034
						 },
						 {-0.109344,-0.007498,0.165054,0.086312,0.024426,
						 -0.080182,0.01493,0.048316,0.081792,-0.04387,
						 -0.099608,-0.050938,0.098402,0.025992,-0.156092,
						 0.006014,-0.054756,0.122539,0.052197,-0.167379,
						 -0.001574,-0.094538,0.108172,0.088317,-0.169189
						 },
						 {-0.249565,-0.250745,-0.049302,0.028115,0.015121,
						 -0.124392,-0.283016,0.072082,0.109072,-0.068853,
						 -0.087845,-0.138715,0.093166,0.193801,-0.0406,
						 -0.102215,-0.150875,0.022215,0.172121,-0.046871,
						 0.032233,-0.219229,-0.035091,0.20991,-0.028603
						 },
						 {-0.021467,-0.031136,0.006287,0.007106,-0.156206,
						 -0.039143,0.018311,0.05216,-0.03215,-0.119252,
						 0.022197,0.060678,-0.001608,-0.073033,-0.110036,
						 -0.061074,-0.05435,0.063249,-0.049285,-0.150817,
						 -0.132739,-0.072642,0.033854,-0.025919,-0.049119
						 },
						 {0.016339,-0.130077,-0.015983,0.011486,0.006,
						 -0.035465,-0.111333,-0.045543,-0.005815,0.031273,
						 -0.078025,-0.087631,-0.13838,-0.074765,-0.067929,
						 -0.020576,-0.07105,-0.144376,-0.030143,-0.04582,
						 -0.066431,-0.130114,-0.160571,-0.071241,-0.092113
						 },
						 {-0.035075,0.095415,0.063619,-0.016088,-0.062782,
						 -0.02434,0.035889,-0.004357,-0.003339,-0.056723,
						 0.004551,0.013091,0.067176,-0.046389,-0.138865,
						 -0.003557,0.012585,0.036462,0.026723,-0.101855,
						 -0.03433,-0.018694,0.069803,0.002881,-0.074498
						 },
						 {-0.056585,0.012145,0.003927,0.003401,-0.076906,
						 -0.013081,0.090152,0.01894,-0.04509,0.011914,
						 0.031451,0.18432,0.010942,-0.148912,0.062295,
						 -0.078665,0.157847,0.113446,-0.161547,0.162666,
						 -0.068443,0.23975,0.097253,-0.186995,0.185065
						 },
						 {0.002656,0.101238,0.10856,0.05134,-0.082135,
						 -0.083185,0.023618,0.029573,-0.053209,-0.136537,
						 -0.082849,0.086804,0.084407,-0.076911,-0.171593,
						 -0.059324,0.060965,0.154972,0.01381,-0.090289,
						 -0.145272,0.014569,0.09065,-0.062628,-0.015611
						 },
						 {-0.010298,-0.002212,-0.043905,-0.071479,-0.051351,
						 -0.045784,-0.107583,-0.152227,-0.145677,-0.126999,
						 0.006226,-0.029513,-0.074818,0.017597,-0.102896,
						 0.073967,0.007314,-0.060905,0.088435,-0.008504,
						 -0.02707,-0.118564,-0.045448,0.069026,-0.054233
						 },
						 {-0.182181,-0.159374,-0.039521,-0.046539,-0.014078,
						 -0.204205,-0.193224,0.03723,0.062225,-0.050053,
						 -0.166,-0.174159,0.068997,0.145411,-0.033209,
						 -0.168887,-0.132683,0.097472,0.135535,-0.07098,
						 -0.106248,-0.127914,0.029671,0.106766,-0.034767
						 }},};

float weight3[10][1568]={
						{-0.022395,-0.009761,-0.027179,0.02382,-0.010145,0.026644,0.008844,0.002519,0.031528,0.013233,0.05297,0.008786,0.020523,0.024157,0.004443,-0.003341,-0.005871,-0.050079,-0.005681,0.014734,-0.027008,-0.009263,-0.016689,-0.011328,-0.078859,-0.079763,-0.028914,-0.047922,0.006717,-0.015464,0.040185,0.022482,-0.019974,-0.028695,-0.03485,-0.06811,-0.030761,0.008134,-0.010315,0.037168,0.051714,0.05356,-0.055962,0.008234,0.166548,0.084953,0.043864,-0.011891,-0.030556,-0.004828,-0.035834,-0.036873,-0.008655,-0.023289,-0.045002,-0.004824,-0.030419,-0.044075,-0.039336,-0.025986,0.008282,0.046834,0.081437,-0.017721,-0.027042,-0.005737,-0.010437,0.008597,0.075198,0.076983,-0.027528,-0.040318,-0.003431,-0.010229,-0.083911,0.038006,0.04912,-0.06028,0.051125,-0.010286,0.018115,-0.033559,0.008793,-0.000971,-0.059716,0.085844,0.027294,0.070604,-0.057766,-0.092122,-0.046998,-0.00879,0.051091,0.119055,-0.146842,-0.160923,-0.123298,-0.066337,0.013053,0.019869,-0.002389,0.052072,0.008704,0.00677,0.011701,0.031078,-0.028446,-0.013586,-0.032802,0.034719,0.017003,-0.082736,0.014329,0.060952,0.101664,-0.075966,-0.043868,0.030448,-0.056509,0.027821,0.006407,-0.161644,-0.213689,-0.0814,0.020647,0.002212,-0.000645,0.016514,-0.000961,-0.051314,0.017431,0.016382,0.021034,-0.041753,0.003095,-0.001656,-0.036411,0.016624,0.000526,-0.057769,-0.05725,-0.005348,0.048118,-0.047486,-0.072667,-0.0307,-0.047559,-0.003687,0.024817,-0.058767,-0.053184,-0.009197,-0.020096,-0.011022,-0.051683,-0.051361,0.01342,0.015103,-0.043352,0.016711,0.041389,-0.089389,-0.022653,0.04398,0.016941,-0.047464,-0.025595,0.02098,-0.065952,-0.02364,0.028612,-0.101401,-0.084791,-0.00935,-0.003912,-0.025146,-0.070454,0.003777,0.032434,0.029536,0.001647,-0.0605,-0.009112,-0.019066,-0.001307,-3e-05,0.020006,0.016608,-0.039985,-0.017967,-0.022626,0.009358,0.009696,-0.026246,-0.03897,-0.017574,0.016495,-0.021933,-0.068454,-0.020307,-0.025198,-0.072366,-0.073882,-0.008636,-0.01863,-0.045503,-0.08392,-0.062431,-0.056995,-0.017049,0.005798,-0.072046,0.020951,-0.002457,-0.075768,0.045965,0.045706,-0.068242,-0.147569,-0.234683,-0.120167,-0.118126,0.065831,-0.008345,-0.152385,-0.148912,0.003222,0.012152,0.048047,-0.041868,-0.070398,-0.042247,-0.068189,-0.01875,-0.013302,0.023917,0.015854,-0.057134,-0.109503,-0.284229,-0.071827,0.026015,-0.188857,-0.152908,-0.128537,0.018953,-0.006147,-0.042797,-0.003816,0.016158,0.018319,0.031347,-0.012955,0.013765,-0.001952,0.027178,0.048354,0.00976,0.000778,0.034047,0.022848,-0.109088,-0.133267,-0.024147,0.02207,-0.044745,-0.094806,0.013801,-0.070748,-0.025538,-0.001121,0.012935,-0.094491,-0.0164,-0.0391,-0.053818,-0.033567,0.001226,-0.057363,-0.0038,0.027399,-0.012441,0.021675,0.030275,0.060364,0.047817,0.033442,0.050294,-0.017194,0.010976,0.023446,0.016257,-0.009848,0.042191,-0.060439,-0.004778,0.003708,0.009233,0.011195,0.032934,0.044707,-0.041461,0.004127,0.026758,0.015814,0.022518,-0.073144,-0.176322,-0.025034,0.006646,0.041591,0.040026,-0.080449,-0.022918,-0.116368,0.077457,0.017328,0.056804,-0.093932,0.032906,0.047242,-0.004868,0.020967,0.011193,0.007836,-0.036657,0.021624,0.026781,0.090037,0.023551,-0.013131,-0.028147,-0.021065,0.026994,-0.026227,-0.01923,-0.04868,-0.161585,-0.086002,-0.066332,-0.064868,-0.040292,-0.048362,-0.024905,-0.006719,0.00863,0.024125,0.017847,-0.025124,-0.022223,-0.011987,0.011518,-0.006956,-0.00873,-0.02016,0.010039,-0.030555,0.027024,-0.02697,0.026624,-0.040102,-0.035043,-0.039384,-0.087287,-0.018622,0.003874,0.024986,-0.056749,-0.023772,0.057923,-0.06079,0.015816,-0.017564,-0.018133,-0.055604,0.021912,0.067395,-0.066268,0.04656,0.002314,0.033841,-0.013533,0.06975,-0.002046,-0.008617,0.051091,0.052836,-0.070071,-0.205936,-0.160235,-0.099853,-0.010381,-0.030422,-0.059746,-0.014304,-0.031876,-0.042871,-0.041659,-0.014107,-0.030015,-0.00968,-0.004833,-0.005904,0.035241,0.055438,-0.026544,-0.015159,-0.00604,-0.013606,-0.005866,0.03564,0.051663,-0.034281,-0.002261,-0.018779,-0.013516,-0.094339,-0.027588,0.011537,0.009152,-0.000876,0.046783,0.031226,-0.002861,-0.047785,-0.014067,0.001476,0.040173,0.030595,0.026829,-0.013766,-0.052066,-0.031272,-0.006772,-0.034961,0.009915,-0.003355,-0.033581,-0.022319,-0.008217,-0.008977,0.039424,0.050692,0.100476,0.031313,0.023882,0.015212,0.018112,0.01182,-0.169027,-0.074599,0.036777,-0.024535,-0.054276,-0.001893,-0.055387,-0.026832,0.014933,-0.051277,-0.049093,-0.097323,0.001719,-0.136942,-0.136525,-0.096086,-0.089094,-0.121663,-0.002646,-0.006394,-0.042408,-0.028375,0.007427,0.014916,-0.007838,0.00268,0.024443,-0.004158,0.031657,0.055768,0.031472,0.039648,-0.000183,-0.000617,0.004235,0.009858,0.016083,0.014476,0.007332,-0.028484,-0.05586,0.002555,0.002769,-0.003398,-0.02511,0.031843,0.006887,0.031388,-0.002339,-0.030041,-0.011621,-0.02428,0.008628,-0.002794,0.08276,0.03325,0.007955,-0.001098,-0.005101,-0.005612,0.028217,0.064263,0.026331,0.059065,0.0089,0.048218,0.011509,-0.020929,0.001527,0.069032,-0.002725,0.045247,0.062383,-0.013552,-0.042794,0.023081,-0.006613,-0.01468,0.029526,0.075446,-0.175421,-0.110667,-0.070497,0.00901,0.023407,0.115594,-0.115141,-0.263109,-0.178294,-0.141052,-0.010198,0.045222,0.018391,-0.021313,-0.016253,-0.022174,0.009335,-0.01134,-0.076063,-0.106027,-0.041939,0.01807,-0.043547,-0.010195,-0.006607,-0.179229,-0.092469,0.020299,-0.040884,-0.024451,0.01731,-0.092556,-0.194634,0.01946,0.077065,-0.053568,0.012973,0.038293,-0.08648,-0.185552,0.071129,0.056903,0.018241,-0.006795,0.052849,-0.047292,-0.055163,-0.022846,-0.02639,-0.037158,0.004864,0.006716,-0.040042,-0.115773,-0.007498,-0.022675,-0.075374,-0.044313,-0.05188,0.031737,-0.039044,-0.041082,-0.141559,-0.0172,-0.05279,0.009249,-0.001381,-0.083863,-0.079406,0.052794,-0.058348,-0.08261,0.027002,-0.08677,-0.120169,-0.007332,0.068533,0.048035,-0.060644,-0.000994,-0.08449,-0.037286,-0.009788,0.017434,-0.102956,0.04004,0.026407,-0.058308,-0.052233,-0.104943,-0.048328,0.001788,0.057251,0.027182,-0.01602,-0.00903,-0.002888,-0.009435,-0.006456,0.033004,-0.001469,-0.009194,0.020348,0.051488,-0.029504,-0.042718,-0.071633,-0.069335,0.007035,-0.117132,-0.114866,-0.05535,0.082215,-0.035426,-0.006862,0.011994,-0.027688,-0.081166,0.028454,0.069759,0.030901,-0.047866,-0.011142,-0.048711,0.004026,0.02741,0.084737,-0.025282,-0.070906,0.041863,0.009643,-0.003459,-0.056417,-0.023962,-0.022694,-0.030915,0.026163,0.014566,-0.025046,-0.05171,-0.036105,-0.010473,-0.009691,0.009809,-0.006108,0.012468,0.018532,0.025604,0.003686,0.007754,-0.000352,0.021973,0.001113,0.015984,0.019009,-0.030482,-0.025573,-0.037432,0.006869,-0.022315,-0.012444,0.019141,0.025761,0.020008,0.016399,0.018744,0.005206,0.033373,0.053629,0.055505,0.049809,-0.007458,-0.022116,0.034978,0.056306,0.052042,-0.021452,-0.015624,-0.090719,-0.142468,-0.039169,-0.000834,-0.140809,-0.050436,-0.059334,-0.10746,-0.094338,-0.045999,0.051481,0.012444,-0.092502,-0.144983,-0.033879,-0.101341,-0.037138,0.062577,0.022744,-0.070074,-0.065334,-0.018606,0.020488,0.110243,-0.058929,-0.095261,-0.054555,-0.017826,0.005591,-0.075023,-0.103327,0.006416,-0.065227,-0.017499,-0.021289,-0.003708,-0.04199,-0.059421,-0.022311,0.004953,-0.013992,-0.011058,0.043223,0.004298,0.080753,0.00362,0.068762,0.020692,0.021213,0.008181,0.031515,0.063219,0.01536,0.008796,-0.017585,0.012003,0.00455,0.045188,0.069807,-0.03021,-0.020928,-0.003877,-0.003184,-0.063578,0.008433,0.033657,-0.069325,-0.090248,-0.042959,-0.046321,0.002624,0.017762,-0.035123,-0.076925,-0.103772,-0.085806,-0.112484,0.010387,-0.033568,0.02573,-0.037763,0.021472,0.004319,0.026453,-0.017701,0.000712,-0.015777,-0.003102,0.028457,0.028954,0.012755,0.014,0.034179,0.018602,0.009651,0.014676,-0.035888,0.003618,0.021008,0.049477,-0.01401,-0.022874,-0.082375,0.00623,0.006963,0.010474,0.025601,-0.061976,-0.020847,0.041978,0.021586,-0.025384,0.016184,-0.018632,-0.014428,-0.00061,0.016656,0.018554,0.010324,0.011214,-0.012571,-0.004798,-0.018191,-0.049013,-0.052801,-0.006202,-0.050717,-0.008569,0.009368,-0.033428,-0.023722,-0.009257,-0.10391,-0.076822,-0.029016,-0.026168,-0.001872,-0.088901,-0.153744,-0.169778,-0.055369,0.017105,0.038389,-0.059393,0.015965,0.000916,-0.129662,0.067855,0.04811,0.062196,0.090367,0.093457,0.019989,-0.016143,0.004705,0.005211,0.021592,0.021365,0.026426,0.048819,0.045748,0.013814,-0.000106,-0.047895,-0.075527,0.036767,0.030359,-0.055587,0.001115,-0.004942,-0.026951,-0.024185,-0.049542,0.007285,0.021486,-0.054881,-0.048429,-0.028983,-0.010345,0.072533,0.069607,0.018006,-0.033199,0.018756,-0.0621,0.070504,0.103258,0.111426,-0.036077,-0.031854,-0.030772,-0.072253,-0.013147,0.087671,0.061099,-0.012799,0.000886,-0.04498,-0.017851,-0.100249,-0.024713,0.054144,-0.024424,0.010123,0.015079,0.068253,0.047947,-0.168721,-0.115878,-0.088947,-0.004081,0.009425,0.028946,0.042643,-0.145885,-0.180094,-0.094686,0.008292,0.0036,0.011282,0.022835,-0.065485,-0.09364,-0.058812,-0.027017,-0.026161,-0.023929,-0.009435,-0.000423,0.003885,0.027784,-0.021449,0.031047,0.003882,0.031597,0.002604,0.02547,0.030481,-0.04344,-0.074983,0.015132,0.035487,-0.007278,-0.01444,0.042,-0.049332,-0.146369,0.033945,0.00453,-0.069817,-0.00444,0.032079,-0.071531,-0.057631,0.061883,0.004537,-0.069839,0.001918,-0.004985,-0.04402,0.023601,0.071253,-0.006125,0.004429,-0.032149,-0.040744,-0.00934,-0.03277,-0.033093,-0.018843,0.00154,-0.03939,-0.020793,-0.046962,-0.028318,-0.04678,-0.046094,-0.085649,0.020535,-0.074109,-0.047562,0.007494,-0.00035,-0.014638,-0.078917,0.005876,-0.028212,-0.016742,0.043615,0.028547,-0.007728,0.049089,0.051509,0.105562,0.005809,0.062709,0.067455,-0.024822,0.022432,0.017337,0.063698,0.035561,0.039284,0.062646,-0.104788,-0.067774,0.033663,-0.04621,0.03827,0.029547,-0.034569,-0.151472,-0.17159,-0.122667,-0.133102,-0.004527,0.007745,-0.034332,-0.058732,-0.190587,-0.183261,-0.030736,-0.026791,0.008487,-0.024335,-0.041658,-0.00252,-0.03323,-0.066279,-0.012654,0.002769,-0.003378,0.008109,-0.003772,-0.011576,-0.039212,0.01872,-0.011349,0.001183,0.00265,0.014199,-0.007847,-0.071852,0.046222,0.038607,0.029937,-0.049453,-0.077436,-0.022215,-0.193306,0.042096,-0.012001,-0.019385,-0.04677,0.04208,0.017336,-0.253802,-0.021497,0.002585,0.060322,0.008347,0.061556,-0.011135,-0.103951,0.039682,0.065135,0.117987,-0.124349,-0.109246,-0.143781,-0.030187,-0.020526,-0.000258,-0.027825,-0.006149,0.013229,0.010403,0.008144,-0.016188,-0.004933,0.006854,0.008788,0.003796,0.012075,0.03672,0.034539,-0.002106,-0.021152,0.002068,0.010206,0.011263,0.003302,0.023963,0.022776,0.023911,0.015699,-0.13978,-0.051567,-0.023722,0.036218,0.057002,0.002979,-0.029247,-0.030011,0.035621,-0.0852,0.036549,0.001363,-0.026523,0.060496,0.020733,-0.013674,-0.032526,0.015011,-0.166787,-0.31439,-0.054798,0.005406,-0.032619,-0.108932,-0.01161,-0.036194,0.004654,0.022968,0.000462,-0.013435,-0.049418,-0.019369,-0.015545,0.047961,-0.000553,-0.060278,-0.07274,-0.045191,0.037203,0.05143,0.091433,-0.050583,-0.05588,-0.035179,-0.080614,0.05205,0.012763,0.024255,-0.000371,-0.00674,0.033421,0.007056,0.043119,-0.028089,-0.059833,-0.01265,-0.006165,-0.01711,0.025782,0.007118,-0.009377,-0.031908,0.039388,0.017157,-0.012051,-0.06696,-0.024396,0.020528,0.012075,-0.019522,-0.091194,-0.025282,-0.046901,0.072838,0.031255,-0.041348,0.005061,0.037856,0.016488,0.079597,0.0188,0.006545,0.014091,0.085996,0.015321,-0.043673,-0.071015,-0.006843,-0.055769,-0.087278,-0.133824,-0.142429,-0.11323,-0.094535,-0.168123,-0.299258,-0.097537,-0.004914,-0.054735,-0.072383,-0.10931,-0.06411,-0.171002,-0.185826,-0.119033,-0.078413,0.054952,0.056785,-0.02902,-0.067675,0.002241,0.038409,0.065699,0.03875,0.018798,0.037003,0.02476,0.014283,0.010063,0.007351,0.027151,-0.021625,0.005427,-0.044157,-0.077468,-0.023267,0.019763,-0.02011,-0.01303,0.024916,-0.01737,-0.00045,0.02174,0.039711,0.026123,-0.033584,0.008824,-0.019367,-0.082108,0.038982,0.018123,-0.023291,-0.021558,-0.032534,0.010971,0.021446,-0.045723,-0.077029,0.01971,0.060285,-0.050271,0.004076,-0.008361,0.042883,0.04128,0.019455,0.036787,-0.043114,-0.004922,0.058027,0.001082,-0.015493,-0.001555,-0.009338,-0.020489,0.013091,-0.084116,-0.179941,-0.122344,-0.093888,-0.078916,0.001715,-0.028167,-0.007899,0.0152,0.00912,0.016413,0.000581,0.019721,-0.00889,0.042944,0.019838,-0.006773,0.07577,0.01139,0.012553,0.035871,0.03888,0.040073,-0.033953,0.063428,-0.024167,0.01505,0.041578,-0.036584,0.000173,-0.044445,-0.074049,-0.015825,-0.035392,-0.043797,-0.069428,0.07106,0.018474,-0.049953,-0.051217,0.007406,-0.085909,-0.12761,-0.034471,0.021463,0.013757,-0.009024,-0.012265,-0.037998,0.00223,0.115995,-0.014108,0.032103,0.035545,-0.027851,-0.060641,0.002996,-0.032723,0.107366,0.105945,0.035127,-0.017297,-0.082151,-0.063758,0.053126,0.114649,-0.001532,-0.092262,-0.073097,-0.161033,-0.087433,0.080932,0.042922,0.037233,-0.149036,-0.042396,-0.071817,-0.113882,-0.018752,-0.01354,-0.012457,-0.025171,-0.005366,0.014953,0.020426,0.021955,-0.000468,0.03031,0.012497,0.002437,-0.017105,0.041814,0.059322,0.017469,0.000244,-0.006428,-0.018405,0.014963,0.009861,0.031927,0.018367,0.001269,-0.020729,0.052713,0.014422,0.038918,0.001972,0.078027,0.04953,0.059942,-0.017053,0.002714,-0.08267,-0.016475,-0.023711,-0.008672,-0.035935,-0.005186,-0.073188,-0.052887,-0.055643,-0.096011,-0.142801,-0.075227,-0.066886,-0.165618,-0.07311,-0.03182,-0.002483,-0.055599,-0.071983,0.015106,0.035299,-0.048466,-0.071562,-0.050473,0.003019,-0.009201,0.017217,0.03075,0.032074,0.038918,0.01529,0.006278,0.008933,0.024895,-0.017824,0.048923,0.039247,0.031468,-0.009638,-0.022502,0.012653,-0.035849,-0.005012,0.003276,0.024323,-0.028126,-0.025819,-0.014172,0.012464,0.002753,0.012407,-0.000439,-0.008114,0.007398,-0.029381,-0.000581,0.006464,-0.003841,-0.018544,-0.069885,-0.070226,0.013037,0.018773,-0.007167,-0.066365,-0.090581,-0.008762,0.016051,0.015584,0.00198,-0.076361,0.048031,0.004693,0.00326,-0.019853,0.022706,0.004075,0.009659,0.017943,0.018524,0.04358,-0.014873,-0.021163,-0.00801,-0.070706,-0.061819,-0.112561,-0.065559,0.010579,-0.01109,-0.052911,-0.118816,0.014504,-0.019975,-0.031768,-0.029269,-0.006112,-0.037599,0.012072,0.007857,-0.00095,0.040508,0.016871,-0.03631,0.027074,0.009135,0.020819,-0.019715,0.044525,0.006705,-0.036338,-0.000306,-0.010742,-0.004467,-0.012722,0.001166,0.032982,0.041352,0.063925,-0.018686,-0.019372,-0.058263,0.002456,0.022399,0.00026,0.002089,0.034739,0.00933,-0.0215,0.00162,-0.013123,-0.002701,0.0285,0.03088,0.00322,-0.011381,0.004042,3.9e-05,-0.011697,0.002934,-0.019392,-0.016989,-0.004904,-0.000129,0.009277,-0.023647,0.017475,0.047908,0.027411,0.025273,-0.018371,0.052492,-0.016603,0.002326,-0.022047,-0.062916,0.006596,-0.036682,-0.040773,-0.013556,-0.039295,-0.039303,-0.0557,-0.045069,-0.072892,0.024055,0.017842,0.006883,-0.00086,0.019529,0.009673,0.042706,0.044561,-0.068512,-0.046363,-0.032316,0.017619,-0.001895,0.036103,-0.027017,0.065543,0.09491,0.00096,0.011678,-0.002093,-0.032091,-0.00912
						},
